tree
version=v4
num_class=1
num_tree_per_iteration=1
label_index=0
max_feature_idx=15
objective=regression_l1
feature_names=station_id lat lon capacity hour dow is_weekend hour_sin hour_cos bikes_pct bikes_pct_lag_15m bikes_pct_lag_30m bikes_pct_lag_60m bikes_pct_lag_180m bikes_pct_roll_1h bikes_pct_delta_15m
feature_infos=-1:128:1005:1139:1299:162:453:1049:1011:1443:736:1088:1115:1448:691:16:79:138:201:259:1101:4:24:342:820:897:1104:1138:1240:1268:1321:1402:1503:26:649:693:974:1027:1236:1412:75:98:273:347:463:715:799:810:864:981:1153:1195:1357:1507:224:236:245:320:629:740:838:882:948:1133:1164:1225:1308:1364:1401:400:483:661:667:721:924:1055:1145:1151:1211:1266:1394:57:117:157:240:297:306:371:372:385:436:479:746:772:780:987:1053:1191:1226:1316:1318:38:46:126:231:302:312:329:331:452:565:604:727:749:861:872:905:908:909:918:937:1029:1033:1108:1113:1186:1223:1228:1282:1286:1332:1429:1457:1502:27:52:55:81:180:206:232:286:450:533:605:640:653:730:758:845:860:863:925:949:975:1004:1043:1096:1110:1158:1247:1260:1270:1313:1370:1403:1411:1477:36:76:100:124:173:220:285:301:374:378:415:538:731:816:826:920:955:1010:1120:1210:1259:1280:1470:19:247:380:441:469:622:633:658:718:719:726:752:814:827:842:865:893:942:954:1075:1181:1215:1243:1252:1329:1399:1420:12:15:95:111:114:137:158:170:248:258:358:362:370:403:421:424:433:495:594:623:662:698:751:787:921:958:963:965:1051:1065:1116:1154:1156:1159:1171:1356:1360:1363:1369:1430:1432:14:62:94:101:130:136:169:218:269:280:288:290:321:333:351:402:446:492:506:563:619:624:686:712:728:747:1000:1028:1058:1165:1276:1295:1312:1345:1347:1368:1382:1395:1398:1404:1450:1456:1482:30:68:110:193:198:298:397:409:420:477:491:548:552:589:590:680:782:790:819:823:993:1020:1090:1106:1130:1143:1233:1319:1322:1437:1446:1458:1479:1:145:214:237:244:267:319:334:359:408:413:464:484:544:573:613:614:765:796:903:927:939:969:1013:1023:1034:1038:1044:1084:1089:1103:1109:1119:1187:1257:1362:1383:1435:2:84:106:108:156:171:208:255:271:276:277:336:337:349:416:437:460:494:499:504:520:521:535:537:543:564:650:660:687:761:873:892:941:968:988:1016:1021:1077:1097:1105:1157:1184:1214:1216:1278:1284:1328:1335:1351:1393:1422:1425:1464:18:44:89:127:147:168:233:284:293:389:431:442:482:489:517:523:524:541:559:560:567:611:627:628:674:714:741:762:784:803:837:922:999:1080:1180:1241:1277:1326:1340:1387:1500:0:10:13:43:51:155:166:184:202:294:352:390:418:434:455:470:480:508:511:542:578:634:656:669:708:710:734:753:795:797:846:851:950:971:990:1048:1066:1072:1081:1114:1121:1179:1209:1242:1245:1265:1288:1302:1314:1349:1361:1367:1385:1428:1452:1454:1466:1486:1498:6:93:112:122:200:216:287:315:316:361:393:404:462:474:588:657:666:681:702:703:739:748:798:802:808:815:830:862:867:880:885:888:1030:1092:1093:1123:1142:1144:1150:1160:1202:1208:1218:1220:1237:1301:1331:1341:1348:1353:1378:1388:1410:1418:1475:1495:9:29:39:115:120:135:140:161:181:238:265:350:360:399:405:406:427:429:432:456:465:596:601:625:632:684:701:705:713:750:756:783:788:809:813:828:839:843:859:868:902:967:994:1001:1019:1035:1037:1039:1040:1050:1086:1091:1098:1125:1127:1134:1175:1178:1192:1203:1206:1248:1267:1315:1346:1352:1384:1386:1397:1460:1493:45:80:132:164:191:250:283:326:396:419:457:459:468:534:549:598:620:651:720:789:852:898:915:923:956:957:966:1069:1100:1155:1170:1196:1231:1275:1343:1366:1380:1409:1436:1455:1501:1504:41:42:50:66:73:74:134:190:234:235:254:264:310:354:366:373:383:412:438:449:507:509:514:522:531:536:580:608:642:644:647:654:664:682:700:724:745:766:794:805:821:855:857:889:899:926:946:964:998:1009:1025:1071:1076:1137:1182:1227:1298:1334:1336:1373:1375:1396:1442:1468:1471:1476:1481:1492:56:88:179:187:195:209:228:230:260:261:278:282:299:339:356:369:377:472:476:501:519:539:540:569:575:584:618:655:673:678:695:737:759:777:781:801:804:906:929:1008:1078:1079:1102:1112:1149:1177:1200:1239:1254:1256:1281:1283:1310:1327:1359:1381:1445:1480:11:48:69:71:72:105:125:144:148:151:197:199:213:219:257:309:325:386:422:466:471:516:528:557:571:600:607:616:635:638:645:659:689:744:774:848:907:911:919:983:992:1068:1074:1082:1087:1122:1167:1190:1194:1219:1221:1249:1287:1307:1309:1333:1344:1419:1433:1485:22:25:61:146:163:174:192:212:303:323:417:423:425:439:487:503:515:577:586:612:626:665:694:697:699:716:722:729:733:890:891:913:945:977:1061:1063:1094:1118:1128:1136:1147:1199:1212:1222:1244:1264:1350:1459:1472:1483:1496:1509:8:104:149:159:183:226:246:292:308:343:478:532:576:591:593:631:641:725:793:811:833:847:854:858:933:934:947:962:982:1064:1148:1152:1172:1198:1204:1224:1230:1246:1279:1305:1374:1447:1484:1487:64:77:85:113:118:196:243:253:275:281:291:300:314:318:322:353:363:367:368:410:475:486:518:526:555:558:609:685:764:834:850:886:896:916:953:959:991:997:1006:1007:1032:1041:1169:1174:1193:1197:1229:1258:1263:1272:1285:1296:1354:1355:1371:1390:1408:5:20:34:37:67:86:103:121:225:239:249:256:263:270:289:304:317:332:348:375:401:407:443:490:510:547:553:566:568:597:648:806:910:928:944:1003:1042:1073:1161:1163:1205:1213:1251:1297:1323:1339:1342:1389:1392:1400:1413:1434:1462:1463:1508:3:91:97:102:116:123:133:204:221:279:305:394:440:447:488:498:556:570:603:621:643:688:704:763:775:779:817:832:866:879:936:943:972:1031:1052:1059:1067:1085:1291:1300:1338:1365:1391:1489:7:32:99:153:307:338:340:344:355:384:411:525:527:550:554:592:637:663:677:692:717:755:770:876:904:961:979:985:1014:1022:1132:1255:1273:1290:1294:1324:1377:1415:1440:1469:1473:28:33:119:141:194:203:223:241:430:444:493:496:546:671:672:735:754:773:822:836:841:870:912:935:938:951:976:978:995:996:1026:1047:1099:1124:1135:1140:1232:1269:1325:1407:1423:1427:1474:1490:1505:49:139:175:251:252:324:335:388:414:448:485:529:545:579:602:709:757:769:785:883:895:917:973:1018:1024:1054:1057:1131:1188:1201:1217:1234:1238:1253:1271:1424:1426:1431:1506:35:58:92:107:217:262:274:327:345:357:379:451:461:505:617:636:690:696:767:771:829:835:877:932:1117:1129:1173:1274:1293:1303:1317:1330:1372:1376:1379:1414:1439:1494:17:31:59:142:167:188:266:295:346:398:445:562:723:742:743:776:818:825:853:856:874:894:900:914:960:1002:1126:1261:1292:1337:1358:1444:1465:1497:47:82:364:365:387:435:497:630:849:884:930:952:986:1046:53:87:96:129:131:165:176:178:205:227:272:392:426:572:599:610:807:824:844:1036:1056:1070:1141:1162:1185:1189:1304:1306:1421:1438:1453:83:109:154:185:186:222:311:330:473:481:561:582:646:675:732:875:931:1083:1095:1107:1111:1168:1289:1417:1467:1478:54:60:63:65:160:182:242:268:500:512:530:639:652:706:878:970:984:1017:1176:1235:1441:1449:1461:21:23:78:90:189:382:454:606:615:786:812:881:940:1183:1207:1499:40:152:172:328:395:679:831:989:1045:1406:1488:210:211:215:458:551:581:887:1146:70:229:341:376:585:683:791:840:143:381:467:587:595:760:768:1015:1416:150:391:502:574:583:670:707:800:1062:1320:1451:177:513:668:711:778:207 [48.743385314941406:48.957569122314453] [2.1655967235565186:2.5382421016693115] [11:105] -1:12:8:16:9:3:5:7:17:11:10:4:20:19:21:22:1:18:2:23:6:14:0:13:15 -1:5:4:6 -1:1:0 [-1:1] [-1:1] [0:1.8181818723678589] [0:1.8181818723678589] [0:1.8181818723678589] [0:1.8181818723678589] [0:1.8181818723678589] [0:1.8106061220169067] [-0.83333331346511841:0.68181818723678589]
tree_sizes=15202 15275 15257 15306 6033 6048 15405 15875 6028 15626 6146 15661 15737 15746 15184 15507 6034 15340 14957 15908 15926 15453 16057 15930 15878 6080 16149 15791 15962 16575 15607 6112 6108 16708 16294 16240 16000 6148 16378 16451 16672 16379 16428 16668 16859 16519 15886 16360 16124 16419 16313 16617 16683 16397 16340 6266 16754 16302 16395 16427 16456 16624 16188 16532 16754 16671 16978 6127 16506 17045 16959 16975 6244 6171 16729 16965 16452 16708 17180 16596 16765 17187 16446 16644 16216 16427 16242 16867 16720 16421 16818 16557 6150 6144 6087 16101 16576 6092 16858 16154 16086 16916 16460 6185 16316 15554 16497 15471 16514 15364 14809 15114 14842 15360 16097 6085 15960 15655 15164 16696 16559 15843

Tree=0
num_leaves=64
num_cat=55
split_feature=9 9 9 9 4 9 0 9 0 0 4 9 0 0 0 0 0 0 0 0 0 0 0 0 0 0 4 0 0 0 0 0 0 0 0 0 0 0 13 0 4 0 0 0 0 0 0 0 0 0 0 0 0 0 0 0 0 0 0 0 0 0 0
split_gain=469831 24392.1 15057.6 3030.76 2461.54 2126.72 1834.02 1637.23 1585.55 1409.78 1269.81 1225.73 1223.04 1219.56 1172.04 1157.92 1121.01 1102.37 1045.38 1089.32 1040.12 1002.35 1161.71 1035.82 949.945 850.131 848.395 968.69 844.079 800.304 762.894 752.896 715.986 690.998 690.638 677.399 676.464 654.205 652.806 796.623 645.038 897.576 872.786 641.239 620.931 620.19 616.91 610.782 598.67 591.066 579.623 569.952 682.006 569.107 557.725 545.641 531.327 517.09 514.298 495.415 491.523 457.936 455.736
threshold=0.30471627414226538 0.41728855669498449 0.2124435901641846 0.54606062173843395 0 0.14839839935302737 1 0.26120401918888098 2 3 4 0.36140660941600805 5 6 7 8 9 10 11 12 13 14 15 16 17 18 19 20 21 22 23 24 25 26 27 28 29 30 0.28679654002189642 31 32 33 34 35 36 37 38 39 40 41 42 43 44 45 46 47 48 49 50 51 52 53 54
decision_type=2 2 2 2 1 2 9 2 9 9 1 2 9 9 9 9 9 9 9 9 9 9 9 9 9 9 1 9 9 9 9 9 9 9 9 9 9 9 2 9 1 9 9 9 9 9 9 9 9 9 9 9 9 9 9 9 9 9 9 9 9 9 9
left_child=2 4 5 10 8 15 -6 16 -2 -8 17 29 -7 -9 -5 -1 -4 -3 -12 -20 -10 -22 -23 -24 -15 -13 27 -18 -14 -11 -25 -17 -27 -33 -26 -21 -28 -36 43 -40 41 -30 -42 -39 -37 -31 -38 -44 -32 -34 -41 -16 -53 -54 -46 -47 -45 -52 -29 -49 -51 -58 -61
right_child=1 3 7 14 6 12 9 13 20 11 18 25 28 24 51 31 26 -19 19 35 21 22 23 30 34 32 36 58 40 45 48 33 49 -35 37 44 46 38 39 50 42 -43 47 56 54 55 -48 59 -50 60 57 52 53 -55 -56 -57 61 -59 -60 62 -62 -63 -64
leaf_value=0.30902777463197706 0.30234673991799355 0.30277777463197708 0.31027777493000031 0.30252267271280286 0.31059027463197708 0.31073231995105743 0.30027777478098872 0.30324073731899259 0.30156809687614439 0.31027777493000031 0.29936868399381639 0.30027777478098872 0.30777777433395387 0.30992063134908676 0.30777777433395387 0.30518518239259718 0.30861110836267469 0.31435184925794601 0.30080409049987794 0.31478757858276368 0.3031810000538826 0.30416666418313981 0.30407087802886962 0.30527777522802352 0.30227777436375619 0.30108858570456504 0.30972221940755845 0.30618686527013778 0.30694444179534913 0.30080409049987794 0.30606724768877031 0.30204248055815697 0.31104700565338134 0.29490740410983562 0.30227777436375619 0.30277777463197708 0.30027777478098872 0.31027777493000031 0.31027777493000031 0.30902777463197706 0.30902777463197706 0.2986111082136631 0.30694444179534913 0.30164141133427619 0.30397095680236819 0.31124551594257355 0.30204248055815697 0.30590277463197707 0.30932539403438569 0.30170634612441061 0.30801970958709718 0.31380718648433686 0.31636473089456557 0.32857564836740494 0.31361110806465148 0.30566239058971406 0.30194444134831427 0.30268719494342805 0.30138888582587242 0.30427777469158174 0.30869882702827456 0.30549516528844833 0.29910130426287651
leaf_weight=651 666 543 731 693 2935 580 1218 2314 426 1250 429 567 752 774 1030 996 536 26837 821 5411 466 792 1043 1175 1610 711 649 570 573 670 1559 1923 1778 233098 1752 693 2117 651 601 651 660 35599 880 828 856 988 30587 953 20623 677 733 2086 2603 236202 48979 29285 896 13712 18931 1093 25175 17079 48403
leaf_count=651 666 543 731 693 2935 580 1218 2314 426 1250 429 567 752 774 1030 996 536 26837 821 5411 466 792 1043 1175 1610 711 649 570 573 670 1559 1923 1778 233098 1752 693 2117 651 601 651 660 35599 880 828 856 988 30587 953 20623 677 733 2086 2603 236202 48979 29285 896 13712 18931 1093 25175 17079 48403
internal_value=0.305556 0.34306 0.268319 0.349456 0.320315 0.263202 0.315074 0.285756 0.333087 0.31325 0.341305 0.314315 0.269768 0.293215 0.352297 0.260719 0.280023 0.350185 0.33704 0.337631 0.335039 0.336333 0.337684 0.339624 0.295303 0.32179 0.279183 0.271032 0.269298 0.307606 0.341805 0.260537 0.323003 0.260352 0.294196 0.338473 0.284089 0.295602 0.297096 0.289508 0.268846 0.263681 0.272447 0.303214 0.336654 0.306014 0.283082 0.27171 0.343891 0.324282 0.287261 0.352482 0.352642 0.352892 0.33731 0.307075 0.301516 0.285175 0.269202 0.270987 0.322349 0.303331 0.270296
internal_weight=0 419187 421883 327183 92004 326161 65254 95722 26750 62319 84569 61101 89493 41601 242614 236668 54121 27380 57189 56760 26084 25658 25192 24400 39287 28908 53390 20037 88913 32193 23357 236017 28341 235021 38513 55939 33353 36903 35151 15697 88161 36172 51989 19454 50528 30943 32704 51329 22182 27630 15096 241921 240891 238805 49835 30273 18803 14445 19501 50449 25852 17975 49496
internal_count=841070 419187 421883 327183 92004 326161 65254 95722 26750 62319 84569 61101 89493 41601 242614 236668 54121 27380 57189 56760 26084 25658 25192 24400 39287 28908 53390 20037 88913 32193 23357 236017 28341 235021 38513 55939 33353 36903 35151 15697 88161 36172 51989 19454 50528 30943 32704 51329 22182 27630 15096 241921 240891 238805 49835 30273 18803 14445 19501 50449 25852 17975 49496
cat_boundaries=0 1 46 93 139 140 188 235 282 327 373 420 466 509 555 600 647 693 735 779 780 826 869 916 962 1009 1056 1103 1151 1196 1243 1290 1331 1332 1379 1420 1467 1509 1556 1603 1649 1696 1743 1789 1836 1883 1930 1978 2025 2072 2117 2164 2208 2254 2300 2345
cat_threshold=8388639 0 0 0 2 262144 2214592544 67108864 0 0 0 0 0 12288 525312 69632 786432 0 256 524288 128 64 0 0 0 2 0 0 0 0 0 0 134234128 0 0 0 8192 64 256 2164260864 0 0 256 16384 16777216 512 0 2 0 0 536870912 0 0 256 285216768 0 0 32768 0 2147483648 0 0 0 0 1073741824 0 0 2 512 1342177280 2097152 0 0 0 0 32 1 256 0 0 0 2097154 4 536870912 1073745920 0 0 1 0 0 0 0 269484033 0 268435456 0 0 0 16777216 4096 0 0 524288 2 8448 0 262144 64 4096 67108864 0 4096 0 0 2048 16778240 0 16384 4 0 1024 0 8 0 0 134217792 64 0 2101248 0 2097152 0 2147483656 0 0 0 4100 0 67108864 8388671 0 262144 67108872 32768 16842752 8 536870912 1 0 0 0 0 2097152 67109120 0 134218752 67108864 1 0 0 33554432 0 0 75497728 0 256 67108864 1073741824 0 0 32 0 0 0 1073741824 1073741824 0 4194304 0 0 0 0 1024 0 262144 131072 0 32 0 128 0 2560 0 1 0 2097152 64 0 0 0 0 0 8 0 536870912 0 536870912 0 0 131072 134217728 0 16384 268435456 0 64 0 0 128 2048 0 32 0 2048 134479872 16 524288 0 557152 1 0 32 4 524288 33554432 0 33554432 0 0 0 0 65536 65536 0 64 0 0 8388608 8 0 0 0 167772160 0 2181042176 12 2147483648 2097152 131264 4194308 0 0 0 16777216 1048576 0 0 0 1088 0 134234112 32 0 0 0 0 64 32768 33554432 0 0 16 8 0 4 0 2048 0 536870920 0 0 0 64 4096 0 0 0 16777216 0 0 2048 0 0 524288 536870912 8421376 524416 0 1048576 1073741824 1049280 0 0 131072 2147483680 0 0 0 0 0 2048 268697600 0 0 524288 128 262144 16384 262144 256 0 0 2147483648 2147483648 0 0 268435456 1073741824 0 0 0 0 2 0 4 0 0 2147483648 0 0 75497504 0 0 8194 0 0 4194308 8200 0 4194304 268435456 1073741824 536870912 2048 4 16781312 0 0 0 1024 16 33554432 131072 0 0 0 8388608 0 0 65536 65536 268447808 0 0 64 0 0 2097152 0 0 524288 512 0 0 1073741824 0 73728 0 0 0 0 4 4194344 0 20 65536 0 2097154 2048 8 0 1073741824 0 0 2 32768 8388608 0 4194304 268435456 0 8 0 0 0 0 0 0 262144 0 2 0 0 0 0 0 0 0 0 536870920 8 0 4096 0 0 1048576 65536 8 131072 34152448 536871040 4194304 131072 0 1208025088 0 0 0 536870912 0 0 0 131073 268435968 0 268435456 0 0 0 0 0 0 0 147456 1048576 1073741824 0 0 0 0 1040 0 16785408 0 0 2052 0 0 33281 0 2097216 4100 0 1028 16777216 0 1280 2147483648 4 2097184 0 33554432 0 2097152 0 256 0 1073741824 8192 2 0 1073741824 8388608 0 0 0 67108992 0 0 0 0 0 262144 0 0 268435456 536870912 0 16777216 0 256 2147483648 393216 65536 16384 0 256 0 0 0 1342177280 2 0 0 8 0 67108882 0 0 0 0 0 1048576 4096 4194304 0 0 0 0 0 0 0 268697600 0 0 1073741824 0 0 0 0 0 0 268435456 4096 0 0 16384 0 2097152 134479880 16777216 2097152 12582912 0 18874376 0 65540 0 134217736 0 0 0 2048 0 32768 0 131072 0 8388672 536870916 16 262144 0 0 0 2048 0 0 32768 0 0 33559040 0 16 1024 0 0 0 0 268959744 0 0 0 16384 4096 0 20 1 0 0 67108864 0 0 33554688 0 1048576 0 524288 0 134217728 256 20496 67108864 524288 0 0 65536 0 134217728 1048576 0 0 1073741824 0 0 2147483648 4194304 512 256 0 2 4194304 0 0 4194304 0 0 637534208 0 0 0 2151809024 1 4194560 2 1048580 4194304 0 0 0 67108864 16777216 65536 0 33554432 0 0 0 2097152 1 16777216 0 1073741856 0 262144 2 0 0 2147483648 1024 16 2147483648 0 67112960 0 0 33554432 16777216 33554434 262144 1 0 0 262144 1074266120 8388608 0 0 0 0 1342177280 0 0 0 262144 0 0 0 0 0 2147485696 1 2097152 262144 1024 0 0 0 4194304 0 0 0 16384 0 1092616192 32 4194304 0 0 2048 0 0 0 0 536871936 256 0 0 134217728 0 33792 0 134217732 0 0 532480 0 0 128 134219808 1048576 16 0 0 0 4 0 2147483665 268443656 14654 8192 0 262144 1073741952 0 0 8 536870916 0 2147483648 4 16777216 0 0 0 0 0 262144 0 1 0 0 0 1073741824 8 536875008 268435456 0 0 8192 268435456 0 262144 8 0 33554432 0 4160 0 0 0 8388624 1 67108864 67109376 4 0 131072 8192 0 0 512 524288 0 0 0 0 0 537919488 0 0 16785408 0 0 0 0 0 524289 0 0 2176 0 0 6144 256 8388612 0 524288 32 0 6 67108864 8388616 1052676 134217728 0 0 0 2097152 4194432 0 2129922 0 2097152 0 32768 1073741824 0 0 0 2147483648 0 4194336 0 1073741824 0 0 0 32 32 524288 2176 1140850690 263168 128 8396800 268435456 0 0 0 0 0 0 0 0 0 0 0 0 1048576 0 1024 0 131072 0 65536 8 33554432 0 16777216 67108864 0 0 528 64 131072 0 192 0 0 0 0 0 0 512 0 0 1 4 8256 1048576 2050 0 262144 0 0 0 2147483672 64 0 0 2048 33554432 2097152 0 0 16384 0 524288 16 524288 67108864 16384 147456 8 0 0 0 524288 64 14 134217728 0 0 33554433 0 0 1024 0 0 0 0 33619968 0 0 0 133120 262144 67108864 65537 256 0 0 524288 0 0 524800 0 0 0 0 2 128 0 262144 0 0 0 1179648 0 8 16384 0 1073741824 0 0 2097152 8192 262144 0 0 0 0 1024 0 0 0 0 4194304 65536 262144 1 2048 524288 8388608 32 0 0 526336 0 0 0 1024 4202496 0 0 167788544 67108864 32768 0 8388608 16912384 512 0 0 4 0 0 201326592 0 4259840 0 0 1 8388608 0 4096 2048 134217728 33554432 0 0 0 1073741824 4194304 0 32768 8 0 8192 0 0 128 0 40960 272629764 134217736 0 0 0 16384 0 0 0 201326592 0 0 69632 1048576 1082130432 0 0 256 0 83886080 4194304 16777216 0 0 8194 0 0 16781312 0 0 0 0 512 0 0 0 1073741824 0 0 0 1073750016 0 2155872256 65536 4096 0 1 2162688 33554432 0 49152 0 2048 524288 0 33554434 0 0 512 0 64 0 1048576 67108864 0 8 0 2097152 0 128 131072 8388640 0 0 0 0 1024 2 8832 0 553652226 526336 0 0 0 32 32 4194304 0 0 0 0 0 0 0 0 4 4096 0 131072 2147483648 8192 65600 256 2164260864 128 8 0 0 0 2 8 0 17408 0 512 0 0 131072 0 0 0 131072 0 2 0 17039360 33554432 0 512 0 0 0 0 0 0 0 0 2048 64 0 0 8388612 2148007936 4194304 4100 192 524288 268435456 0 65536 0 128 0 16384 0 0 5 0 134217746 0 16384 0 0 0 2 1114112 0 64 0 0 32768 0 65536 512 0 2 0 0 0 2 0 256 1 0 167772160 65536 0 0 0 2048 512 0 266240 0 8 0 33587200 256 16384 65536 0 16 1048576 262272 0 0 0 0 16 1024 201326592 1 2 2621456 8388612 0 524288 2336 0 2151677968 0 0 262144 0 0 0 4 8388608 1024 0 16384 0 2113536 0 0 0 0 64 4194304 0 0 4 2359296 0 8192 7998 0 0 0 16384 0 0 40 67109380 4 0 67108864 2147483648 0 0 0 0 0 2097152 0 0 0 0 0 0 196608 67108864 524288 8192 0 0 0 0 4194304 1024 16777216 0 0 0 0 1048576 0 512 17563648 2048 18432 4096 65536 0 0 0 8388736 33554432 0 16777216 1073741824 0 0 8 2048 0 0 0 262144 0 0 512 0 5120 0 0 4227072 0 16779264 3178496 0 0 32 0 4 2149584898 268435456 0 0 524288 128 4096 524288 4096 0 0 0 0 2048 1082130436 268435520 0 0 270336 2147614720 0 0 131072 0 0 0 0 2147483656 0 33554432 2 0 0 134217728 0 64 0 0 8224 64 1 0 0 8388624 0 0 0 0 0 0 1073741824 0 524288 8 0 268435464 0 256 262144 0 512 0 4096 8388608 0 64 0 16793604 0 262144 0 0 0 0 134217736 0 1024 0 33554432 65600 8388612 0 4096 8192 0 0 0 0 269746176 1025 0 4096 128 524288 131072 0 0 8 131072 0 0 0 0 1048576 0 0 2147483648 266242 524288 0 0 0 0 33554432 16 0 1048576 262144 4 0 0 0 268435488 0 0 0 0 0 131072 0 65536 512 65792 98304 1073741824 16 0 0 134217728 0 512 2147483648 4 0 8 0 0 8388608 0 0 2 0 0 33554432 2 256 0 0 16 16416 0 2684354560 65536 134225920 8388608 0 134217728 1073750018 0 0 0 0 16448 1 0 32896 0 16777216 2097152 0 0 134217728 0 0 0 0 8192 0 0 16787456 0 16777216 0 0 0 0 0 65536 0 0 8 0 32768 0 0 0 0 71303168 33554432 2160066560 2151677952 0 0 8 0 262144 0 0 1026 0 32832 0 0 8192 0 0 8192 536870912 1048576 524288 67108864 67108864 0 69632 0 268468224 0 16 32 268435468 0 4096 2097152 2 0 0 2097152 2097152 4194304 0 4194304 0 0 67109376 0 0 0 20480 0 0 0 0 0 67109888 0 2147484672 0 0 536870912 0 262144 8192 65536 0 0 0 0 0 4 0 0 2214592516 2 514 128 0 0 0 0 0 8388608 147456 0 0 4 67109952 0 16777344 0 285212672 1073741826 0 4 262144 544 0 1 0 0 2048 256 514 0 0 16384 32 4096 0 0 0 0 0 0 33554432 128 4096 1024 0 0 32768 0 66048 0 0 256 0 128 0 0 0 2097280 67108868 0 2147483648 0 1048576 0 4100 0 0 3584 5120 33554432 0 0 67108896 0 0 0 67108864 4194304 0 0 0 0 0 0 32 0 268435456 67108864 4194304 1048576 0 0 0 1 131072 8192 0 0 0 0 256 0 8388608 0 131072 512 128 0 0 0 66048 262144 0 16 134217736 1 1090519040 1 268443648 0 0 0 0 0 1024 536870912 0 33570824 2048 0 0 268435456 16384 8192 1024 0 0 0 268435456 67108864 0 1024 0 0 0 0 0 8192 0 524288 8388865 0 0 1107427328 0 2415919104 0 0 16777216 0 2048 0 536870912 67108864 4194304 65536 65536 536870976 524289 2359296 64 0 0 0 0 0 0 131072 4224 1024 0 0 0 4096 134217984 0 0 0 256 0 0 0 0 512 16384 0 2049 16384 65536 0 2097152 1 0 33792 0 32768 16777216 0 0 0 1048576 0 9438208 32768 0 2097152 4 0 128 268451840 0 67108864 0 0 0 0 0 0 0 0 32 33816576 152043522 0 256 32 524288 1073741824 0 0 1342177280 0 1024 2048 4194304 0 134217728 33024 0 0 262272 272 4096 32768 0 163842 268435457 1024 0 0 0 0 0 8388608 1114112 3072 0 0 0 0 0 0 526336 0 0 0 0 0 134217728 16384 0 0 0 1 2048 32832 131072 524288 2148007937 33554688 0 0 0 0 0 0 17301504 0 0 0 0 0 0 0 268435456 1 8388608 0 0 4194304 67108864 2048 262144 36 0 268435456 0 335544320 0 67108864 0 67584 0 0 512 0 0 1048576 1 0 4608 0 2684354560 4096 0 0 0 0 272384 0 65536 0 0 0 4 67108864 0 0 134217728 8224 2147483648 128 128 0 0 1048576 0 0 16384 0 0 536870912 0 151060544 0 0 0 0 0 16384 2147483648 1 0 0 65536 16777216 0 16777216 0 0 0 0 33554432 0 0 131200 8192 0 1032 8404992 536870914 67117056 2097152 1056768 0 33554432 0 32 1082130432 0 0 2 262144 0 0 1 68 0 0 16 0 0 0 536870912 0 0 8192 0 16777232 0 0 0 134610944 33554560 0 1048576 0 0 256 0 262144 8388608 0 0 0 0 0 0 67117572 0 0 0 266240 0 0 0 16777216 0 0 65536 1024 0 0 0 16 2147483648 0 18 0 0 0 0 0 0 136315008 8388608 8519680 262144 0 131328 262144 0 147458 0 0 0 134348804 12 2 0 256 131072 0 0 256 0 0 16384 0 0 1073774593 268435456 2147485696 64 524288 33554432 128 4456448 0 536870912 0 0 4194304 134217728 0 524288 0 0 0 268435456 0 0 0 1073741824 0 0 1536 0 0 524288 40 0 0 32768 0 0 8388608 0 0 0 0 0 0 150994944 0 0 0 536870912 0 16781312 4 0 0 1107297280 0 512 0 1 100925440 557056 536870912 0 128 256 16384 1073741824 0 1024 8 32768 0 0 0 67108864 0 0 16 16777216 50462720 1073741824 0 0 4 2162688 268435456 0 0 536870912 0 4194304 0 2048 33554432 2149580800 4259840 0 0 0 2147483648 8388608 67174400 0 0 0 0 0 0 0 0 671088640 16777216 262144 0 0 143360 2097152 0 268451840 0 0 0 134217856 8 268435520 2097152 524296 0 4112 134283264 0 1024 0 1073741824 0 0 0 0 2359296 4194308 1024 0 0 33554432 0 0 268435456 2097152 0 0 0 0 0 4194305 2097153 0 16 0 0 4 4096 134217728
is_linear=0
shrinkage=1


Tree=1
num_leaves=64
num_cat=54
split_feature=9 9 9 9 9 9 9 4 0 4 0 4 0 0 0 0 0 4 0 0 0 0 0 0 0 0 0 0 0 0 0 0 0 13 0 0 0 0 0 0 0 0 0 0 0 0 0 0 0 13 0 0 0 0 0 0 0 0 0 0 0 0 0
split_gain=453988 24191.7 15494 2993.03 2376.7 2313.81 1575.57 1517.25 1338.95 1316.64 1254.3 1250.78 1246.4 1227.68 1184.82 1151.35 1094.92 1092.08 1089.79 1068.08 1063 1014.48 999.38 957.779 934.616 846.257 841.031 829.906 788.689 749.903 745.855 743.106 739.335 698.87 899.173 776.507 726.446 722.973 697.534 686.918 668.403 657.738 646.691 644.234 634.671 620.925 616.688 610.119 609.257 608.016 752.217 580.109 575.447 574.754 552.553 552.322 546.766 544.004 537.91 532.028 529.626 520.193 519.834
threshold=0.30471627414226538 0.4380482435226441 0.19868421554565432 0.35948719084262853 0.25186567008495336 0.5912291705608369 0.13003220409154895 0 1 2 3 4 5 6 7 8 9 10 11 12 13 14 15 16 17 18 19 20 21 22 23 24 25 0.28679654002189642 26 27 28 29 30 31 32 33 34 35 36 37 38 39 40 0.62583333253860485 41 42 43 44 45 46 47 48 49 50 51 52 53
decision_type=2 2 2 2 2 2 2 1 9 1 9 1 9 9 9 9 9 1 9 9 9 9 9 9 9 9 9 9 9 9 9 9 9 2 9 9 9 9 9 9 9 9 9 9 9 9 9 9 9 2 9 9 9 9 9 9 9 9 9 9 9 9 9
left_child=2 3 6 9 15 11 21 12 -6 20 -9 24 -5 -8 -13 -4 -10 18 -17 -7 -2 -1 -12 -11 -3 -22 -16 -19 -27 -30 -18 -14 -24 34 -32 -35 -37 -36 -20 -25 -34 -29 -15 -28 -44 -31 -23 -41 -21 50 -42 -45 -48 -39 -46 -55 -47 -53 -40 -52 -38 -51 -49
right_child=1 5 4 7 8 19 13 10 16 23 22 14 31 42 26 17 30 27 38 48 25 46 32 39 -26 28 43 41 29 45 33 -33 40 35 37 36 60 53 58 47 49 -43 44 51 54 56 52 62 -50 61 59 57 -54 55 -56 -57 -58 -59 -60 -61 -62 -63 -64
leaf_value=0.0032592587918043149 -0.0039672936499118797 -0.0016139674931764604 0.0044861115515232091 -0.0033526310697197916 -0.0024155570194125176 -0.0019126538187265397 0.0049179293215274814 0.0053038191050291065 0.0041468251496553426 0.0044704865664243702 -0.0050138885900378244 -0.0060398625582456598 -0.00053063578903675141 0.0015821901895105837 -0.004083333164453507 0.0030013235285878182 0.0044308574497699737 0.0042108593136072157 0.0007620850950479513 0.0046111115813255305 -0.003475427143275739 -0.0014120361767709256 -0.0045281134173274038 0.0064560101926326753 0.0095712166279554381 -0.003214154243469239 -0.0020441913604736322 -0.0049550650641322141 -0.002132935672998429 -0.0021155718713998795 -0.0037502520158886918 0.0045337305963039391 0.0062317255139350885 0.0034163938835263252 0.0044746023602783682 0.002730429992079736 0.0015323074162006374 -0.0040027775242924696 8.2071311771869668e-05 -0.0053364696726202979 -0.0033877625688910479 -0.0038521243259310722 6.9445185363292691e-05 -0.00071643304079771074 -0.00095506515353918078 0.0021807895600795741 -0.0044818231835961342 0.0063454862684011459 0.022856931015849114 0.0075164356827735895 -0.0025853173062205304 0.00022853523492813167 -0.010397544037550688 -0.0037184338644146915 -0.0070005198940634727 -0.00027475766837596892 0.0020337300002574916 0.0093194445967674268 -0.0049305552616715435 0.0037958282232284537 -0.0033491827920079237 -0.00062012642621994132 -0.00099740460515022346
leaf_weight=643 671 525 753 447 2513 812 662 3428 900 966 639 561 717 696 760 564 815 805 695 1398 548 902 663 671 30399 575 785 2315 668 695 1468 13720 2114 646 670 898 811 1135 853 797 960 37791 1002 930 1221 1859 1648 581 215136 542 803 1064 203773 1199 93224 20835 18528 60077 26042 32581 16404 4554 19013
leaf_count=643 671 525 753 447 2513 812 662 3428 900 966 639 561 717 696 760 564 815 805 695 1398 548 902 663 671 30399 575 785 2315 668 695 1468 13720 2114 646 670 898 811 1135 853 797 960 37791 1002 930 1221 1859 1648 581 215136 542 803 1064 203773 1199 93224 20835 18528 60077 26042 32581 16404 4554 19013
internal_value=0 0.0370289 -0.0364408 0.0164784 -0.0210741 0.0440496 -0.0424157 0.0237052 -0.0125461 0.00677828 0.019225 0.0375448 0.037599 -0.0371505 0.0335387 -0.026973 -0.0105861 -0.0276417 -0.0352365 0.0468957 0.0149953 -0.0448784 0.0168875 -0.00201016 0.0458331 0.0168225 0.0341794 -0.0224078 0.0183367 0.0198713 -0.011685 0.0401571 0.017831 -0.0125647 -0.00714624 -0.0198811 -0.0217983 -0.00479475 -0.0366486 -0.00425209 0.01867 -0.0234196 -0.0376156 0.0348137 -0.0379674 0.0215295 -0.0450725 -0.00589922 0.0471091 0.0171914 0.0195871 0.0353852 -0.0452549 -0.00628371 -0.0383892 -0.00448648 0.0231186 0.0359839 -0.0379316 0.0208391 -0.02409 0.00107928 -0.00414201
internal_weight=0 419187 421883 106740 118112 312447 303771 61168 48294 45572 46284 95101 14884 96805 64177 69818 45781 69065 28154 217346 23544 206966 42856 22028 30924 22873 63616 40911 22325 21750 44881 14437 42217 44066 25307 18759 18113 23839 27590 21062 41554 40106 96143 62856 95447 21082 206323 20391 216534 39440 34344 62071 205421 23169 94445 22034 20387 61141 26895 33384 17215 5096 19594
internal_count=841070 419187 421883 106740 118112 312447 303771 61168 48294 45572 46284 95101 14884 96805 64177 69818 45781 69065 28154 217346 23544 206966 42856 22028 30924 22873 63616 40911 22325 21750 44881 14437 42217 44066 25307 18759 18113 23839 27590 21062 41554 40106 96143 62856 95447 21082 206323 20391 216534 39440 34344 62071 205421 23169 94445 22034 20387 61141 26895 33384 17215 5096 19594
cat_boundaries=0 1 48 49 93 94 141 186 233 279 321 322 368 415 462 507 554 599 645 691 735 782 825 869 916 962 1008 1056 1104 1149 1196 1243 1290 1335 1382 1427 1475 1522 1566 1613 1656 1703 1748 1792 1836 1883 1925 1972 2019 2064 2109 2156 2203 2250 2297
cat_threshold=31 0 0 0 2560 0 1 0 0 0 0 0 0 0 0 8 0 0 0 536870912 2147483648 0 131072 134217728 2097152 8405248 0 0 64 0 0 128 2048 0 2097184 0 0 134479872 16 524288 0 557152 1 0 32 2068 524288 33554432 16646175 0 0 0 2 262144 343932960 67239936 0 0 0 1024 0 8320 524288 67112960 1074266112 0 260 0 32 64 0 0 0 0 0 520 0 0 1 32 20480 0 0 0 0 64 256 2164260864 0 0 256 0 16777216 8388671 0 0 0 0 0 0 0 0 268435456 4194304 0 64 0 0 0 512 0 0 0 0 0 2 512 1073741824 0 0 4194308 0 0 4194336 1 2147483904 0 256 0 1148928 0 35651584 0 0 0 16 67108864 0 536875008 4194304 268435456 0 131072 8 536870912 65536 512 537395200 1 0 0 0 0 2097152 67108864 0 150995968 0 0 0 0 0 1 0 75497728 0 256 67108864 4096 512 4 2048 655360 0 0 1073741826 1140850688 0 4194304 0 0 0 0 524288 0 262144 0 0 0 0 0 0 0 0 1311744 0 0 0 0 0 16 0 16777216 0 0 570427392 8 0 4097 64 0 1048576 65536 0 16908288 0 268959872 4194304 0 64 134217728 33554432 0 0 536870912 0 0 0 1 268435968 0 268435456 32 262144 262144 67108864 32768 16777216 2147483648 2147483648 0 0 0 0 0 0 67108864 0 2 0 0 0 0 2147483648 1073742080 0 75497504 0 0 8192 1073741824 0 4194308 8 0 2147483648 0 1073741828 612368416 0 0 4096 4194304 0 0 0 0 33554432 131072 0 262144 258 0 1 2147483648 0 16 2147483680 0 67112960 0 0 33554464 16777216 33554434 536870912 1 0 0 262144 1073741832 8388608 0 0 0 0 1342177280 2099200 0 0 262144 0 524288 0 0 0 2147483648 1 2097152 262144 1024 15166 8192 0 262144 1073741952 0 0 0 536870916 0 2149580800 67108868 16777216 2 0 0 0 0 262144 0 0 0 0 0 1073741825 8 0 0 1024 0 0 8192 0 263168 8 0 33554432 0 4160 0 0 0 524304 16777216 131072 512 4100 8192 33554432 0 0 0 0 65536 8454144 0 64 0 0 8388608 0 0 0 0 33554432 16 4096 12 3238002688 2098176 0 4194308 0 0 0 0 0 536870912 0 33554432 1024 0 16384 32 0 0 1024 0 64 262144 0 0 0 1040 268435466 0 0 16777216 0 0 0 67109120 0 0 0 33554688 16 262144 0 65536 0 537133056 1073741824 0 0 0 0 268435456 73728 0 0 0 0 8 0 0 0 134217728 0 2097154 0 536870928 0 0 0 64 0 0 4 65536 1 8 147456 4 0 2048 0 536870912 0 8 0 64 0 0 33554432 0 0 0 0 2048 0 65536 0 536870912 32768 0 0 68157440 1073741824 192 0 0 131072 2147483648 0 524288 0 2 0 67110912 268697600 128 0 262144 128 262144 0 0 0 4194304 0 0 4096 16384 0 1075838976 2 8452 0 0 2048 4096 67108864 0 64 0 256 0 16777216 0 16384 0 0 4 0 8 0 0 134217728 0 2048 4096 0 2113536 0 0 0 0 17 12296 0 0 134217728 268435456 0 0 32 0 256 0 1073741824 0 0 0 0 8192 4194304 69632 524288 2048 8388608 524288 0 32 32 0 2 1024 0 8396800 0 0 0 0 16400 0 4194304 2 0 64 0 16777216 0 512 0 16384 16777216 512 0 0 1 0 0 0 65536 268500992 12352 0 0 16384 0 0 2097152 67108864 268435456 0 512 0 0 1073741824 0 4268096 1048576 67108864 0 2097152 1048576 32 0 20 65536 2048 2097152 0 256 2048 1073741824 0 0 0 0 8388608 0 4194304 512 0 0 0 603979776 16777216 0 1048576 4096 0 0 8192 0 0 0 131072 2147483648 0 0 0 65536 0 4 2097152 2244608 1 0 33570816 0 32 0 268435456 65538 0 0 1048576 8 67108864 4096 64 0 0 0 0 16384 536870912 0 0 0 0 512 0 1024 8404992 0 0 134217728 0 0 0 0 0 0 67108864 24 0 268436480 0 512 65536 8388672 4096 0 8196 0 67584 536872192 2147483648 268566532 2097152 0 0 0 524288 0 0 0 1073741832 8192 16384 8 0 2 0 0 512 4 0 0 0 16 2048 0 2048 0 17039360 33554432 0 512 0 8 0 0 0 0 2048 0 4200448 64 8388608 524288 8912896 4194304 4194304 4194304 192 2 0 0 201392128 0 128 0 0 0 0 4 0 0 0 0 0 0 0 264192 262144 0 0 0 0 2147483664 8192 0 268436480 0 4096 67108864 0 147456 0 16384 134479872 16384 0 8388864 16777216 0 0 65536 32768 34603009 16 4096 0 512 128 134250496 0 0 134217728 1 6 67108864 256 8 0 0 0 4194304 0 0 0 0 268435456 4195328 0 0 0 0 16777216 0 0 512 0 0 4 0 1025 136 0 0 1073742116 0 0 0 0 2147483648 655360 0 0 256 0 262209 5 0 32768 0 0 16 1024 201326592 1 2 67108880 1082130432 1048576 524288 2048 0 16 0 67108868 136 0 33554432 0 0 8388608 1024 0 0 0 0 0 0 16 0 0 134217728 0 2 2048 16777216 0 8192 0 1024 0 0 0 32 0 262152 1 0 0 0 0 0 0 2097152 1073742336 0 0 2 0 67109888 0 0 512 0 603979776 0 0 65536 0 129 16 294912 0 0 536870912 0 64 134217728 2 16384 0 0 536870912 0 256 0 32769 83886080 524288 1073741824 0 0 0 0 512 0 0 0 0 25165824 0 4194304 0 0 1024 0 0 0 0 25174016 0 0 32768 537919488 0 0 4 134217728 131072 1024 0 0 0 1152 8224 0 0 167772160 0 32768 0 0 2147618816 268435972 0 67108864 0 130 4096 0 0 0 2 272384 65600 4096 16448 0 0 0 512 0 0 0 0 0 0 0 8194 0 1073741824 65536 4096 0 1 65536 0 0 134268928 0 2048 0 0 0 0 32768 512 0 64 0 139264 0 0 8 0 0 0 0 0 0 0 0 128 271056896 0 0 0 256 0 2151682048 0 0 3072 5120 8 0 4 67108896 0 0 16384 0 4210688 0 0 0 0 64 4194304 0 0 268435460 2359296 4194304 1048576 0 0 0 1 131072 0 32 0 0 0 0 33554560 0 0 131200 2097152 4 1032 2147500032 2 68157440 2097152 1048580 0 134217728 262656 32 1073741824 0 0 0 262144 0 2 1 64 0 0 0 0 0 0 67108896 2048 0 67117056 0 16 0 0 0 134217728 0 0 0 0 10240 1073741828 268435520 0 0 134479872 131072 0 0 131072 0 0 0 0 2147483648 0 67108864 2 0 0 134217728 0 0 0 1048576 8224 0 1 0 0 8388624 0 0 512 0 0 0 1073741824 0 524290 8 0 268451848 0 134217728 135266304 0 0 0 8 262144 4194304 134217728 0 0 0 0 0 2214592516 65536 0 0 262144 1073741824 0 0 0 131072 536870912 268517376 0 0 64 0 16 0 0 2 524289 0 0 0 256 0 144703488 8912896 67108864 0 0 256 4194304 0 2097152 0 2097152 8388608 32768 0 0 0 0 2147483648 524288 32 0 262144 0 0 2048 160 8 0 0 1073741824 270336 0 67108864 335544320 2048 0 0 268435456 0 2415919104 16777217 0 0 6400 0 0 0 0 0 524288 0 0 2162688 0 0 2048 131136 1 2181038080 0 0 0 268435456 83886144 0 32832 1024 16777216 262146 64 0 0 128 32 0 2048 0 67110914 0 0 0 0 16384 4 0 0 0 0 0 0 0 0 0 4096 3072 0 0 34304 0 0 8388608 524288 536887296 1048578 0 0 33554432 1073741826 0 0 67108864 0 16384 1073872896 2147483648 65536 134225920 8519680 0 134217728 0 0 0 0 0 0 1 0 128 2048 1024 2097152 0 0 134479872 0 0 0 512 8192 0 0 1073750016 0 16777216 65536 0 0 0 0 8 0 0 0 0 0 4096 1073741824 1 0 262144 67108864 0 0 0 1073742848 524296 4 0 524416 0 34604032 0 320 8388608 0 0 32 0 4 0 256 0 134217984 16 0 16 2359296 0 2048 0 0 0 0 1073741824 0 4096 131072 0 1073741824 0 33024 1 262144 0 0 12288 16777216 0 8404996 1 0 33554432 131072 4 0 1 8388608 65536 33554432 0 536870912 1048576 1024 65536 4096 5243008 0 0 0 0 0 134217728 0 0 0 0 1 0 0 1179648 128 0 0 150994952 0 12 65536 0 2048 65536 0 256 0 0 0 2048 0 0 0 4194304 32768 2048 0 32768 0 8192 0 0 0 2147483648 0 0 0 8 269484032 0 268435456 128 0 1049600 1073741824 0 16 65536 0 262144 0 4194304 0 2048 0 0 16777216 0 33554438 512 0 0 67108864 0 0 0 0 524288 0 4 8192 131072 4096 0 4 2 0 128 1 8 0 268 8192 32768 4 2050 0 2048 0 0 67108864 512 16384 0 201326592 0 0 0 524288 64 6 134217728 4 16 33554433 0 0 1024 0 0 0 0 33554432 524288 0 131072 131072 262144 0 65537 0 0 8 524288 32 0 16896 0 0 0 0 2 0 0 524288 0 0 0 1179904 0 0 0 0 0 1048576 4096 0 2147491840 262144 524304 8192 131072 0 16777216 4096 16 16 1118208 262144 0 2048 1024 0 0 0 0 0 0 2048 131072 0 8454144 0 65792 65536 8388608 0 0 2147483680 0 0 512 0 0 0 0 0 8448 0 524288 8388609 0 0 1073741824 0 2415919104 0 512 0 4194304 0 134217728 536870913 0 4194304 276832256 0 0 0 262144 64 1049600 0 0 67108864 2048 0 0 0 17408 8192 0 0 0 0 286261248 67108864 0 256 512 67108864 0 0 1073741824 524288 0 0 12288 0 0 0 2147483648 0 4194304 0 16 0 0 536870912 0 262144 0 134219776 268959744 33558528 2048 1025 0 0 512 0 262144 0 0 1048576 603979776 2 0 256 16388 0 20971520 0 8 524288 0 262144 0 0 0 0 2048 4194304 524288 0 0 0 0 263168 256 0 262144 0 3221356544 65536 2214592512 0 0 256 536870912 0 536871936 0 1024 0 2097664 0 0 0 0 536870912 16384 131076 0 0 0 4 35651586 0 8 262152 0 4259840 128 4 1 0 0 4096 0 134217728 0 0 8 0 1073741824 4194304 0 0 268435456 32832 8192 0 0 128 0 32768 272629764 134217728 32768 0 0 8388608 0 8388608 0 134217728 0 0 69632 0 1082130432 0 16 4194304 0 0 0 8192 0 1048576 16777216 0 65536 0 98308 0 0 0 0 1073741826 0 128 128 0 268435456 0 1 0 33570816 0 0 536887296 0 16842816 256 0 262144 0 10 0 2147483648 0 0 0 0 0 0 16777344 0 0 6 0 524320 65536 131072 4 8388610 0 0 2147483648 536870928 0 1024 8192 0 16777216 4194304 0 32768 0 0 64 0 33554496 2097152 2048 0 0 136314880 8192 0 524288 0 0 268435457 0 0 0 0 16781312 0 2701131776 524288 67125248 0 0 0 18874368 393216 65536 0 268435456 0 0 67108864 65536 0 0 8224 67108864 0 0 0 0 5242880 0 0 134217728 0 0 0 0 0 0 0 2048 0 33554432 16384 0 16777217 0 65536 65536 16781312 68157440 262144 0 0 1024 0 6144 2147483648 0 0 2 0 16640 0 8192 16384 134217728 524288 2 0 2148532224 0 0 0 4096 0 0 4194304 536870912 0 0 0 256 134217728 0 0 1073745920 4 64 0 16777216 0 0 512 268436480 262144 512 12 8388608 1 4 0 0 0 0 0 67108864 4096 0 0 16777216 0 0 2097152 0 262144 167772160 0 4098 4 1073741824 32784 8192 4194304 0 524288 0 0 335544704 0 8320 128 1074790400 0 0 524288 0 67108864 0 0 4096 0 131072 33554432 0 0 0 0 0 0 32 0 8388864 0 536870914 33562624 0 2147483648 0 512 262144 0 0 33554432 0 0 0 786432 4096 64 0 8 0 1048576 0 536870920 0 3238035456 0 0 4096 0 0 0 1064960 128 0 8388640 67108864 0 16 0 0 4 0 0 8388608 0 524352 0 8388608 0 0 0 0 0 4096 2 134217728 65536 134218752 0 8 0 0 4096 0 16777216 34146304 0 4194304 1024 1 4194304 16384 1024 0 131202 2147483648 0 0 262144 0 0 0 256 0 8 2048 0 83886080 0 0 1073741824 1073750024 0 262148 8388608 0 8192 0 0 2048 33554432 0 0 0 524288 0 0 128 0 0 67108864 12 0 134217728 524288 2147483648 0 0 536870912 268435456 0 1073741824 524288 16777216 0 524288 0 262144 0 1 262144 0 0 0 16 1075838984 134217728 0 0 201326592 0 0 0 0 0 18496 0 0 67108864 576 32768 1 0 4096 0 16 8192 268435456 8192 0 0 8650752 0 0 0 1342177280 67108864 0 0 0 67108864 0 0 0 64 0 4096 0 32768 0 524288 67108864 0 536871424 33554432 0 0 0 0 16781312 0 67108864 0 262144 524288 0 2147483648 306184256 0 0 0 0 0 0 0 262144 32 0 8388608 524288 134217728 0 0 0 0 2148532224 0 0 0 0 8388608 262153 8388864 512
is_linear=0
shrinkage=0.05


Tree=2
num_leaves=64
num_cat=56
split_feature=9 9 9 9 9 9 9 4 0 4 0 0 0 4 0 0 0 0 0 0 0 0 0 0 0 0 0 0 4 0 0 0 4 0 0 0 0 0 0 0 0 0 0 0 0 0 0 0 0 0 0 0 0 0 4 0 0 0 0 0 0 0 0
split_gain=438599 22665.2 17016.9 2810.07 2515.12 2440.85 1826.27 1597.89 1538.28 1384.66 1275.03 1247.64 1213.42 1134.02 1125.4 1124.7 1103.37 1098.31 1093.58 1048.41 1006.62 975.065 934.275 928.436 879.791 861.527 842.496 818.193 771.97 970.199 839.913 771.641 761.172 888.207 722.828 720.481 715.328 713.672 705.138 696.55 676.677 665.932 652.445 645.311 644.362 637.724 611.531 602.852 668.716 587.497 586.477 580.079 563.536 560.163 566.326 826.234 692.002 622.18 590.204 556.501 537.147 523.095 518.269
threshold=0.30825792253017431 0.4420840740203858 0.2124435901641846 0.35948719084262853 0.14839839935302737 0.62583333253860485 0.26726190745830541 0 1 2 3 4 5 6 7 8 9 10 11 12 13 14 15 16 17 18 19 20 21 22 23 24 25 26 27 28 29 30 31 32 33 34 35 36 37 38 39 40 41 42 43 44 45 46 47 48 49 50 51 52 53 54 55
decision_type=2 2 2 2 2 2 2 1 9 1 9 9 9 1 9 9 9 9 9 9 9 9 9 9 9 9 9 9 1 9 9 9 1 9 9 9 9 9 9 9 9 9 9 9 9 9 9 9 9 9 9 9 9 9 1 9 9 9 9 9 9 9 9
left_child=2 3 4 13 14 9 15 8 -5 12 -11 -9 -3 18 -1 -4 -6 -8 -2 -7 -13 -17 -19 -15 -12 -23 -18 -20 29 -28 -30 -29 33 -27 -22 -34 -26 -16 -10 -24 -36 -21 -38 -25 -35 -33 -42 -39 -49 -44 -45 -32 -37 -41 56 -56 -55 -57 -58 -48 -47 -59 -53
right_child=1 5 6 7 16 19 17 11 38 10 24 20 -14 23 37 21 26 22 27 41 34 25 39 43 36 32 28 31 30 -31 51 45 35 44 40 52 42 47 -40 53 46 -43 49 50 -46 60 59 48 -50 -51 -52 62 -54 54 55 57 58 61 -60 -61 -62 -63 -64
leaf_value=0.0031356483288109307 -0.0036661358419805752 -0.0024591944925487054 0.00415074680186808 -0.0028702059667557486 0.004672032855451108 -0.0010075411014258879 -0.002541259014979003 0.0052052946574985999 -0.00024958862736821356 -0.0063339780494570735 -0.0031693711504340166 -0.0047631941605359336 0.0099943243153393264 0.0046426094509661201 -9.4418199732898558e-05 -0.0039533516671508562 0.0022005308698862776 0.0026299609057605258 -0.0039671334866434316 0.0059555840678513052 0.0060338999927043923 0.0030118056759238232 -0.0033745922986417988 -0.0050696461889892831 -0.0017558442000299686 0.0023284891713410611 0.0016694710683077569 -0.0024566292837262167 0.0034912174846977008 -0.0062471958342939617 0.00091189454309642266 0.0020717500820755966 0.0050904824864119293 0.0012498496286571044 -0.0046059226021170603 -0.0050883859954774374 -0.00044454229343682543 -0.0029351707594469202 0.0043920822627842417 -0.0032021946813911213 -0.0035522924754768596 0.022512602526694538 0.010406227516010405 0.00613320968300104 -0.0038854165282100452 -0.0018527950048446652 -0.0032036804184317593 -0.0039909467985853554 -0.0096800383226946021 0.008853472366929056 -0.0005273663327097889 0.00032638900913298241 -0.0026646197307854894 -0.0037169009055942311 0.0051935249380767358 0.0048323368933051837 -0.0040973357465118182 0.0024544404204934842 0.00091545073315501277 0.0032941868007183074 0.0019320435002446179 -0.0024669006075710071 -0.0057815095875412229
leaf_weight=649 687 547 692 565 553 749 1761 3323 710 562 780 674 35768 943 966 3547 807 891 542 1441 2070 911 1467 774 893 557 655 598 670 35482 864 1733 674 667 672 1576 1018 1540 14278 1286 803 195583 6916 687 22738 544 955 2702 230811 65716 18295 1027 29209 687 662 665 628 782 12064 39592 18086 16941 49435
leaf_count=649 687 547 692 565 553 749 1761 3323 710 562 780 674 35768 943 966 3547 807 891 542 1441 2070 911 1467 774 893 557 655 598 670 35482 864 1733 674 667 672 1576 1018 1540 14278 1286 803 195583 6916 687 22738 544 955 2702 230811 65716 18295 1027 29209 687 662 665 628 782 12064 39592 18086 16941 49435
internal_value=0 0.0366465 -0.0355702 0.0167505 -0.0410685 0.0434843 -0.0173462 0.0234169 0.0373546 0.0375936 0.0337288 0.0188975 0.0456476 0.0068584 -0.0437685 -0.0227295 -0.0339284 -0.0087276 0.0147072 0.0468262 0.0166942 -0.0234609 -0.00683563 -0.00156212 0.0342911 -0.0218505 -0.0343642 0.0166992 -0.0348315 -0.040475 -0.0309022 0.0182752 -0.0226453 -0.0293718 0.0176251 -0.0175141 0.0348457 -0.0439482 0.0404187 -0.00812116 0.0161948 0.0470492 0.0353869 -0.00388546 -0.0308627 0.0199259 0.0170068 -0.0441254 -0.0443325 0.0359461 -0.00204823 -0.0316308 -0.0186378 -0.0066464 -0.00535621 -0.0108919 0.00252819 -0.0128764 0.00518816 0.017865 0.0172049 -0.0146647 -0.0323288
internal_weight=0 416504 424566 106531 326161 309973 98405 63642 15553 112200 75885 48089 36315 42889 236668 60571 89493 37834 22190 197773 44766 59879 36073 20699 75323 56332 88940 21503 88133 36137 51996 20961 55421 23962 44092 31459 74543 236019 14988 35182 42022 197024 73650 19756 23405 20363 41350 235053 233513 72632 18982 51326 30785 33715 32429 19050 13379 18388 12692 40547 18630 17723 50462
internal_count=841070 416504 424566 106531 326161 309973 98405 63642 15553 112200 75885 48089 36315 42889 236668 60571 89493 37834 22190 197773 44766 59879 36073 20699 75323 56332 88940 21503 88133 36137 51996 20961 55421 23962 44092 31459 74543 236019 14988 35182 42022 197024 73650 19756 23405 20363 41350 235053 233513 72632 18982 51326 30785 33715 32429 19050 13379 18388 12692 40547 18630 17723 50462
cat_boundaries=0 1 48 49 96 140 186 187 232 277 325 371 418 465 512 559 602 649 693 740 783 829 830 877 918 962 963 1009 1054 1101 1149 1196 1242 1288 1334 1380 1428 1471 1515 1561 1608 1652 1699 1746 1790 1834 1880 1925 1926 1971 2011 2057 2104 2151 2195 2243 2290
cat_threshold=31 0 0 0 0 0 0 0 0 268435456 4194304 0 576 0 0 0 512 8 0 0 0 67108864 2 512 1073741824 0 0 4259860 0 0 4194304 1 2147483904 64 256 0 1148928 0 35651584 0 0 0 16 67108864 0 536875008 4194304 268435456 8388671 0 0 0 0 0 0 0 0 1310720 0 0 8192 0 0 0 0 0 0 0 570427400 8 0 4609 64 0 1048576 65536 8 131072 536870912 805830656 4194304 0 64 134217728 33554432 0 0 536870912 0 0 1073741824 131073 268435968 0 268435456 32 0 0 0 2 262144 343932960 67256320 0 0 0 0 0 8320 524288 67112962 1074266112 0 256 0 32 64 4194304 0 0 0 0 520 0 0 1 32 20480 0 0 0 0 64 256 2147483648 0 0 256 0 16777216 0 0 1 0 0 0 65536 3489726464 12352 0 0 16384 0 0 2097152 67108864 268435456 0 0 16384 0 1073741824 0 73792 0 67108864 8388608 2097152 0 32 0 16 65536 4196352 0 0 256 2048 1073741824 0 0 0 557056 0 0 4194304 16646175 8 0 4 0 2048 0 536870920 0 0 0 64 4096 0 0 0 16777216 0 0 2048 0 0 0 536870912 8421376 524416 0 1048576 1073741824 1049280 0 0 131072 2147483680 0 0 0 2 0 2048 268697600 0 0 524288 128 262144 16384 262144 256 0 0 3221225472 2147483648 0 2 268435456 1073872896 2147483648 0 0 0 0 0 1 262144 0 2147483648 0 0 75497472 0 0 0 1073741824 0 4194308 0 0 4194304 0 1082130432 0 0 2147483648 16781312 0 262144 1024 0 16 33554432 0 262144 67108864 32768 16842752 8 536870912 1 0 0 0 0 2097152 67109120 0 134217728 67108864 1 0 0 33554432 0 0 75497728 0 256 67108864 1073741824 0 0 32 0 0 0 1073741824 1073741824 0 4198400 0 0 128 0 0 0 262144 131072 0 32 0 0 0 16779776 0 1 0 2097152 0 0 0 0 0 0 8 0 536870912 0 536870912 0 0 16384 1073741824 0 16384 268500992 0 64 1 0 33554560 2048 16384 32 0 2048 134217728 18 0 2147483648 524384 0 0 0 0 524288 268435464 0 0 16777216 603979776 0 0 67108864 0 0 0 33554688 16 262144 0 196608 0 262144 1073741824 0 0 0 0 268435456 73728 1 0 0 0 8 0 0 65538 134217728 0 2097154 0 16 0 64 0 0 0 16 4 65536 1 8192 33554432 0 0 0 0 65536 65536 0 0 0 0 8388608 0 0 528 0 33554432 16 134221824 536870916 1073741824 6292480 0 4 0 0 0 0 0 0 0 33554432 1024 0 16384 32 0 0 0 0 4160 262144 0 67108864 0 272 0 0 0 4194304 0 0 4096 0 0 1084227584 2 8452 0 0 2048 4096 67108864 0 64 0 0 0 16777216 0 16384 4 0 4 0 8 0 0 134217728 0 2080 4096 0 2113536 0 0 0 0 0 268447752 0 8 134217728 256 144 0 0 0 0 0 0 0 0 0 0 0 262144 0 0 2147483648 65536 134225920 0 128 134348800 2 2149580800 256 0 0 0 0 0 0 2242 16777216 0 32768 0 262144 0 0 536870912 544 8193 0 0 8212 128 16777216 0 262144 2 0 0 2147483648 1024 272 2147483648 0 67112960 0 0 37750784 16777216 18 262144 0 524288 0 262144 1073741824 8388608 0 0 0 0 268435456 0 0 0 262144 0 524288 0 0 0 2112 9 2097152 0 0 1024 272629760 0 0 32 2097152 8388608 0 1073741824 0 0 0 2147483648 8192 0 69632 0 2048 0 526336 128 40 32 0 0 1024 0 8396800 0 0 0 0 16400 0 272629760 2 0 64 0 0 0 512 0 16384 16777216 512 0 2162688 0 0 0 0 0 0 1024 8404992 0 0 134217728 256 0 0 0 16777216 16777232 67108864 8 0 268436480 0 0 196608 8388608 0 0 8196 16777216 67584 16384 2147483656 131076 1025 0 0 71303168 0 0 0 0 8 134217728 16384 0 0 0 0 1 0 32 131072 0 0 0 131072 0 67108866 0 2 0 4 3072 0 0 1073741824 0 0 2048 0 8194 2048 64 0 10248 0 2147483648 335544320 0 536870976 2048 68 0 524288 0 0 1024 0 0 131072 2147483648 0 131072 8200 32 0 512 524288 0 0 0 67108864 2147483648 537919488 0 0 16778240 0 0 0 0 0 524289 0 0 3200 0 0 6144 256 8388608 0 524288 32 0 4 67108864 8388616 1048580 134217728 0 0 0 2097152 514 0 0 0 0 0 0 2048 266240 0 0 8192 131072 0 0 0 2415919104 536870912 4096 0 65536 16384 4 2097152 2228224 0 0 33571072 16777216 2097184 0 268435456 0 1048576 0 1048576 8 67108864 4096 0 0 0 0 0 16384 536870912 7998 0 0 0 16384 0 0 40 67109376 32772 0 0 0 0 0 0 0 0 2097152 0 4202496 0 0 0 524289 196608 67108864 524304 8192 0 0 0 0 4194304 1024 16777218 0 0 0 0 1048576 0 512 17563648 2048 18432 4096 65536 0 0 0 8388736 33554432 0 16777216 1073741824 0 0 8 2048 0 0 0 262144 0 0 512 0 5120 0 0 4227072 0 16779264 3178498 0 0 32 0 4 2149584898 268435456 0 0 524288 128 4096 524288 4096 0 0 0 0 0 0 0 262144 0 0 2 0 0 2147483664 8192 0 0 0 0 67633152 0 131072 0 16384 134479872 16384 0 12582912 0 0 0 65540 32768 33554432 16 4096 2147483648 524800 128 134250496 0 64 134217729 4 47934 8192 0 0 1073741952 0 0 0 536870916 0 2149580800 0 16777216 0 0 0 1073750016 0 0 0 0 0 0 0 1073741824 0 4096 268451840 0 0 0 268435456 0 1024 8 16 0 0 4096 0 0 0 524304 0 71303200 67109376 4100 0 0 2048 131136 1 2181038080 0 0 0 268435456 83887168 2 32832 1024 16777216 264194 0 0 0 192 32 0 0 0 67110914 0 0 0 0 16384 4 0 0 0 0 0 0 0 0 0 4096 2048 0 0 33794 524288 0 17416 0 33280 0 0 128 0 0 16 0 0 33685505 0 262144 64 67108864 0 0 0 0 16 0 0 2048 0 4096 4194304 32 512 8388612 2621440 4194304 0 4 524288 0 134217728 65536 0 128 0 16384 0 0 1 0 0 0 0 1073742336 0 4096 0 0 1073741888 0 32768 0 262144 0 0 4096 2147483648 16 16384 65536 2147483648 0 0 4 4096 4194305 8389632 0 0 1280 536870912 0 0 0 0 1048576 0 0 0 0 134217728 1056768 2 0 0 0 1 16384 147456 8 0 0 0 268959744 64 14 134217728 0 2048 33554432 0 0 1024 0 0 0 0 33619968 524288 0 0 133120 262144 67108864 65537 256 0 0 524288 0 0 524800 0 0 0 0 2 128 0 262144 0 0 0 1179648 0 262152 1 0 0 0 0 1073741824 0 2097152 1073742336 0 0 2 0 67109888 0 0 512 0 536870912 1 0 0 0 129 0 294912 0 32 537001984 0 0 134217728 2 16384 0 0 536870912 0 256 0 32769 83886080 524288 1140850688 0 134217744 0 16384 0 0 8192 0 65536 16777216 64 4096 0 0 512 16384 0 0 1073741826 0 0 131072 0 0 8388864 1 4096 134217728 0 65536 0 0 32768 512 0 524288 0 33554432 524288 32768 512 16384 0 0 20 68157440 0 0 0 0 512 0 0 16384 0 16777216 0 20971520 0 0 1024 0 0 0 0 25165824 65536 0 32768 536870912 0 0 4 134218752 131072 0 0 0 2048 128 8192 0 0 167772160 2097152 32768 0 8388608 2164264961 512 0 67108864 64 0 0 0 0 8192 0 8388608 8388865 0 0 33554432 0 2147483648 0 0 0 0 0 272629760 1 16777216 0 268444672 0 64 0 2359296 64 1152 0 0 0 2048 65536 0 4096 1024 8192 1024 0 0 1048576 17825792 0 256 528384 134217728 262144 0 0 0 0 2048 4195328 0 0 0 0 0 0 0 8192 16777216 0 2147483648 1 67108864 33554432 0 131072 536870912 0 536870912 65536 0 128 2097664 269484032 2097152 0 256 0 540672 4 0 0 0 0 35651584 0 0 0 2 0 0 0 0 0 0 4096 0 2147491840 262144 524304 8192 131072 2147483648 16777216 528384 16 16 1118208 262144 0 2048 1024 0 0 0 0 0 0 2048 131072 0 8454144 0 65792 65536 1082130432 0 0 32 0 0 512 0 0 134479872 0 0 256 0 268435456 4194304 0 0 4096 0 0 0 67108868 65536 262144 0 4 1073741824 16384 0 0 131080 536870912 1114112 536871936 0 0 32 0 0 0 6 33554432 0 0 262144 0 0 142606336 16777217 16908288 0 0 1024 0 6144 2147483648 0 0 2 32 16640 0 8192 16384 134217728 524288 2 0 2148532224 0 0 0 4096 0 0 4194304 536870912 0 0 0 256 134217728 0 0 1073745920 4 64 0 16777216 0 0 0 268435456 262144 512 12 0 67108864 512 0 1073741824 524288 0 8388608 12288 32768 0 32768 0 0 4194304 0 0 536870912 0 134218752 256 262144 0 2048 0 25169920 2048 0 0 33554432 532480 8 0 0 0 1572864 536870912 0 0 0 4 0 139264 4 0 0 8 0 0 67108864 0 65568 128 0 1 0 0 4096 16 134217729 33554432 0 0 0 1073741824 4194304 0 0 8 0 131072 0 0 128 2 40960 272629760 134217992 0 0 0 16384 0 131072 0 201326592 0 0 65536 1048576 1082163200 0 8 134217728 128 4194304 0 16777220 0 8388608 32768 4 33554433 0 0 0 8 268435520 33554432 0 0 38912 0 32768 8192 0 0 33554432 0 16 2052 0 32768 16 4718592 0 0 0 0 0 524288 0 4112 0 0 0 0 256 0 2097152 0 33554432 131072 142606384 0 0 0 0 2048 2 8832 0 553779201 133120 0 272 0 32 0 4194304 0 0 0 0 131072 0 0 0 0 4096 0 131072 2147483648 0 0 256 0 131072 65536 33554432 0 0 0 2147483648 512 0 32768 2097152 524288 0 0 32768 33554432 0 0 0 0 17305600 4194336 0 262144 262144 0 0 0 301989888 0 0 1073741824 270336 0 67108864 268435456 2048 32 0 0 0 2214592512 16777217 0 0 6400 16777216 0 0 0 0 8912896 16777216 0 0 0 0 65536 0 0 8 1024 32768 0 134217728 0 0 71311360 33554432 8388608 2151677952 0 1 8 8192 262146 0 0 1024 4194304 32832 0 0 8192 0 0 0 536870912 0 524288 67108864 67108864 0 4096 1024 268435456 0 0 8388608 0 0 262144 0 0 33619968 4098 0 0 4 0 18592 1073741824 4096 0 0 8388608 0 0 1073741824 0 0 0 262144 0 1 0 32896 0 1048576 2097152 0 0 134217728 0 0 0 49152 0 0 65536 1090521088 32772 0 2751463553 4096 0 0 16777216 0 262146 4194304 65538 0 0 0 0 67108864 0 512 0 32 2 0 0 32 1073741824 1048576 0 0 33554432 16842752 0 0 0 16777280 0 0 266240 0 8 0 134217728 1 0 0 0 16781312 16515079 2048 0 256 524320 16 1073741824 201326592 1107296256 0 0 0 2147483648 0 0 0 0 0 524288 8 0 0 2147483682 0 0 33792 16777280 0 0 0 0 0 16 0 2147483648 0 4194304 0 4 0 0 0 16 0 17301536 8 131074 2 0 67108864 0 0 16 67108864 0 0 536870912 512 0 0 0 131072 0 536870912 0 2147483648 0 150994950 0 0 134291456 0 2097152 536870912 128 0 0 0 134284544 0 0 0 0 0 0 2 268451840 0 0 0 1048584 0 0 128 32 16 0 0 0 0 0 0 0 8388608 128 0 33554432 8 0 67108864 0 8 8404992 536870912 3145728 32 0 8388608 0 2048 0 0 0 0 0 4194304 8192 524450 0 0 67108867 131072 268435456 0 0 0 0 0 0 524288 1048576 0 0 0 0 0 0 0 268435456 0 0 0 0 32 0 2048 32769 67108864 0 4194304 2147483648 524288 0 1610612768 0 2164523008 16777216 0 0 1024 4 536870976 0 32 33554432 1048576 0 2097152 3212288 512 0 0 0 4 0 0 136316928 0 524288 32 8388608 16 0 0 256 16 0 2 536870912 0 8192 0 134217728 0 1048576 0 0 16777216 3072 512 4194304 263168 0 4194432 16384 0 2 0 256 16384 134217728 0 0 0 0 256 1 2 67108864 256 8 2048 0 0 20971520 0 0 0 0 268435456 4195328 0 0 0 0 0 0 0 512 0 4096 4 0 3 136 0 0 1073742080 0 4 0 0 0 2048 0 0 256 0 262208 513 0 0 0 0 0 256 0 1 2097152 4 537395200 0 0 256 0 8192 65536 0 268435456 0 1073741824 0 0 8388609 134488192 67108864 32768 67108867 8 256 0 0 0 262144 0 0 1048576 268435456 4096 0 0 0 0 1048576 262144 0 0 4 262144 0 147458 0 0 0 131072 4164 2 0 256 131088 0 0 256 0 0 2151694336 0 0 1073774592 0 2147485696 0 524288 33554432 0 0 16 0 0 0 0 134217728 8192 0 1048576 0 0 268435456 0 16842752 0 32768 0 16 32
is_linear=0
shrinkage=0.05


Tree=3
num_leaves=64
num_cat=55
split_feature=9 9 9 4 9 9 9 0 9 0 4 0 0 0 0 0 0 0 0 0 0 0 0 0 0 4 0 0 0 0 0 4 0 0 0 0 0 0 0 0 0 0 13 0 0 0 0 0 0 0 0 0 0 0 0 0 0 0 0 0 0 0 4
split_gain=425926 21190.8 17987.7 2623.53 2415.25 2409.3 2075.24 1943.31 1721.07 1332.14 1318.61 1294.68 1307.61 1252.56 1191.36 1155.22 1148.92 1124.35 1085.84 1080.73 1034.09 962.66 918.107 901.842 894.887 828.508 955.282 817.846 817.46 811.431 795.496 793.428 1158.28 822.344 765.683 739.514 736.035 727.355 709.241 703.86 684.899 683.726 629.52 768.065 735.445 624.709 621.322 617.043 616.793 613.421 604.867 587.778 564.59 564.182 664.188 560.201 555.997 545.741 532.071 531.161 526.838 525.323 543.968
threshold=0.31296642124652868 0.4470884650945664 0.20722186565399173 0 0.63196593523025524 0.13921189308166507 0.26726190745830541 1 0.38548950850963598 2 3 4 5 6 7 8 9 10 11 12 13 14 15 16 17 18 19 20 21 22 23 24 25 26 27 28 29 30 31 32 33 34 0.30825792253017431 35 36 37 38 39 40 41 42 43 44 45 46 47 48 49 50 51 52 53 54
decision_type=2 2 2 1 2 2 2 9 2 9 1 9 9 9 9 9 9 9 9 9 9 9 9 9 9 1 9 9 9 9 9 1 9 9 9 9 9 9 9 9 9 9 2 9 9 9 9 9 9 9 9 9 9 9 9 9 9 9 9 9 9 9 1
left_child=2 3 5 7 10 17 19 -2 9 -5 13 -9 -13 -3 -12 -7 -14 -1 -8 -4 -6 -21 -10 -11 -20 28 -27 -16 -17 -18 -24 32 -23 -34 -29 -25 -28 -26 -33 -32 -22 -36 44 -44 -39 -40 -46 -37 -31 -19 -43 -30 -47 -51 -55 -45 -52 -53 -42 -35 -49 -62 -63
right_child=1 4 6 8 20 15 18 11 22 23 14 12 16 -15 27 25 29 49 24 21 40 31 30 35 37 26 36 34 51 48 39 38 33 59 41 47 -38 42 45 -41 58 50 43 55 46 52 -48 60 -50 53 56 57 -54 54 -56 -57 -58 -59 -60 -61 61 62 -64
leaf_value=0.0029788659123703848 -0.0030414892178960151 -0.0024510117070749406 0.0041112156901508545 0.0036535164680331954 -0.00085458475071936994 0.0043730780817568321 -0.002414196064230054 -0.0039237158406525835 -0.005415362976444885 -0.0045742287760600448 -0.0061741080235689864 -0.0016921873900108048 -0.0017098744409158846 0.009693020041100682 -0.0035792459312826404 0.0041784870107658195 -0.00027994241900742011 -0.00059904875676147502 0.0041590514708310378 -0.0041808842853643001 0.0043695414504036304 0.002734832893591374 -0.003314258421957492 0.005758306716009973 -0.0029400413689203569 0.0021068303515203281 0.00026736909756436836 -0.0018541895824484541 0.0028091821060515945 0.00033544126562774226 0.0055741976104676716 0.0046073010992258804 0.00076007996778935114 0.00037135489424690586 -0.00062250604047439932 -0.0052068808335810901 -0.0061600618786178535 0.0040027051866054547 -0.0045999513259157524 0.0038572052910923974 0.011302742096595467 -0.0003348274616058911 0.0037070635569281894 0.0018306439536623642 -0.0033324499429203572 0.0022182352771051212 -5.3896683827042714e-05 -0.0052956067106686546 0.0038361171921715122 -0.0027884122214745736 0.010018524343427272 0.0008166560144163671 -0.0028715248848311618 -0.0040259455146733686 -0.0092970465354155762 -0.0023435555771924577 0.0088530493430793288 -0.0055659638880752038 0.021687355372123421 -0.0038381494642235336 -0.0040714116163551809 0.0020185914974659687 1.0509673878550398e-05
leaf_weight=697 775 541 800 1866 750 643 1746 515 550 892 552 700 910 35958 684 553 989 901 801 3455 1345 678 795 1258 1682 615 947 894 656 1211 2540 646 787 664 1039 650 44112 802 1688 27717 1735 1084 708 773 943 900 20272 586 25394 1400 6807 865 33970 2467 219030 13892 64821 46479 191364 23779 787 16964 20046
leaf_count=697 775 541 800 1866 750 643 1746 515 550 892 552 700 910 35958 684 553 989 901 801 3455 1345 678 795 1258 1682 615 947 894 656 1211 2540 646 787 664 1039 650 44112 802 1688 27717 1735 1084 708 773 943 900 20272 586 25394 1400 6807 865 33970 2467 219030 13892 64821 46479 191364 23779 787 16964 20046
internal_value=0 0.0364753 -0.0346995 0.0170978 0.0430995 -0.040685 -0.01716 0.0294552 0.0120444 0.00554136 0.0372602 0.0314995 0.0328918 0.0450944 0.0334816 -0.0340044 0.034555 -0.0435081 -0.00838199 -0.022583 0.0464615 -0.0232761 0.0209069 0.00366203 -0.0066833 -0.0344583 -0.0393157 0.0340202 -0.0298818 0.0363824 0.0220398 -0.0218608 -0.0285902 -0.0303288 0.0345208 0.00476787 -0.040164 -0.00776061 -0.0171683 0.0233406 0.0466861 0.0350802 -0.00630749 -0.0140734 -0.00088795 -0.0180896 -0.00267373 0.00354609 0.0380406 -0.0437044 0.0356577 -0.0305811 -0.0166399 -0.0438719 -0.0440733 -0.0165281 0.036221 -0.031235 0.0469354 -0.0319531 0.00436929 0.00510355 0.00596704
internal_weight=0 412719 428351 105145 307574 319365 108986 30494 74651 43049 112380 29719 29204 36499 75881 94870 28504 224495 41619 67367 195194 66567 31602 41183 39873 94227 45674 75329 48553 27594 31052 63112 25908 25230 74645 40291 45059 39072 37204 30257 194444 73751 37390 15373 22017 36558 21215 39033 26605 223798 72712 48000 34870 222897 221497 14665 71628 47344 193099 24443 38383 37797 37010
internal_count=841070 412719 428351 105145 307574 319365 108986 30494 74651 43049 112380 29719 29204 36499 75881 94870 28504 224495 41619 67367 195194 66567 31602 41183 39873 94227 45674 75329 48553 27594 31052 63112 25908 25230 74645 40291 45059 39072 37204 30257 194444 73751 37390 15373 22017 36558 21215 39033 26605 223798 72712 48000 34870 222897 221497 14665 71628 47344 193099 24443 38383 37797 37010
cat_boundaries=0 1 48 90 91 135 182 228 275 323 370 415 461 506 553 600 644 691 734 735 782 826 865 912 959 960 1006 1052 1095 1140 1187 1233 1280 1319 1366 1414 1460 1507 1553 1601 1646 1690 1737 1785 1831 1878 1925 1970 2015 2062 2109 2157 2204 2251 2298 2299
cat_threshold=8388639 0 2 0 8388608 536870912 0 0 256 285216768 0 0 32768 0 2147483648 0 0 0 0 1073741824 0 0 2 2147484160 1342177280 2097152 16384 0 0 0 4194304 1 256 0 0 0 2097154 8 536870912 1073745920 0 0 1 0 1048576 4096 4194304 268435456 0 0 0 2 262145 2214592544 67108864 0 0 0 0 0 16789504 524320 69632 1074003970 0 256 4718592 128 64 0 0 0 262146 0 0 0 0 0 0 134234128 0 0 0 8192 64 0 2147483648 0 0 256 8388671 16 0 1073741824 0 0 0 0 335544448 0 8388608 0 0 0 262144 0 0 268435456 268959744 0 0 33554432 256 0 2490368 134283272 0 0 8388864 0 8 0 1342177284 0 0 0 8 4 2099218 0 0 0 131072 0 64 130 0 0 0 0 2048 0 1310720 32768 0 1073741824 4608 0 0 1024 0 0 0 4096 268959744 0 1073758208 2097152 16384 0 16777216 2097156 0 1048576 16777248 67108864 0 0 256 0 1048576 256 0 0 32768 0 16 0 0 536870916 0 1 0 0 0 0 0 0 65536 3489726464 12352 0 0 16384 0 0 0 0 268435456 0 512 16384 0 1073741824 0 8192 0 0 8421376 2097152 4 32 0 4 65536 2048 0 32 256 2048 1073741824 0 0 4096 557056 0 0 4194304 0 0 0 0 0 0 0 0 1048576 0 0 8192 0 0 16 0 0 0 0 570427392 8 2147483648 4609 64 0 1048576 65536 8 0 603979776 268976128 4194304 0 64 134217728 0 0 0 0 0 0 0 131072 268435968 0 268435456 32 0 262144 67108872 32 65536 8 536870912 1 0 0 0 0 3145728 67109120 0 134218752 67108864 0 0 0 0 0 0 75497728 0 256 69206016 4096 0 0 32 131072 0 0 1073741824 1073741824 0 4194304 0 0 128 0 0 0 262144 131072 0 32 0 262144 1048576 0 0 1073741824 0 0 2147483648 4194304 512 320 0 0 0 0 0 4194304 0 0 67108864 0 0 0 4198400 1 4194320 2 4 0 131072 0 0 0 16777216 34816 0 33554432 0 134217728 0 4096 67108865 8912896 0 67108896 65536 8 16384 4 0 2048 0 536870920 0 0 0 64 0 0 33554432 0 0 0 0 2048 0 65536 524288 536870912 8421376 524288 0 1048576 1073741824 704 0 0 131072 2147483648 0 524288 0 2 0 2048 268697600 0 0 786432 128 262144 0 0 0 2560 0 0 8192 2097152 0 0 0 0 0 0 520 16384 536870912 0 1610612736 0 0 16384 0 0 0 268500992 0 64 0 0 128 2048 16384 32 0 526336 134217728 18 0 2147483648 524896 0 0 32 4 524288 0 262144 256 32768 0 2147483648 2147483648 0 0 268435456 1073741824 0 0 0 0 2 0 4 262144 0 2147483648 0 0 8388608 0 0 8192 1073741824 0 4194308 0 0 4718592 268435456 1082130432 603979808 2048 0 16781312 4194304 262144 1024 0 0 33554432 8192 0 0 0 0 0 65536 67584 0 0 0 0 8388608 0 0 16 0 33554432 16 134221824 536870916 1073741824 2098176 8192 4 0 0 0 0 16 0 0 33554432 1024 0 16384 32 16384 0 0 0 4160 262144 0 67108864 0 272 256 536871056 0 0 0 0 2 0 0 0 268435456 0 0 262144 0 0 2147483648 65536 134225920 8 128 134217728 2 2149597184 0 0 262144 0 0 0 0 130 16777216 0 32768 0 0 0 0 536870912 512 8193 0 0 8208 128 50331648 0 0 0 0 0 0 4096 16384 0 1073741824 34 8452 0 262144 3072 0 0 32768 0 536870912 16777216 0 0 0 0 5124 1073741824 4 131072 0 524288 0 134217728 64 33554432 1052672 0 0 0 0 0 0 1 268439560 0 268435456 0 0 0 0 4096 0 2684354560 786432 2 8448 0 262144 0 0 67108880 0 1048576 0 0 0 16777216 0 0 0 0 0 33554432 8 0 0 134217792 0 0 2199552 1073741824 131088 0 2147483648 0 0 512 0 0 67108864 4 0 262144 2 0 0 2147483648 1024 16 2147483648 0 67112960 0 4096 37750784 16777216 262162 262144 0 524288 0 262144 1073741824 8388608 0 0 0 0 268435456 0 4 0 134479872 0 0 0 0 0 2048 1 2097152 0 0 1024 16761024 8192 0 0 16384 0 0 40 512 32772 134217728 67108928 2147483648 0 0 0 16777216 0 2097152 0 0 0 0 4194304 1024 66560 0 528384 8192 8256 0 8 0 0 0 6 0 2097152 0 0 0 256 512 524288 0 2048 0 65536 16777216 0 0 0 0 0 1024 8404992 0 0 0 256 0 0 0 16777216 16777216 67108864 0 8 268436480 0 0 131072 8388672 0 0 8196 131072 2048 536870912 2147483656 131076 1024 0 33554432 71303168 0 0 0 0 1073741824 134217728 16384 0 0 0 8388608 0 512 16777216 1073741824 0 0 0 2048 0 0 0 270336 0 0 0 0 5120 0 2105344 4227072 128 16777216 0 0 0 276824068 0 524292 2147483648 268435456 0 0 8912896 0 201326592 8 134217728 1 0 0 0 0 512 0 0 0 0 1 2 4194304 0 512 0 0 0 536870912 0 0 8192 2147614720 0 256 294912 0 0 0 0 0 201326592 0 65536 1048576 0 8 0 16640 2097152 557056 16777216 0 1073741824 67108864 0 0 1073742336 4202496 16 0 0 0 8192 0 0 0 1 0 0 0 0 0 32768 8192 1024 1024 32768 0 16384 25165824 0 1024 0 33554432 64 0 0 1024 4194304 33554432 0 16384 69206016 33024 0 0 16916480 512 0 0 134217728 15166 8192 0 262144 1073741952 1 0 0 0 0 2147483648 4 16777216 2 2147483648 0 1073750016 0 0 2048 0 0 0 0 1073741825 4096 4096 268435456 0 0 0 268443648 0 1024 8 16 0 0 4608 0 0 0 524304 0 71303168 67109376 4096 0 0 0 0 16777216 0 0 536875012 0 2097152 0 4096 0 0 16777216 0 0 262144 0 262144 0 16384 0 0 131080 536870912 1064960 2147484672 0 0 0 0 262144 0 0 34078720 0 2112 262144 0 64 142606336 16777217 16908288 0 4 0 0 0 0 1073741824 0 0 0 0 524352 134217728 32768 0 0 262144 0 4096 2147483648 24 2147500032 65536 0 0 73728 0 4096 4194305 8389632 16777216 33619968 256 536870912 0 1 0 0 1048576 0 0 0 0 134217736 8192 4194432 32768 2097154 0 2097152 0 147456 0 268435456 16 262144 2147483648 0 4196352 0 0 0 0 0 544 268435488 0 128 1073741824 0 256 520 268435456 0 0 0 0 0 0 0 0 1048576 0 0 0 269615104 0 16384 16777216 512 0 4 0 512 0 131584 0 67371012 8 65536 0 131072 0 0 0 0 0 2048 0 4194304 0 1 0 524289 8192 0 16384 2048 256 2052 536870912 0 32 525312 0 0 268435456 0 0 0 0 524288 17039360 1073741824 0 16 256 0 134217744 0 16384 0 0 0 2 65536 16777216 64 4096 0 0 0 0 4194816 0 2 0 0 0 0 0 8405248 1 4096 134217728 65536 65536 131072 0 32768 512 0 262144 0 33554440 524288 32768 0 0 0 0 16 68157440 0 0 16384 0 0 1073741824 0 128 0 0 0 0 0 67239938 0 262144 64 0 1024 0 67108864 1073741824 0 0 0 2048 0 2048 64 1048608 524288 8388612 2147483648 4194304 0 68 0 0 134217728 65536 0 128 0 16384 0 0 1 32 0 2048 2 393216 343932928 131136 0 0 0 1024 0 8192 0 83890178 1074266112 0 256 0 32 64 272629760 0 0 0 0 0 0 0 1 36 4096 0 0 0 0 65600 256 2164260864 64 0 0 0 0 8192 0 8388608 8389123 0 0 33554432 0 2147483648 0 512 0 4194304 512 268435456 1 16777216 0 268435456 32768 64 0 262144 64 1024 256 0 0 0 0 0 0 1024 8192 1024 0 0 1048576 17825792 0 256 32 0 134217728 0 0 512 0 0 133120 4195328 1073741824 0 0 0 0 0 256 8192 16777216 0 1073742848 1 67108864 33554432 0 4 536870912 0 0 65536 0 1152 2097664 268435456 0 0 0 0 524288 4 0 0 0 1048576 35659778 0 0 0 9 0 10 0 0 16 1024 134217728 1 0 524304 8388608 0 524288 32 0 2147483652 0 0 2048 4096 0 32 4 75497472 1024 0 16384 0 2097152 0 0 0 0 0 4194304 0 0 4 262152 4194304 8192 0 0 0 0 131072 0 0 0 0 2560 4 268435520 0 538968064 270336 2147483648 0 0 131072 0 0 0 0 2147549192 0 33554432 2 0 0 0 0 139328 67108864 0 0 524864 1 0 0 134217728 131072 16777216 0 0 268436480 0 1073741824 0 0 8 0 4 0 0 8388608 0 0 0 262144 0 33554432 2147483650 0 0 0 0 19104 1073741824 4096 0 0 8519680 0 0 1073741824 0 16 0 0 0 1 0 32896 0 1024 2097152 0 0 134217728 0 0 0 49152 0 0 65568 16779264 32772 0 536871041 0 16777216 0 0 0 1050624 0 2 4 0 0 16384 67108864 0 0 536870912 0 2147483648 128 131200 0 0 1048576 0 0 33554432 1 0 8388608 65536 134283328 0 0 0 0 0 0 0 1 16384 0 0 0 0 0 8 0 0 0 2048 0 0 0 262144 262144 4098 524288 0 0 16384 0 4096 0 0 8388608 4194304 0 264192 1024 0 270532624 4 4 131072 0 0 512 0 65536 8704 0 0 0 35651584 0 0 0 0 0 4098 20 0 33554432 0 0 67109376 0 0 1073741840 64 2236416 0 0 4194304 0 0 67108864 0 0 512 4210688 0 1 0 65600 1048576 268435456 65536 4194304 0 0 536870912 16 262208 0 2 16384 0 0 0 0 0 0 0 2214592512 16384 131072 134217728 0 0 0 268959744 64 14 134217728 0 2048 33554432 0 0 1024 0 0 0 0 33554432 0 0 0 133120 262144 67108864 65537 256 0 8 524288 32 0 8405504 0 0 0 256 2 128 0 0 0 0 0 1179648 524288 0 0 0 0 0 4096 0 4096 0 0 0 0 0 0 0 0 0 0 135168 4 0 8 16777344 131072 0 0 536870912 0 1408 0 128 1048704 1074790400 66560 4352 128 16384 67239936 0 0 4096 4 131072 0 0 0 2 0 131072 8192 0 8 0 524288 0 0 0 0 0 1073741840 0 0 67108864 33554432 0 512 0 0 524296 536870912 0 0 0 34603008 2048 33024 0 1 8192 4098 0 0 0 8 1052804 4096 16 0 4096 0 0 0 65536 786440 1024 1024 0 16777216 0 512 131072 2 0 16 264192 0 0 0 0 33554432 0 512 0 8 0 16384 2 0 1024 0 0 16384 8388608 72 0 2097152 0 4096 128 268959744 268435460 0 16 0 0 0 0 0 131072 4 0 0 67108872 0 65536 128 0 1 0 0 4100 16 1 0 0 0 0 1074282496 0 0 0 0 0 131072 0 0 0 2 32768 272630272 134217984 0 0 0 0 536870912 8388608 0 201326592 1048576 0 65536 1048576 1082163200 0 0 256 0 8 0 128 4198400 0 4 0 0 32768 0 1 134217728 0 0 8 268435520 33554432 6291456 524288 32768 268435456 32768 8192 0 0 33554560 0 16384 16779268 0 32768 2097168 0 1024 0 0 0 0 0 0 4096 1073741824 0 134217728 0 0 256 0 0 0 67108864 1048576 132 67108864 4 2147500032 2147483648 1064960 2097152 0 64 0 262144 0 1082130432 524296 0 2 524288 0 0 16384 16384 0 32 16 0 64 0 32 0 0 1048576 0 1048576 0 0 0 131073 0 2097152 0 33554432 131072 134217744 0 0 0 0 2048 2 8832 0 1627521024 133120 0 272 0 32 0 4194304 0 0 0 0 131072 0 0 0 0 4096 0 131072 2148532224 0 0 256 0 131072 65536 33554432 0 0 0 2147484672 512 0 0 0 0 0 0 0 0 8388608 0 256 0 4194304 0 8192 2151677952 0 41959424 2147483648 0 1073774592 0 0 262146 0 0 0 0 80 0 0 0 2097184 0 0 537919488 1048576 8192 0 67109888 0 196608 1024 268468224 0 0 32 268435458 33554432 0 0 1073742336 4 0 268959744 4194560 0 0 131072 0 268435456 1024 0 0 268435456 0 4194304 0 8192 0 1024 0 0 0 2097152 0 128 0 0 0 2048 128 0 268439552 0 0 0 0 0 134742272 268435456 16777224 8388608 0 16 0 0 135266304 0 1048584 131328 0 0 4194304 0 0 0 0 16777216 0 2231369728 0 0 1024 4096 1140850688 1073741824 8192 0 0 0 65538 0 0 64 0 16 2147483648 0 6 0 0 0 0 256 128 2097152 8388608 0 262144 0 131072 0 16 0 0 512 0 0 16 0 1090520064 4194304 0 2097152 2147483648 160 33554432 0 0 0 1024 4 0 0 0 2147483680 33554434 32 33554432 0 2048 0 0 0 128 32 1048576 4096 0 524288 8 0 0 2147483648 8 0 536870912 2147483648 512 1073741824 16512 0 0 0 0 0 0 2147483648 32768 0 4 0 0 0 0 536870912 0 1140850688 4096 0 4 0 0 134250496 0 1024 0 8454208 0 0 67141632 0 67446784 0 0 0 0 0 0 0 64 516 0 0 10 8257696
is_linear=0
shrinkage=0.05


Tree=4
num_leaves=64
num_cat=17
split_feature=9 9 9 9 9 9 9 4 4 4 4 4 13 4 1 4 2 1 9 4 3 4 2 1 1 4 13 4 13 3 1 13 9 4 9 4 14 1 1 2 4 13 1 2 2 1 2 1 1 1 2 1 4 9 2 2 4 4 14 3 15 9 9
split_gain=409944 23920.2 15942.8 2803.69 2634.83 2259.43 1988.28 1477.7 1361.04 1276.34 1102.19 934.165 617.18 590.192 559.26 528.67 449.515 433.776 449.529 389.343 387.896 370.099 305.39 350.518 345.47 287.254 285.424 284.236 266.282 260.838 243.163 237.303 233.981 214.436 209.919 201.032 191.645 191.609 194.76 413.572 256.488 188.624 180.031 178.945 207.815 183.899 176.989 176.225 234.582 204.384 229.106 176.054 175.499 173.658 169.97 199.61 166.032 159.993 159.892 157.709 157.411 153.477 151.964
threshold=0.30471627414226538 0.4470884650945664 0.19868421554565432 0.37323382496833807 0.6012820601463319 0.25186567008495336 0.11010101065039636 0 1 2 3 4 0.64346247911453258 5 48.841283798217781 6 2.3065830469131474 48.844926834106452 0.75192308425903331 7 31.500000000000004 8 2.3129349946975712 48.84166336059571 48.900001525878913 9 0.66915422677993786 10 0.60749301314353954 30.500000000000004 48.902626037597663 0.65039682388305675 0.3440061509609223 11 0.29679679870605474 12 0.062650967389345183 48.876178741455085 48.842752456665046 2.3706119060516362 13 0.53390806913375866 48.847635269165046 2.4251515865325932 2.2892472743988042 48.797149658203132 2.29761815071106 48.844678878784187 48.895790100097663 48.873685836791999 2.2883123159408574 48.898233413696296 14 0.22295321524143222 2.371137380599976 2.303474068641663 15 16 0.11768596619367601 18.500000000000004 -0.052631583064794533 0.76975053548812877 0.1679487228393555
decision_type=2 2 2 2 2 2 2 1 1 1 1 1 2 1 2 1 2 2 2 1 2 1 2 2 2 1 2 1 2 2 2 2 2 1 2 1 2 2 2 2 1 2 2 2 2 2 2 2 2 2 2 2 1 2 2 2 1 1 2 2 2 2 2
left_child=2 3 6 9 7 10 19 60 28 22 52 -8 25 41 43 17 35 -6 30 29 51 -18 59 -24 26 -10 33 -12 42 36 46 -23 -11 -25 37 -16 -1 38 -15 40 -40 -7 -5 44 -9 -46 -19 54 49 -49 -51 -13 -4 -29 55 -27 -47 -14 -21 -2 -3 -17 -22
right_child=1 4 5 8 15 13 11 14 12 32 27 20 57 34 16 61 21 18 -20 58 62 31 23 24 -26 47 -28 53 -30 -31 -32 -33 -34 -35 -36 -37 -38 -39 39 -41 -42 -43 -44 -45 45 56 -48 48 -50 50 -52 -53 -54 -55 -56 -57 -58 -59 -60 -61 -62 -63 -64
leaf_value=-0.0097052100296248708 -3.68635425530367e-05 0.0063488913402426992 -0.0033256270346930239 0.0048943116305861598 0.020843373135896404 -0.00026974251690320693 -0.0064322028435999552 0.0090430455413833249 0.0019539023046940582 -0.00073372233418747827 -0.0021327105808304631 -0.0055843307818402551 0.0028774736677855254 -0.0018963854299136455 0.006438734607882796 0.014218373493524269 0.0072199192662909615 0.015744687513681129 0.020843373135896404 -0.0098283629114856025 -0.0065020451923017393 0.0068811900188401331 0.0018712324116844676 0.0012168066043872384 0.0038956340937409519 0.0050123553529195508 -0.0038176318532042205 -0.0041950851740548412 0.0026456337957177279 -0.0088648739452590244 0.015070615380555392 0.0024125910570099943 0.00087669957706704724 4.5935345301403864e-05 -0.0011965863199043109 0.0089071340339118617 -0.0067548996950616141 -0.0032081753650447355 0.0016824540131492539 -0.002634980516433716 -0.0012591313226101937 -0.0033570337695954383 0.0039145811437163473 0.0091586238910630335 0.0094926473518088458 0.0094987577964738001 0.010218374327989298 0.0043798984316922723 0.0049259299641102568 0.0044996535363793387 0.00087669957706704724 -0.0033233797239372535 -0.0041114587277406855 -0.002746816341415978 0.0049438506695628189 0.0025586958961188789 0.0043967179228737944 -0.0010441551501303909 -0.0080134808267583162 0.0022748055035062137 0.0086707895324099806 0.023854736880632121 -0.0050633063601562781
leaf_weight=12669 584 1372 9026 5882 30086 17578 56419 7120 5693 15474 10382 37038 2000 6886 3750 56897 17357 2906 26433 104652 24536 10478 6677 6960 1284 2461 931 15853 1471 28473 2897 3388 12276 6173 5462 9956 14611 6983 2839 3416 3256 1874 8506 4015 2316 3806 10236 9492 3474 970 4437 2203 19385 15172 3769 3491 4327 2599 14066 7009 30261 79973 9104
leaf_count=12669 584 1372 9026 5882 30086 17578 56419 7120 5693 15474 10382 37038 2000 6886 3750 56897 17357 2906 26433 104652 24536 10478 6677 6960 1284 2461 931 15853 1471 28473 2897 3388 12276 6173 5462 9956 14611 6983 2839 3416 3256 1874 8506 4015 2316 3806 10236 9492 3474 970 4437 2203 19385 15172 3769 3491 4327 2599 14066 7009 30261 79973 9104
internal_value=0 0.0352588 -0.0345561 0.0154314 0.0424538 -0.0189684 -0.0406169 0.0356938 0.023581 0.00772556 -0.02472 -0.035918 0.0184733 -0.0106535 0.031441 0.0456219 0.0282679 0.0421136 0.0388656 -0.0440993 -0.0321528 0.0249544 0.0149419 0.0119659 0.00780558 0.0208172 0.00553896 -0.019498 0.0359096 -0.0405798 0.032262 0.0188095 1.80115e-05 0.00743547 -0.0151913 0.0358164 -0.0370931 -0.0172583 -0.0143044 -0.00966775 -0.00186218 -0.00391532 0.0380039 0.0380606 0.0358842 0.0313953 0.0293715 0.0228935 0.0200212 0.0172931 0.00953394 -0.0287798 -0.0323124 -0.0219027 0.0283458 0.0230847 0.0278556 0.00129376 -0.0457449 0.0235941 0.0446118 0.0474752 -0.0360969
internal_weight=0 419187 421883 111613 307574 118112 303771 98146 54245 57368 69818 129300 38386 48294 66513 209428 44929 72558 42472 174471 72881 31223 29618 22025 15348 33787 14064 41407 15859 55753 16039 13866 27750 13133 28842 13706 27280 23380 16397 9511 6095 19452 14388 21584 17569 10449 13142 28094 18373 14899 5407 39241 28411 31025 9721 5952 8133 4599 118718 7593 31633 136870 33640
internal_count=841070 419187 421883 111613 307574 118112 303771 98146 54245 57368 69818 129300 38386 48294 66513 209428 44929 72558 42472 174471 72881 31223 29618 22025 15348 33787 14064 41407 15859 55753 16039 13866 27750 13133 28842 13706 27280 23380 16397 9511 6095 19452 14388 21584 17569 10449 13142 28094 18373 14899 5407 39241 28411 31025 9721 5952 8133 4599 118718 7593 31633 136870 33640
cat_boundaries=0 1 2 3 4 5 6 7 8 9 10 11 12 13 14 15 16 17
cat_threshold=8388671 8388639 16646175 15166 15167 16646147 7991296 8060992 921536 61440 7340032 8650767 126976 4032 28 8356864 2035200
is_linear=0
shrinkage=0.05


Tree=5
num_leaves=64
num_cat=17
split_feature=9 9 9 4 9 9 9 9 4 4 4 9 13 1 4 2 4 4 4 3 9 4 3 1 13 11 12 2 1 1 9 4 13 4 1 9 9 13 2 4 4 2 9 13 4 13 9 1 4 9 9 2 1 3 3 1 1 4 2 2 2 4 9
split_gain=395167 19936.8 19884 2934.53 2740.35 2382.74 2069.27 1904.49 1280.34 1075.26 937.286 807.619 646.851 639.878 601.89 570.093 541.316 461.661 436.994 421.387 358.943 339.694 321.236 313.616 279.327 273.122 270.464 263.818 295.518 360.623 257.875 244.292 240.93 228.651 223.971 239.731 211.303 206.364 204.43 193.516 178.868 177.723 180.935 172.374 170.644 161.699 158.542 155.33 154.689 152.526 149.167 148.201 145.315 144.092 142.802 142.734 191.422 140.655 142.413 194.282 138.717 138.465 138.236
threshold=0.31957446038722997 0.4724747389554978 0.20722186565399173 0 0.13079115748405459 0.27195686101913458 0.66915422677993786 0.39314988255500799 1 2 3 0.39314988255500799 0.62583333253860485 48.838781356811531 4 2.3065830469131474 5 6 7 27.500000000000004 0.2434164956212044 8 31.500000000000004 48.844926834106452 0.6012820601463319 0.1573787406086922 0.4252659678459168 2.2765311002731328 48.864284515380866 48.89630317687989 0.066228073090314879 9 0.53907206654548656 10 48.896715164184577 0.81291666626930248 0.3473824411630631 0.2416573911905289 2.3527355194091801 11 12 2.2765311002731328 0.35948719084262853 0.61733415722846996 13 0.2124435901641846 0.52419984340667736 48.894069671630866 14 0.29679679870605474 0.1679487228393555 2.4251515865325932 48.814231872558601 12.500000000000002 23.500000000000004 48.918399810791023 48.867876052856452 15 2.2867832183837895 2.366082072257996 2.4606928825378422 16 0.29679679870605474
decision_type=2 2 2 1 2 2 2 2 1 1 1 2 2 2 1 2 1 1 1 2 2 1 2 2 2 2 2 2 2 2 2 1 2 1 2 2 2 2 2 1 1 2 2 2 1 2 2 2 1 2 2 2 2 2 2 2 2 1 2 2 2 1 2
left_child=2 3 4 11 14 10 8 17 -3 40 -4 26 27 51 19 48 46 55 24 30 39 23 33 -8 62 -16 36 -9 -29 -30 -1 -14 41 -11 35 -25 -2 61 47 -12 -6 -19 -43 -13 -39 -41 -17 -18 -15 -20 -24 57 -35 -32 -38 56 -5 -10 -59 -60 -44 -22 -7
right_child=1 6 5 7 9 18 21 12 13 22 20 43 31 15 25 16 38 32 49 -21 37 -23 50 34 -26 -27 -28 28 29 -31 53 -33 -34 52 -36 -37 54 44 -40 45 -42 42 60 -45 -46 -47 -48 -49 -50 -51 -52 -53 -54 -55 -56 -57 -58 58 59 -61 -62 -63 -64
leaf_value=-0.0086185538242914504 0.00091912224675295973 0.0097653423376264994 -0.0032936652922013311 0.00043374702856037732 -0.0051421940188796731 -0.0004757960324310695 0.021483897245291157 0.0052105749180177243 0.011119036191589202 -0.0039853309153520975 -0.0023309528098150625 0.0050274497826094753 0.004189456445081857 0.0076462095510344942 -0.0088378523509361571 0.0058214353937786067 0.0034878627791390757 0.0026406334009310226 -0.0016255264807435443 -0.0081458950634457888 -0.00021284392943559107 0.020692301965120716 -0.0061352217258181206 0.014322839951876089 -0.0033644959143784379 -0.0069936117562808819 0.00074260689353337352 0.0047533353542275726 0.0022516716417605056 0.0049173216645903911 0.010860556731687976 -6.3186595093459036e-05 -0.00014002004598174245 -0.0058637124771712158 0.021281467950704975 0.020480551398161337 0.0016928025077292685 -0.0030426984427904258 0.0081165450576576436 -0.0029569081679859666 -0.0059287875752837872 0.00085790733662527159 0.0024340817866884191 0.0045646610805555208 -0.0019953697637596635 -0.0042726948088908151 0.0095074556533130822 0.0089398771952968088 0.0098996124926838108 -0.0011044172984478046 -0.004693590864812725 0.010093259155823851 -0.0054251154238818024 -0.0055900147590198348 0.0025188430236442907 0.0030312568617537616 -0.0018583847280303019 0.0092158926682677118 0.0045074544612201872 0.0090180149842184042 0.0017740750024383912 -0.0022003426869831159 0.000177419022829739
leaf_weight=12781 6105 37542 22983 7777 17591 11622 28840 5124 8186 16637 7877 14762 2077 3718 123545 5816 6248 3194 11131 46871 5526 105150 14566 13559 1745 12125 1950 16750 8778 3846 88 4088 4849 2029 8302 17165 2632 3059 8588 9658 30625 12571 9197 1734 6425 10033 14639 1338 14004 9708 12117 5070 15591 14799 7148 471 4811 4239 3253 3657 562 4118 10080
leaf_count=12781 6105 37542 22983 7777 17591 11622 28840 5124 8186 16637 7877 14762 2077 3718 123545 5816 6248 3194 11131 46871 5526 105150 14566 13559 1745 12125 1950 16750 8778 3846 88 4088 4849 2029 8302 17165 2632 3059 8588 9658 30625 12571 9197 1734 6425 10033 14639 1338 14004 9708 12117 5070 15591 14799 7148 471 4811 4239 3253 3657 562 4118 10080
internal_value=0 0.0355945 -0.032982 0.0183135 -0.0393802 -0.0150524 0.0426682 0.0132792 0.0375105 -0.0329528 -0.0208162 0.0306325 0.0210572 0.0338661 -0.0427177 0.0308504 0.0272885 0.00600018 -0.00598383 -0.0390609 -0.0167345 0.046135 -0.0285152 0.043304 -0.00129812 -0.0447207 0.023266 0.0237231 0.0218969 0.0161201 -0.0341731 0.0061395 0.0093786 -0.025316 0.0403885 0.0384195 0.0254234 -0.0114753 0.0204029 -0.0203896 -0.0385477 0.0113227 0.00974474 0.0386154 -0.0167124 -0.0230471 0.0327071 0.0144345 0.0382124 -0.0112499 -0.0326331 0.0405962 -0.0293137 -0.0297004 0.0299796 -0.00186319 -0.00287575 0.038601 0.0347567 0.0303618 0.014853 -0.00632518 0.000248825
internal_weight=0 407740 433330 118426 319365 113965 289314 84095 116298 109156 69679 34331 40663 78756 210209 54351 36629 43432 44286 74539 46696 173016 60940 67866 23447 135670 17835 34498 29374 12624 27668 6165 30373 34257 39026 30724 15885 19128 16174 27568 48216 25524 22330 16496 9484 19691 20455 7586 17722 20839 26683 24405 17620 14887 9780 13059 12588 19335 11149 6910 9759 9644 21702
internal_count=841070 407740 433330 118426 319365 113965 289314 84095 116298 109156 69679 34331 40663 78756 210209 54351 36629 43432 44286 74539 46696 173016 60940 67866 23447 135670 17835 34498 29374 12624 27668 6165 30373 34257 39026 30724 15885 19128 16174 27568 48216 25524 22330 16496 9484 19691 20455 7586 17722 20839 26683 24405 17620 14887 9780 13059 12588 19335 11149 6910 9759 9644 21702
cat_boundaries=0 1 2 3 4 5 6 7 8 9 10 11 12 13 14 15 16 17
cat_threshold=8388639 8388671 15167 14652 16449600 921536 63552 16646343 16379904 921088 8257536 7864320 30 706 61440 8355840 15728771
is_linear=0
shrinkage=0.05


Tree=6
num_leaves=64
num_cat=56
split_feature=9 9 9 9 9 9 9 0 4 0 4 0 0 0 4 0 0 0 0 4 0 0 0 0 0 0 0 0 0 0 0 4 0 0 0 0 0 0 0 0 0 0 0 0 0 0 0 0 0 0 0 0 0 0 0 0 0 0 0 0 0 0 0
split_gain=380132 20109.2 19550.4 2948.28 2894.74 2390.4 1955.81 1639.77 1559.37 1472.58 1355.92 1350.03 1267.04 1246.49 1213.35 1195.26 1169.97 1149.25 1115.92 1110.91 1209.36 1104.08 1081.94 1039.54 1038.39 990.274 970.2 950.592 919.663 914.323 892.76 889.94 1226.03 887.043 869.652 803.684 791.198 786.594 768.101 747.484 732.522 723.45 722.249 844.179 685.4 677.415 669.288 655.312 655.23 653.672 685.409 648.496 647.336 637.606 629.219 625.547 613.538 764.671 607.667 599.842 589.607 619.039 577.143
threshold=0.31957446038722997 0.4803846031427384 0.20722186565399173 0.13003220409154895 0.39314988255500799 0.28097587823867803 0.69631093740463268 0 1 2 3 4 5 6 7 8 9 10 11 12 13 14 15 16 17 18 19 20 21 22 23 24 25 26 27 28 29 30 31 32 33 34 35 36 37 38 39 40 41 42 43 44 45 46 47 48 49 50 51 52 53 54 55
decision_type=2 2 2 2 2 2 2 9 1 9 1 9 9 9 1 9 9 9 9 1 9 9 9 9 9 9 9 9 9 9 9 1 9 9 9 9 9 9 9 9 9 9 9 9 9 9 9 9 9 9 9 9 9 9 9 9 9 9 9 9 9 9 9
left_child=2 4 3 21 7 13 9 -2 11 -3 12 -6 -9 -4 24 -5 -16 -10 -8 26 -21 -1 -15 -24 -11 -7 -17 -12 -19 -14 -26 32 -25 -22 -29 -31 -33 -32 -27 -30 -38 -34 -37 -44 -36 -43 -18 -28 -42 -23 -51 -13 -47 -20 -41 -49 -39 -58 -35 -45 -52 -62 -50
right_child=1 6 5 15 8 25 18 10 17 14 27 51 29 22 16 19 46 28 53 20 33 49 23 31 30 38 47 34 39 35 37 36 41 58 44 42 40 56 -40 54 48 45 43 59 -46 52 -48 55 62 50 60 -53 -54 -55 -56 -57 57 -59 -60 -61 61 -63 -64
leaf_value=0.0032774594215154943 0.0026396150302068545 -0.0051157437101776951 -0.0037414634332145202 0.0046127557743768565 -0.0032502677152230156 -0.0024847636898973711 -0.0020377329220547108 -0.0035697789763291842 0.0056559961586780394 -0.0047019138884606794 0.0065838131975647536 -0.00060045463256992455 -0.0038767285683903615 0.0040775329032968158 -0.0025597602593636832 0.0037436351231907583 -0.00095510327045677807 -0.0047109279929828836 0.0061905878664442575 0.0023556098959557127 0.0011378091148249226 -0.00012194445576521606 0.0039397927624198496 0.0016759195371060104 -0.0035371921549427338 0.002610592364005954 0.0021627911274163885 -0.0049633310583434538 -0.0036196582241312838 0.0027750839679785561 -0.0021323214053007552 0.0027898718680403559 0.0021442361803338281 0.00025491735554853122 0.0057682036660876602 -0.0037029862051177437 -0.0051990012131494599 -0.0016546721325435569 -0.00021433406120331401 -0.0034777786091282972 0.0033653242384837356 0.0011244778833640167 -0.0023337414935092004 -0.0021737078783175684 -7.7800517129292262e-05 0.0016479375021017054 0.0097915469063149085 0.0022678265318582694 0.002349367072276282 -0.0017698501258716305 -0.0027539747602865401 0.0049917105069990503 -0.0033606065907064498 0.019822692744478704 0.0039573892497221236 -0.004799820832422994 -0.00057584521542477791 0.0093279274564639671 -0.0055778822171819037 0.0022447975421777235 -0.0040243252740102186 -0.0081766612067446422 -0.0022817352915360245
leaf_weight=702 2743 687 3322 673 521 1398 908 762 3322 540 1071 562 585 720 679 656 829 571 1330 707 867 938 1061 727 763 859 719 968 686 2186 873 870 559 913 935 572 1785 796 31391 816 1001 719 816 679 25307 856 66839 927 1097 1492 1951 16944 26304 158977 39409 50818 1266 49155 56119 24643 2831 199052 41296
leaf_count=702 2743 687 3322 673 521 1398 908 762 3322 540 1071 562 585 720 679 656 829 571 1330 707 867 938 1061 727 763 859 719 968 686 2186 873 870 559 913 935 572 1785 796 31391 816 1001 719 816 679 25307 856 66839 927 1097 1492 1951 16944 26304 158977 39409 50818 1266 49155 56119 24643 2831 199052 41296
internal_value=0 0.0349495 -0.0323098 -0.038654 0.0181623 -0.0145312 0.0422942 0.0104289 0.0257031 0.0375297 0.00865138 0.03813 0.01601 -0.0192182 0.03794 -0.0321351 0.0423695 0.02069 0.0459123 -0.0325338 -0.0372953 -0.0421944 -0.0179164 -0.0184945 0.0322632 -0.00334344 -0.0272746 0.0007794 0.0184132 0.0176613 0.0329711 -0.0191894 -0.0260308 -0.0380917 -0.00104702 0.0189199 -0.0148516 0.0337601 -0.00154991 0.0192969 -0.0157638 -0.0276751 0.0165195 0.0177413 0.000678044 -0.0288088 0.0430273 -0.0280329 -0.0144641 -0.0424062 -0.0425975 0.0405001 -0.030081 0.0462237 0.0201827 -0.0286938 0.0345648 0.0352551 -0.0388573 0.0193589 -0.042846 -0.0431122 -0.0154105
internal_weight=0 407740 433330 319365 124098 113965 283642 61267 62831 122427 58524 18027 30243 80317 121740 112399 68347 44804 161215 111726 58606 206966 76995 76275 53393 33648 53120 28281 41482 29481 52853 75214 29165 57899 27210 28896 46049 52090 32250 40911 45179 28438 26710 26138 26242 27879 67668 52464 43394 206264 205326 17506 27160 160307 40225 51745 51217 50421 57032 25322 203834 201883 42393
internal_count=841070 407740 433330 319365 124098 113965 283642 61267 62831 122427 58524 18027 30243 80317 121740 112399 68347 44804 161215 111726 58606 206966 76995 76275 53393 33648 53120 28281 41482 29481 52853 75214 29165 57899 27210 28896 46049 52090 32250 40911 45179 28438 26710 26138 26242 27879 67668 52464 43394 206264 205326 17506 27160 160307 40225 51745 51217 50421 57032 25322 203834 201883 42393
cat_boundaries=0 42 43 87 88 135 182 229 230 278 326 371 418 419 464 509 552 600 647 693 737 784 830 878 920 921 967 1014 1060 1105 1152 1197 1242 1288 1335 1380 1423 1469 1514 1558 1605 1651 1698 1745 1792 1838 1885 1931 1974 2019 2063 2108 2155 2199 2244 2289 2336
cat_threshold=4194304 0 8421376 2 262144 33554464 0 0 0 0 0 0 16789632 524288 69632 2 0 0 524288 32 96 0 0 32768 0 0 1032 0 0 0 0 134234112 536870912 0 0 8196 64 0 2147483648 0 268435456 67109120 8388639 0 0 0 0 268435456 0 65536 0 0 16384 0 8192 0 0 4194304 16777216 524288 0 0 33554440 8 2147483648 8 134348864 134217728 0 65536 8192 16777216 536870912 268451840 2147483648 0 33793 0 33554432 0 0 0 0 0 64 1048576 512 16646175 0 0 0 8388608 0 0 0 1073741824 2415923200 8388608 0 64 0 0 0 0 0 0 0 16384 1073741824 1073741826 512 1073741824 0 16384 0 0 1048576 4194344 0 4 65536 0 0 2048 8 33554432 256 0 0 128 163840 0 536870912 4194304 268435712 268435970 0 0 4096 0 8388608 0 67108864 0 0 2 256 16 262144 0 65536 8 536870912 0 0 65536 0 0 0 2187264 16777216 0 0 0 0 0 0 0 0 0 2097152 8 536871440 16777216 0 0 0 0 0 0 1610678272 1 256 2684354704 0 16384 0 0 2 0 0 0 268435456 0 0 262144 0 0 2147483648 65536 134225920 8 128 0 33554432 2147500032 0 65536 0 0 0 0 0 128 16777216 0 32768 0 0 0 0 536870912 524288 8193 0 0 10256 128 16777216 7467456 0 262144 0 536870912 65536 0 536870912 1 0 0 0 0 3145728 67109120 0 150995968 0 0 0 0 0 1 0 75497728 0 256 69206016 4096 768 0 2080 131072 0 0 0 1140850688 0 4194304 0 0 0 0 1024 0 0 131072 0 32 0 2 0 0 512 8194 0 67108864 4096 98304 0 0 1 8 0 0 0 0 0 16384 0 1073741860 0 8192 1049092 262144 32768 0 131072 1048576 0 536870912 131072 1073741824 0 0 0 0 0 0 0 4100 32768 33554432 0 0 128 8 0 2097152 0 66 0 276824064 64 0 0 0 67110912 0 134225920 8389632 16777218 526336 0 256 0 32 0 0 0 0 0 0 0 0 0 1 36 4096 1073741824 0 0 0 65600 256 2164260864 128 0 536872960 0 0 32768 0 0 0 0 0 0 0 8388608 8421378 0 0 131072 0 0 0 16 0 37748736 0 402657280 536870917 1073741824 2098176 8192 4 0 0 262144 192 0 256 0 0 0 0 536887296 32 0 0 0 0 4096 262400 0 67108864 256 32 16744640 8192 0 67108872 0 0 512 0 512 4 0 67108928 2147483648 0 0 0 0 0 2097152 1024 4194304 0 0 4325376 0 1024 64 0 8192 8192 0 134217728 0 32 0 2 0 0 4 262144 32768 128 32 786432 0 2048 8 16384 4 0 2048 0 536870912 0 0 0 64 0 0 33554432 0 0 0 0 2048 0 65536 0 536870912 32768 0 0 68157440 1073741824 192 0 8 131072 2147483680 4194304 524800 0 2 0 2048 268697602 128 0 262144 128 262144 2048 262144 256 0 16777232 3221226496 2281701376 0 0 268435456 0 0 0 0 0 2 0 1 262144 0 2147483648 524288 8388608 67108896 0 4194304 0 268435456 0 4194308 0 0 0 0 1082130432 0 0 0 1 4194304 262144 0 1024 16384 0 0 32768 0 0 67108896 1 0 0 1073741824 2155872256 0 0 0 2147483648 0 0 268435456 0 0 8 0 8388608 0 0 8192 1140850688 0 0 0 0 4718592 268435456 0 603979808 8390656 0 16781312 0 0 1024 0 0 33554433 131136 0 32 268435456 1073741824 0 0 0 256 0 2099200 0 0 0 128 0 0 0 0 83886080 0 10 2147483648 0 0 0 128 0 0 4194304 12 0 67109888 524288 2097152 0 1048576 0 0 4194432 0 33562624 0 0 1073741832 134217728 0 0 268435456 32 0 134217856 0 512 0 0 0 2097152 65536 16842752 0 0 131072 0 512 0 0 0 1610612736 0 4 0 0 268435456 256 0 4096 33554432 0 8 131072 67584 114688 2 0 2048 0 16 524288 2147483648 96 0 0 0 4 2 0 131072 0 8388608 0 0 16777216 1073741824 0 0 0 0 0 0 0 262144 67108864 4194304 512 0 5120 8 8320 4489216 128 0 34603008 0 0 268435456 1 4 2147483648 402653184 1073741824 0 17301504 4096 0 16 0 4096 0 8388608 128 0 0 32 0 8388608 32768 1073741824 0 65536 0 0 0 2080 805306368 0 2048 0 0 128 0 0 0 1073741824 271360 0 8192 268435456 0 0 0 8388624 0 285212672 0 0 0 6144 0 0 0 0 16384 1048576 512 256 65536 0 134217984 1073741824 0 0 0 528384 0 0 131072 2 8452 0 0 1024 0 0 0 0 536870912 8 0 0 0 0 0 1073741824 4 131072 0 0 4194432 0 96 0 4096 0 0 0 2048 0 0 17 268440064 0 268435456 0 0 0 0 67108864 0 0 0 266240 0 0 33562624 0 0 536870912 131072 268435456 262144 0 84410368 0 2 512 1075838976 0 16384 0 33570816 0 32 0 268435456 0 4 0 1048578 0 0 0 64 0 64 0 0 0 12582912 0 16 12288 0 262144 0 0 0 32 16384 0 1073741824 0 4 0 0 0 1073742848 2048 88080384 16 4096 268435456 0 1 0 0 0 1 262144 0 128 0 0 100663296 2147483712 0 134217728 0 16384 0 0 0 2147483648 47932 2147491840 0 0 128 1 0 0 1073741824 1073741824 0 4 0 2 2147483648 1024 1073750016 0 0 128 0 33554432 32 4 1 143360 16777216 0 0 0 0 0 16 1024 0 2 0 0 6144 0 0 0 0 0 4194304 67109376 4096 0 0 0 512 0 196608 8 67108868 8388616 134217728 0 0 0 0 0 0 256 16777216 0 0 0 0 0 1025 67584 0 4739072 0 4 4 536870920 524288 0 1024 4 536870912 268435456 0 0 0 0 512 0 0 262144 16 65536 0 0 0 0 0 1572864 4096 2097152 536879104 294912 32800 8192 0 0 64 0 524288 16 69632 262144 0 0 16782336 0 0 0 0 0 0 1050624 512 0 402653184 0 0 65536 8388608 0 0 2147483680 0 1073741824 0 0 0 67108864 0 0 4195328 128 2048 0 268435456 0 0 262176 2147746048 16384 0 512 0 16 2 0 2147483648 0 0 0 128 1024 0 4194304 536870912 0 0 67108864 17301760 0 0 65536 4352 16777216 0 0 0 67108864 0 0 268435456 270336 268435456 0 0 0 0 0 0 0 128 0 0 262144 262144 1073741824 33685507 0 134479872 0 0 2147486720 0 67108864 262144 16 2 0 2056 0 2048 0 1048608 64 8388608 2147483648 0 0 4 0 0 134217728 65536 0 128 0 16384 0 0 1 16 64 0 0 0 0 0 0 1049664 64 0 0 0 0 32768 0 16 2315288576 256 16384 1073741824 83886080 0 16842752 720897 0 268443648 131072 0 0 0 8 0 67108864 0 0 0 0 0 1024 0 0 0 8192 8 0 262144 2 0 16 2147483648 1024 16 2147483648 0 0 0 4096 4212736 16777216 262144 536870912 0 524296 0 0 1073741824 8912896 0 0 0 0 0 2097152 0 0 262144 0 0 0 0 0 2112 8 0 0 0 1024 16777216 512 0 67108880 136 0 32768 0 0 16384 1048576 0 0 0 1 262144 0 0 16 0 0 167903236 16777216 1024 4096 0 0 9442304 0 134217728 0 33554432 0 0 4 0 256 0 0 0 538968064 32768 0 512 0 8 131072 4 0 0 0 0 0 524288 262144 524288 33554432 0 0 0 4 4 18592 16384 0 0 536870912 131072 0 0 2 0 8208 0 262144 0 1 0 0 0 1024 2097152 0 262144 0 0 524288 0 33281 0 0 65536 0 135299072 33554432 0 0 1310720 0 1048576 0 0 570425348 0 0 0 0 0 0 0 33555456 0 8388608 0 0 0 0 134217728 524288 8 0 270548992 536870912 1048576 0 268435456 0 0 8 16 0 0 1600 0 0 64 134217744 0 0 1048576 16 0 0 4194304 0 0 0 2304 0 16777216 0 0 0 2147483648 8192 0 0 0 4096 0 0 16793600 0 0 0 0 0 8388612 16777216 6291456 0 1073741828 32768 32769 10256 4096 33554432 131072 0 256 0 0 134217984 0 0 0 0 8 0 0 1048578 0 4194304 0 0 0 16 1024 0 0 0 0 0 0 0 0 16384 0 67108864 4 1026 2147483648 1610612744 1 256 0 134217984 0 0 1028 33554432 4480 134217728 256 0 262144 516 4096 1048576 40 34816 0 524288 2097152 0 256 0 0 0 1073741824 2147483648 32768 4194304 67108864 1074003968 0 524288 2048 0 0 33554464 0 0 2 256 67108864 0 0 32 0 0 2 4194304 0 0 0 0 64 0 131072 0 0 92274704 262144 129 0 134217728 0 8 65536 0 512 12582912 2281701376 536870912 0 0 0 16777216 4 0 262144 2048 4097 1073741824 1073741828 16384 0 512 0 0 0 0 0 0 0 0 2147483648 36 33554432 8192 0 0 0 0 524288 0 131072 512 4 1 0 16777216 0 0 2415919105 256 0 512 2097152 0 262144 0 0 0 0 0 0 4 0 538968064 0 0 67108864 524288 547358720 268435456 0 2048 0 8 8 0 0 256 0 1073741824 0 0 0 524288 134234112 0 0 256 0 0 8192 32 32 128 524288 0 0 0 0 2048 65536 0 8192 0 0 1048576 0 0 0 1073741824 2097152 0 524288 16777216 0 0 32832 8389124 2097152 524288 2 0 0 0 8388608 1048576 201330688 2048 0 0 0 32768 262144 65536 524288 0 17416 0 557056 0 0 131072 2 262144 16 0 0 67108864 0 16777216 0 67108868 0 0 0 0 16384 0 0 0 4194304 4096 4210768 8192 524296 524288 0 0 0 0 1048578 268435456 0 16 0 0 0 0 16384 0 12 16384 131072 201326592 0 0 0 524288 64 14 134217728 0 33554448 33554432 0 0 0 0 4 0 0 33554432 524288 32768 131072 131072 262144 0 1 0 268435456 0 524288 0 0 8404992 0 0 0 67109120 0 16384 1 524288 0 0 67108864 131072 0 0 262152 0 0 128 268435456 0 0 0 4100 0 1 0 0 1032 0 1073758208 4194304 0 0 8 64 0 0 0 128 4259840 32768 4194816 256 0 0 0 0 536870912 8388608 0 0 1050624 0 65536 1 8912960 0 0 1048832 0 262144 0 0 0 0 0 0 64 0 0 16896 0 16 0 67108864 0 0 0 0 0 0 0 65600 0 1048577 0 32768 65552 16777216 536870913 512 0 67108928 2 1212448 0 0 0 0 0 16 1048576 8388608 0 4 0 0 0 0 0 131072 8 0 0 0 262144 1073876992 0 16777216 128 0 98304 0 1024 0 512 0 0 0 134217728 64 1081344 1024 64 0 8224 0 2147483648 0 16777216 0 0 0 64 0 0 8388608 1 25690128 262144 0 131072 268435522 0 0 0 1073742336 8192 0 2049 2097153 0 0 33554432 0 0 0 512 0 0 0 0 0 0 0 268436480 32768 64 134217728 2097152 0 1073742848 0 0 0 2052 2 16 4096 4 8192 0 0 0 0 17825792 0 8388608 524288 0 0 0 1073741840 0 0 8388608 8192 1073741824 0 0 256 8192 0 4096 16777216 0 134217728 16812032 1280 0 32768 0 4194304 4 0 0 536870912 0 320 0 0 1024 4194304 33554704 0 0 130 256 0 0 8192 0 0 2 0 8 536870912 0 2147483648 1 0 0 16 1610612752 0 0 67108864 0 16400 0 0 1107329024 0 0 0 0 1048576 0 0 8389632 0 524288 16785408 2101248 0 0 537919488 8 8193 0 0 0 65536 0 1064960 4194304 4 0 0 32 3225419776 0 4096 131072 134217728 524288 0 0 0 0 0 65792 0 805306368 0 268435458 0 0 512 0 0 64 0 0 268435456 65792 1 0 65536 1075838980 0 0 0 0 67108864 0 0 0 33554436 2 0 4 0 0 0 0 0 34078728 0 0 0 131072 2097152 0 1040 512 32768 2097152 0 1024 65536 0 0 67108864 32768 536870912 0 1024 0 33554432 384 8192 0 134217728 262146 32 536870912 1024 131076 0 0 134217728 0 268435456 4194304 0 536870928 0 16512 0 0 8240 0 0 65536 0 0 0 0 0 4194304 0 2147485696 0 0 0 0 16384 655360 524288 0 1081344 0 64 0 0 24 0 524288 16777216 0 0 268443648 134217728 1048576 0 2097152 16777216 1073741824 0 0 256 0 4 67108864 0 1048576 2048 0 33554432 20971520 0 0 0 0 0 0 0 0 1048576 4 0 0 32 4 2048 0 0 65536 4194561 0 0 131072 32 0 0 0 32768 0 2113536 0 2 0 0 71303169 8388624 0 8 524288 0 4292608 0 4 1 0 0 0 256 134217728 0 32768 0 64 524288 2097152 786432 0 268435456 131072 8192 0 0 0 262152 24576 0 134217728 0 16 0 1024 32776 0 0 134217728 0 0 0 1073741824 1073774592 4194304 16 0 0 128 4096 0 16793600 0 0 32768 0 1 0 256 2097152 0 268435456 33554432 0 0 2048 0 0 134217728 0 0 0 32768 0 16779284 0 32768 2097152 1 2097152 0 0 2621440 0 524288 0 4240 32768 2097152 134217728 0 1024 0 0 0 65536 0 0 0 0 8 2048 0 0 0 67108864 64 1073741824 0 0 0 0 0 0 536870912 33555456 34 0 0 8404992 512 0 2097184 4194304 4198400 128 268959744 0 262144 0 16 0 0 16 1310728 0 2147483648
is_linear=0
shrinkage=0.05


Tree=7
num_leaves=64
num_cat=56
split_feature=9 9 9 9 4 9 9 0 0 0 0 4 4 9 0 0 0 0 0 0 0 0 0 0 0 0 0 0 4 0 0 0 0 0 0 0 0 0 0 0 0 0 0 0 0 0 0 0 0 0 0 0 0 0 0 0 0 0 0 0 0 0 0
split_gain=366778 20378.6 18681.3 3202.05 2782.28 2528.67 2064.73 1959.46 1812.44 1545.37 1445.47 1364.03 1339.87 1298.01 1296.39 1290.87 1239.53 1171.62 1171.05 1179.18 1133.71 1124.61 1087.36 1055.32 1001.65 985.443 975.132 944.795 939.473 1226 915.539 914.935 875.683 873.037 869.761 867.626 836.863 827.05 796.479 813.862 779.058 777.457 767.088 750.718 746.597 746.178 709.277 693.538 683.274 681.263 645.846 627.69 623.305 617.602 595.486 571.628 570.747 573.279 568.612 595.752 556.025 552.582 549.226
threshold=0.32173123955726629 0.19868421554565432 0.4803846031427384 0.27823315560817724 0 0.099180329591035857 0.70074626803398143 1 2 3 4 5 6 0.39314988255500799 7 8 9 10 11 12 13 14 15 16 17 18 19 20 21 22 23 24 25 26 27 28 29 30 31 32 33 34 35 36 37 38 39 40 41 42 43 44 45 46 47 48 49 50 51 52 53 54 55
decision_type=2 2 2 2 1 2 2 9 9 9 9 1 1 2 9 9 9 9 9 9 9 9 9 9 9 9 9 9 1 9 9 9 9 9 9 9 9 9 9 9 9 9 9 9 9 9 9 9 9 9 9 9 9 9 9 9 9 9 9 9 9 9 9
left_child=1 5 4 15 7 33 9 -2 -6 -4 -10 16 20 22 -9 -3 -11 -14 -16 -20 -7 -13 -12 -17 -8 -25 -5 -27 29 -29 -28 -15 -21 -1 -30 -23 -22 -31 -19 -40 -36 -38 -39 -33 -26 -37 -44 -43 -24 -34 -47 -48 -45 -18 -49 -54 -35 -58 -42 -60 -41 -50 -52
right_child=2 3 6 26 8 12 24 14 10 11 13 21 17 31 18 23 53 38 19 32 36 35 48 25 44 27 30 28 34 37 -32 43 49 56 40 45 41 42 39 60 58 47 46 52 -46 50 51 54 61 -51 62 -53 55 -55 -56 -57 57 -59 59 -61 -62 -63 -64
leaf_value=0.0015772107042551235 -0.0031740029175563542 -0.0034740841025368593 -0.0040376214169224158 0.0030152498867915159 0.0055252964346354412 0.0057117754290856668 -0.0016515114750007944 -0.0038397909158886219 -0.004690049813203998 -0.003364931150991732 0.0038174044693731982 -0.0030126720148501403 0.0023760701264530005 0.0053751723219809646 -0.0027581921773771295 -0.0040389429189953722 0.0010509522661750399 0.0016103305912112259 -0.0016536419300871271 -0.00045628886537655292 0.0032101175969918988 0.0098718114177895559 -0.0047151645054262815 0.0038736562581319746 0.0052748122290528533 0.0044127324385859271 -0.0026506880495738294 0.0020007262783515918 0.0037366927415807081 0.0013907433900292644 -0.00022094444464884345 -0.0035879932404223771 0.00037702126156183849 -0.0014760147344712469 -0.0043449108795519638 -0.0017095564751614474 0.0021786824467544376 0.0021650661078149503 0.0001126875773655639 -0.0012062550730885552 0.0048585476559755512 0.002230453670081828 0.0012819195530919078 -0.0041849181878128279 0.019063379092929624 0.010325138428114314 0.00033366304226232493 -0.006205216503049441 0.0063691688249418706 0.0038859157289555498 0.010856614552152852 -0.0033613794494046475 0.0072782970841483059 0.0096591541201059908 -0.0049858578364930491 0.0033086819548245692 -0.003352243548484549 -0.0083630662061665497 0.0024684356212798992 -0.0021904728768655209 -0.005731364314700344 0.00076120713626079146 0.0082048996672248187
leaf_weight=741 776 3784 823 1063 3447 557 797 555 1066 533 1731 829 656 2570 660 3287 966 790 985 1114 692 8215 682 683 1481 1032 1365 719 844 667 37361 586 1407 1053 1907 902 967 789 1146 1191 841 1135 970 741 155203 5529 1087 4218 1015 29469 4312 31782 1838 38575 64252 36102 1615 151249 1195 43846 73509 35691 65477
leaf_count=741 776 3784 823 1063 3447 557 797 555 1066 533 1731 829 656 2570 660 3287 966 790 985 1114 692 8215 682 683 1481 1032 1365 719 844 667 37361 586 1407 1053 1907 902 967 789 1146 1191 841 1135 970 741 155203 5529 1087 4218 1015 29469 4312 31782 1838 38575 64252 36102 1615 151249 1195 43846 73509 35691 65477
