tree
version=v4
num_class=1
num_tree_per_iteration=1
label_index=0
max_feature_idx=15
objective=regression_l1
feature_names=station_id lat lon capacity hour dow is_weekend hour_sin hour_cos bikes_pct bikes_pct_lag_15m bikes_pct_lag_30m bikes_pct_lag_60m bikes_pct_lag_180m bikes_pct_roll_1h bikes_pct_delta_15m
feature_infos=-1:446:1281:531:1087:525:1350:315:1013:1140:126:255:403:1208:1034:1123:1222:45:653:720:1137:136:366:640:826:860:991:1122:1211:1295:1392:342:456:1374:1427:35:80:178:198:527:620:736:880:928:967:1117:1382:1400:1501:26:56:78:557:709:776:851:852:911:912:934:1038:1094:1300:1302:74:134:217:326:354:705:895:1040:1142:1230:1250:1313:1377:1456:1490:1494:24:160:229:328:534:644:681:730:741:742:807:884:943:973:986:1036:1073:1103:1148:1178:1248:1252:1337:1383:1410:1482:1486:38:124:154:168:195:367:430:472:717:761:809:961:1024:1097:1198:1262:1326:1341:1381:4:14:250:252:281:282:357:409:435:440:718:739:896:905:907:954:989:1005:1015:1060:1127:1170:1209:1264:1310:1332:1340:1343:1391:1402:29:51:75:93:230:234:269:297:316:415:418:676:711:725:755:830:914:996:1002:1011:1019:1076:1090:1129:1193:1219:1291:1415:1433:1437:36:83:99:221:242:272:293:346:353:427:444:515:555:565:611:619:631:677:684:769:798:802:815:855:886:909:924:951:1006:1028:1072:1074:1088:1093:1165:1194:1202:1328:1345:1436:1489:12:16:155:236:243:395:457:476:484:488:510:520:616:772:783:804:1043:1089:1169:1206:1234:1258:1268:1412:1455:1461:1481:1:98:111:115:153:156:159:203:233:276:289:337:407:423:462:463:477:603:648:683:704:708:726:729:734:747:751:786:797:825:833:848:850:945:990:1099:1100:1174:1192:1223:1279:1367:1378:1435:54:61:67:88:135:227:239:241:267:284:347:485:500:512:582:614:624:657:664:688:716:892:974:1033:1050:1086:1107:1114:1138:1147:1215:1241:1260:1344:1361:1366:1384:1405:1449:1502:1505:15:43:110:123:167:170:197:244:298:410:513:596:613:625:671:700:773:778:791:847:853:894:980:997:1008:1014:1018:1020:1061:1098:1105:1247:1297:1329:1351:1379:1422:1426:0:13:25:188:190:211:332:344:380:398:413:431:436:502:585:589:597:652:785:788:803:834:839:870:942:960:1029:1051:1056:1059:1065:1077:1134:1135:1144:1162:1164:1225:1226:1259:1336:1364:1408:1447:1471:1508:116:117:122:132:143:166:177:294:322:324:329:373:379:388:451:465:487:533:536:545:552:556:615:649:668:693:737:792:849:908:936:950:1066:1082:1109:1139:1161:1204:1265:1277:1303:1308:1315:1334:1354:1362:1372:40:94:104:121:128:138:205:213:215:232:280:290:306:312:368:393:400:421:425:428:459:529:639:651:656:692:702:713:715:763:787:872:876:897:922:953:963:978:995:1022:1064:1081:1092:1111:1121:1143:1197:1224:1239:1240:1249:1267:1283:1321:1322:1375:1390:1425:1438:91:108:146:199:228:245:274:283:314:351:361:365:378:382:454:482:497:504:508:539:541:567:593:595:605:635:641:690:691:827:976:1007:1075:1083:1085:1163:1213:1242:1280:1289:1309:1316:1348:1439:1443:1464:1493:27:48:109:112:145:191:237:273:286:287:301:319:334:385:414:468:473:499:535:559:563:570:581:623:629:646:647:703:735:738:750:793:796:812:816:845:867:890:906:937:939:940:941:947:956:983:994:1035:1126:1154:1167:1179:1189:1191:1227:1229:1290:1293:1294:1330:1359:1363:1398:1417:1423:1452:1458:2:10:18:42:73:79:119:172:182:222:231:246:259:261:279:296:302:331:363:479:551:599:633:650:695:771:881:952:969:979:985:1048:1063:1136:1157:1173:1185:1186:1199:1220:1237:1311:1369:1409:1428:1450:1459:1460:1500:6:19:28:50:114:163:184:216:263:265:295:313:396:399:411:426:447:452:492:516:610:618:689:770:836:929:932:1069:1102:1104:1153:1175:1176:1195:1270:1299:1314:1317:1331:1346:1416:1445:1465:1466:1477:1478:1483:8:11:52:70:71:97:125:133:171:254:256:285:310:320:364:369:384:394:401:439:467:470:475:517:537:547:626:638:670:719:740:777:779:799:808:820:831:840:873:891:935:949:984:1023:1079:1118:1128:1177:1182:1254:1257:1266:1304:1338:1365:1463:1473:1488:1498:55:63:100:161:194:299:303:338:345:349:372:375:390:391:397:406:417:443:450:469:474:491:494:501:540:548:561:572:580:586:608:622:674:679:682:698:766:794:842:843:869:877:879:910:933:958:998:1012:1054:1068:1132:1160:1180:1201:1218:1235:1275:1296:1320:1323:1356:1388:1389:1393:1434:1462:1480:1495:5:17:20:76:105:106:113:180:209:210:214:253:257:266:277:278:356:370:392:404:412:432:458:471:518:550:568:578:602:706:707:714:790:805:885:887:902:920:926:1025:1057:1070:1071:1084:1116:1133:1183:1188:1200:1228:1263:1307:1376:1407:1411:1414:1424:1442:1448:1454:1479:1485:44:65:68:95:129:142:164:193:206:248:260:288:304:307:330:374:416:445:480:507:521:528:594:617:642:645:710:722:723:728:752:754:784:813:846:883:931:959:987:1017:1106:1124:1155:1205:1269:1298:1333:1358:1373:1429:1474:1497:1507:3:72:96:102:144:147:300:348:358:437:442:449:461:481:496:523:530:542:606:636:665:672:685:687:745:810:817:838:862:875:889:900:925:962:977:1026:1052:1101:1112:1181:1187:1238:1272:1324:1325:1349:1370:9:22:23:32:33:92:103:162:181:196:200:225:235:247:258:340:453:464:483:489:498:558:569:576:587:604:748:814:864:878:916:930:948:971:992:993:1001:1027:1044:1053:1130:1150:1156:1236:1243:1319:1327:1353:1355:1451:1468:1475:1487:37:41:58:85:101:130:189:201:271:355:402:405:448:455:544:560:571:588:598:600:609:632:654:724:731:744:746:759:764:768:819:835:898:899:913:964:1055:1096:1108:1119:1120:1131:1196:1207:1214:1216:1231:1245:1251:1255:1261:1285:1287:1306:1347:1380:1440:1444:46:62:87:127:139:173:321:335:336:339:343:350:434:486:509:514:562:579:601:612:721:762:818:822:832:861:893:903:918:923:957:1030:1049:1080:1282:1284:1342:1368:1387:1491:1499:84:86:107:120:149:169:308:317:376:433:466:546:591:627:634:659:660:663:680:699:753:901:915:968:1046:1062:1067:1113:1158:1203:1246:1312:1371:1395:1404:1413:1421:1469:1509:49:66:90:150:157:186:264:275:311:325:419:420:441:511:524:583:628:675:686:694:782:801:821:865:919:946:1000:1037:1095:1151:1278:1288:1352:1399:1419:1472:1506:7:30:39:60:118:152:219:220:223:224:240:270:305:359:383:554:592:607:658:749:774:823:856:904:921:955:981:1058:1141:1146:1217:1274:1276:1286:1305:1397:1431:1496:82:131:140:158:165:262:318:327:360:362:493:505:643:655:661:662:678:732:758:765:811:829:841:868:917:927:982:999:1016:1041:1115:1145:1152:1212:1253:1335:1394:1406:1418:1430:31:77:137:187:192:381:429:538:549:553:590:621:673:743:789:806:944:965:1010:1039:1042:1159:1233:1339:1432:1503:53:59:89:202:251:268:291:478:490:495:503:584:637:757:800:844:1032:1110:1168:1184:1210:1273:47:183:341:371:387:389:408:438:519:526:573:696:837:854:859:871:874:970:975:988:1078:1166:1256:1360:1401:1446:1476:151:212:522:575:630:712:733:760:824:858:972:1021:1091:1172:1271:1301:1318:1357:1403:1457:1504:176:179:207:352:377:424:460:506:532:697:866:938:1009:1171:1420:21:64:141:204:309:543:574:667:669:828:857:1031:1125:1492:175:226:333:756:795:1003:1047:1149:1190:1292:1396:1453:69:148:185:208:564:701:781:1045:1221:1232:1244:1484:218:767:1386:1467:57:81:323:577:863:882 [48.743385314941406:48.957569122314453] [2.1655967235565186:2.5382421016693115] [11:105] -1:4:2:23:9:11:15:3:12:10:5:13:18:20:17:21:14:19:1:16:22:7:8:0:6 -1:6:5:0 -1:1:0 [-1:1] [-1:1] [0:1.7599999904632568] [0:1.7599999904632568] [0:1.7599999904632568] [0:1.7599999904632568] [0:1.7599999904632568] [0:1.7599999904632568] [-0.76470589637756348:0.75]
tree_sizes=15208 15361 15664 15602 6014 6039 15330 15619 6027 15420 6138 15477 15312 15961 14740 15731 6072 15662 14548 15910 16083 15285 15894 16260 15229 6086 15868 15069 15963 15687 15486 6097 6096 16138 16520 16358 16241 6189 16464 16364 16165 16065 16281 16064 16272 16487 16428 16076 16304 16256 16096 15800 16015 16115 15960 6240 16217 16383 16171 15967 16496 16600 16084 16920 16416 16395 16979 6098 16823 16898 16872 16887 6254 6141 17130 16783 16736 16914 16763 17008 16410 16434 16395 16527 16626 15901 16969 16253 16826 16873 16858 16222 6137 6120 6156 16570 16131 6133 16189 16464 16485 16193 15793 6127 16271 15811 16347 15389 15331 15410 15654 15018 15409 14606 15074 6098 15507 15384 15235 15379 15639 15970 15303 16098 6104 15476 14212 14688 14382 14829 15147 14934 15082 14914 6101 6116 15508 14250 15018 14522 14577 14462 15279 6179 13718 13609 13643 14791 14969 13454 13525 13679 13518 13789 6146 13088 13799 6070 13949 13629 6091 13707 14035 13591 13531 15269 14431 13362 6092 13904 6147 13451 13279 13243 14487 14443 13130 13087 13609 13247 5993 14015 12567 15382 14495 13379 15433 15348 6072

Tree=0
num_leaves=64
num_cat=54
split_feature=9 9 9 4 9 9 0 0 0 0 9 0 0 0 9 0 0 0 0 0 0 0 0 4 0 4 0 0 9 0 0 0 0 0 0 0 0 0 0 4 0 0 0 0 0 0 0 0 0 13 0 0 0 0 0 0 0 0 0 0 0 0 0
split_gain=531885 22286.8 14027.2 3150.55 2248.2 2111.81 1520.41 1511.86 1332.34 1307.91 1279.29 1190.92 1173.09 1164.01 1051.67 1047.57 870.449 856.793 855.388 848.701 835.508 774.262 767.871 747.375 983.687 699.995 726.189 725.988 695.781 660.426 636.267 609.526 608.641 604.042 598.842 575.186 569.545 568.117 559.138 536.103 736.663 653.489 544.082 517.078 510.226 508.352 512.837 506.28 501.144 499.147 670.431 647.826 536.187 506.676 474.542 512.957 450.382 426.885 419.901 408.732 397.833 390.669 385.861
threshold=0.31622806191444403 0.42163743078708654 0.22140523046255114 0 0.26500600576400762 0.55051019787788402 1 2 3 4 0.35767590999603277 5 6 7 0.13921189308166507 8 9 10 11 12 13 14 15 16 17 18 19 20 0.35043859481811529 21 22 23 24 25 26 27 28 29 30 31 32 33 34 35 36 37 38 39 40 0.31622806191444403 41 42 43 44 45 46 47 48 49 50 51 52 53
decision_type=2 2 2 1 2 2 9 9 9 9 2 9 9 9 2 9 9 9 9 9 9 9 9 1 9 1 9 9 2 9 9 9 9 9 9 9 9 9 9 1 9 9 9 9 9 9 9 9 9 2 9 9 9 9 9 9 9 9 9 9 9 9 9
left_child=2 3 7 9 19 8 -5 -1 -3 -2 17 -11 -6 -13 47 -14 -10 -8 -12 -4 -15 -16 -7 33 -25 26 -21 -27 36 -20 -17 -19 -32 -18 -31 -30 -22 -36 -34 41 -41 -23 -42 -28 -40 -46 -47 -9 -33 51 -51 -48 -53 -54 -26 -56 -29 -39 -52 -44 -59 -38 -50
right_child=1 5 4 6 12 22 10 14 16 11 18 13 15 20 21 30 23 31 29 25 28 39 -24 24 54 27 43 56 35 34 32 48 38 -35 37 -37 61 57 44 40 42 -43 59 -45 45 46 49 -49 62 50 58 52 53 -55 55 -57 -58 60 -60 -61 -62 -63 -64
leaf_value=0.31901514828205108 0.31483332961797716 0.31273809149861337 0.31958332955837249 0.32083332985639573 0.32083332985639573 0.31654761582612989 0.32047618627548219 0.31416666358709333 0.31583333015441895 0.31387680768966675 0.31194444075226785 0.31472221910953524 0.31429486870765688 0.31534945815801618 0.31749999672174456 0.31399122476577757 0.31598484516143799 0.31988094896078112 0.32128787487745286 0.3199822664260864 0.31564814448356626 0.31749999672174456 0.33892856836318969 0.31483332961797716 0.3164583295583725 0.31810786575078964 0.3183333292603493 0.31690475791692735 0.3164583295583725 0.31333332955837251 0.31416666358709333 0.31273809149861337 0.32083332985639573 0.32502687722444534 0.31416666358709333 0.32047618627548219 0.31601190119981765 0.31333332955837251 0.31958332955837249 0.31820810586214066 0.31561870351433752 0.30965685918927194 0.31387680768966675 0.31259803548455239 0.31840089708566666 0.31749999672174456 0.32027777433395388 0.30537878423929216 0.3124999962747097 0.3183333292603493 0.31749999672174456 0.31901514828205108 0.31858543083071711 0.315119044482708 0.31790650039911272 0.32474637329578399 0.3124999962747097 0.31541666239500044 0.31387680768966675 0.30916666314005853 0.31958332955837249 0.31822463423013686 0.3164583295583725
leaf_weight=926 541 659 519 2664 790 831 1167 977 944 585 565 829 2814 903 955 1887 524 982 1853 538 542 550 239259 839 819 558 694 656 704 557 2098 697 583 29164 674 21252 781 667 813 702 1098 41008 1205 21391 988 1309 538 209135 564 673 855 581 804 23699 1155 57599 26760 802 14018 66909 26659 9099 21239
leaf_count=926 541 659 519 2664 790 831 1167 977 944 585 565 829 2814 903 955 1887 524 982 1853 538 542 550 239259 839 819 558 694 656 704 557 2098 697 583 29164 674 21252 781 667 813 702 1098 41008 1205 21391 988 1309 538 209135 564 673 855 581 804 23699 1155 57599 26760 802 14018 66909 26659 9099 21239
internal_value=0.316667 0.356194 0.277236 0.334748 0.293251 0.362291 0.327685 0.272108 0.355837 0.346581 0.325937 0.347789 0.300524 0.349007 0.271926 0.299599 0.356347 0.317391 0.33257 0.285789 0.350469 0.275828 0.364756 0.356849 0.353625 0.285139 0.291721 0.279828 0.351795 0.333674 0.301315 0.315304 0.302467 0.363395 0.331834 0.356856 0.341168 0.332832 0.303705 0.275446 0.278156 0.270896 0.277637 0.290317 0.303061 0.302325 0.301498 0.269836 0.313615 0.300517 0.293445 0.304802 0.303636 0.302505 0.354385 0.354915 0.278674 0.333923 0.291245 0.277071 0.334886 0.343891 0.314959
internal_weight=0 426119 427031 94326 103566 331793 59090 323465 91703 35236 56426 34695 52450 34110 322539 51660 91044 24649 31777 51116 33281 112427 240090 90100 60412 50597 22623 27974 32378 31212 48846 23482 46959 29688 29359 21956 10422 28802 44861 111472 69914 41558 69212 22085 44278 43465 42477 210112 22500 41168 15546 25622 25084 24503 59573 58754 27416 28128 14873 68114 27461 9880 21803
internal_count=853150 426119 427031 94326 103566 331793 59090 323465 91703 35236 56426 34695 52450 34110 322539 51660 91044 24649 31777 51116 33281 112427 240090 90100 60412 50597 22623 27974 32378 31212 48846 23482 46959 29688 29359 21956 10422 28802 44861 111472 69914 41558 69212 22085 44278 43465 42477 210112 22500 41168 15546 25622 25084 24503 59573 58754 27416 28128 14873 68114 27461 9880 21803
cat_boundaries=0 1 47 95 141 187 234 281 328 375 422 469 513 559 607 653 701 702 749 750 797 841 887 933 980 1026 1073 1117 1161 1207 1250 1297 1298 1343 1387 1435 1477 1521 1568 1616 1663 1710 1756 1801 1849 1896 1943 1987 2034 2081 2128 2173 2220 2267 2315
cat_threshold=12584991 128 163840 0 268468416 67371024 8388640 71368720 0 0 268435456 0 0 268435456 512 64 268435456 0 0 0 0 32 4194304 0 0 0 0 0 0 8192 0 0 0 0 0 0 268443648 65536 256 0 0 536870912 1024 0 0 0 4194304 0 0 0 32 0 0 134217728 1 0 134217728 1073741824 2048 3145728 0 0 0 0 0 4195328 0 2147516416 0 0 8389120 0 67108864 3145736 1073745920 0 0 8 8192 0 0 524288 0 16777216 4 0 262144 0 0 524288 0 262144 131072 0 32 0 536870912 0 4194320 0 0 0 8388608 262144 0 2 0 1 0 1024 0 16777216 0 4096 536870912 4 0 0 65536 524288 536870912 65536 2 16777216 67108992 32768 4194304 0 1048576 2048 4718848 0 2098176 0 0 0 2147483648 0 268435456 0 524288 0 0 0 134217728 0 0 0 262528 0 0 0 8192 64 16 0 0 268959744 0 0 0 0 2 0 655360 16896 2048 0 0 0 0 131201 1073741824 8 134217728 0 37122 1024 2 16777216 0 0 2097152 0 0 0 4194304 64 2147483648 0 0 8 0 0 0 0 0 4 0 0 262144 278528 0 0 0 64 0 570425344 256 2097152 1207975936 1212153864 0 0 8389120 0 128 0 268435456 0 0 0 2621440 2147483652 2097152 0 1024 0 4096 0 0 0 0 67174400 0 0 2 0 16 3221225472 67108864 0 2147483776 0 2048 0 0 524288 0 262160 1024 524288 0 16 524288 0 16777216 4096 32768 0 1048576 268435456 0 0 0 134217728 0 0 524288 268435456 0 0 33816576 540673 0 0 0 537395200 0 65536 2097152 0 0 0 0 2097152 32768 0 65536 2149580800 8388608 0 33554432 0 2147483648 0 0 0 402653184 0 0 0 1073741824 512 0 65536 24640 65536 100663296 0 0 0 2097216 64 16777216 0 0 67108864 16794112 4096 32768 0 0 0 9437184 0 0 268435456 1024 134217728 268435456 67108864 0 0 0 0 0 512 0 0 0 0 134217736 0 512 65536 1207959552 0 512 131072 1342177280 0 16896 0 0 64 0 512 1107296256 0 8388608 32 0 0 2147483680 16777216 0 2147483648 516 0 0 32 0 524288 67108864 0 0 0 0 0 0 0 134283264 0 0 0 33554432 0 2147483648 262144 0 0 536870912 0 0 33555456 671088640 64 135266368 2162688 0 0 1073741860 536870912 1024 0 0 1 0 0 1048576 0 8192 0 256 0 2 1 0 33554432 2048 9216 0 2 0 131104 34086912 2147483648 131072 0 0 0 16778240 1073741824 8192 0 0 34816 2 0 128 0 0 0 0 0 263168 0 67108864 0 65536 1073741824 8 131328 0 0 0 0 0 0 64 65536 268435456 0 0 16777216 65536 16384 589824 0 33554432 16384 8192 0 524288 0 134217728 0 0 268435456 2147483648 2097153 16384 0 4096 67108864 0 32 0 256 512 16384 0 272629760 1024 0 0 0 0 0 0 270336 0 83886208 0 0 33554432 0 0 0 0 2214596608 8192 0 262144 0 0 65536 0 16 0 0 134217728 2048 0 268435456 33554432 1073742080 262144 0 0 0 0 2147483648 0 2048 0 0 0 0 0 0 1077936128 2097160 0 0 0 41943040 0 2 1048576 32 67371008 0 16 0 16777216 2359296 2228224 1073 0 0 16 0 0 128 0 16781312 262144 0 1073745920 0 0 32 0 0 0 0 4194306 0 0 2147483648 262144 0 2 16 134217728 1048704 0 2097152 0 0 0 4 1048592 8392704 33554432 0 0 0 1 262144 0 131072 0 0 1 0 0 2 0 65536 8 34078720 4194304 134217728 0 36864 33554433 1073741824 0 0 0 0 16384 0 4096 0 0 671088640 0 8192 0 33554432 262272 32768 0 4194304 0 0 0 2 0 0 4194304 67108864 0 0 0 2097152 163840 33554432 65536 8192 0 0 0 0 8448 0 8388608 256 0 0 0 0 268435456 2048 0 16777216 134217728 0 33554432 1 3288334336 0 262144 1073741828 0 5 0 0 1073741824 0 0 67108864 0 0 2097160 16 1024 0 1024 0 0 0 256 16384 0 1296 1 8388671 0 1048584 65664 0 2147483648 0 0 268468224 0 655360 0 0 0 0 16 0 0 0 0 0 536870912 16 0 0 64 1048576 0 262152 0 3145792 67108864 0 131072 0 0 131584 524288 524288 0 0 0 134217728 0 16384 32768 0 288 8357056 1 0 0 0 512 0 0 1048640 0 0 8 131072 0 0 0 16777472 2048 524544 0 0 1024 2097152 536870912 0 0 16777216 1073741824 1073741824 1024 160 256 8388608 0 4194304 4 0 0 268435456 4160 0 0 0 0 0 134217736 0 8388608 1073152 0 8388608 0 0 8192 0 0 0 34 0 0 0 67141632 0 67109376 0 0 0 4 0 0 64 1073741824 0 4194304 268436480 9216 32769 0 0 8196 0 0 512 536870912 0 1024 0 0 0 128 0 71307264 0 1024 4194304 9 33554432 0 0 0 128 0 0 0 8192 0 0 3221258240 65536 0 0 16 278528 0 0 0 67110912 0 0 0 0 0 4 6 4194304 0 0 1073741824 8192 0 64 0 2129920 640 2 536870912 0 2147483648 0 128 0 0 0 0 0 2097152 33816576 1073741824 0 0 0 262144 0 4096 0 134217728 32768 1048584 4194432 0 0 0 8388608 2080 262144 131072 0 1048576 0 0 0 65538 0 266240 262144 67108872 0 33554432 0 268435456 67108864 0 0 67108872 1048576 262144 2 0 16777216 0 0 16777232 4 0 0 16384 524288 32 67112960 0 0 524288 0 0 0 0 16 67108864 2048 0 0 268435456 2049 0 0 0 16 4194304 524288 0 8192 17 16777216 32768 2147483648 0 0 524288 2147483648 131072 8192 0 67108867 512 16793600 402653184 0 0 0 0 32768 4 32768 131072 536870912 0 0 1140850688 0 0 0 0 8388736 0 1346371584 0 541065218 0 0 0 2097152 0 0 0 0 0 260 0 2097152 0 8 524288 0 0 2048 0 545259520 1048576 0 0 8388608 0 0 0 2147483648 2112 64 0 16384 0 4096 0 0 2048 16777216 0 2048 0 1073741824 262144 4202496 256 16384 32768 4194304 0 0 0 268435460 256 0 514 16384 8 0 256 0 256 0 0 8388608 0 4194304 268435456 0 0 0 512 0 32768 524290 0 0 2621440 0 0 0 0 16 0 8 0 0 4194304 4 536871040 0 16777216 524288 8388608 0 0 0 524288 8921088 0 0 1048608 33554432 8 4096 16777216 0 0 0 0 8388608 268435457 269484040 0 1048576 0 8192 0 0 1 268435456 2147483680 16 0 0 0 0 0 0 2164260864 128 34078720 134217728 0 0 8192 0 0 0 262144 268435460 32 4096 0 0 4202560 2 2056 0 0 1073741824 2 0 0 1 16384 16896 2 0 1 0 2056 0 0 0 0 1073741824 512 0 33554432 67108864 0 0 536870912 0 0 0 16 268468224 8388608 0 268435456 64 2 0 16777216 0 272 0 0 0 0 524304 268435456 0 0 256 0 0 524320 10 32 134742016 0 0 0 0 0 0 8388608 0 16777216 133120 256 0 0 0 134225920 0 3221225472 0 4 512 0 0 8 16384 0 0 262144 16777216 66048 66048 0 268435456 16 134231040 0 144 524288 0 0 0 64 8 16 262144 0 8256 512 0 8388608 16 4 0 0 0 528384 33554432 0 134217730 0 16777216 0 0 8421376 34078720 134217728 0 0 0 0 0 0 4194304 0 0 528 0 0 1024 0 2048 0 0 2147483648 16 0 0 1024 2097152 2 8394815 32 0 67108864 0 1048576 512 0 2684354560 268959752 0 0 131072 16 0 0 67108864 0 33554432 0 0 0 2097152 2048 0 2048 16777216 0 256 0 32 2097408 524292 65826 1073741824 4 0 0 268435456 0 0 0 0 0 0 67108864 0 268435520 0 512 0 0 0 4 0 2149580800 0 0 8388608 163840 0 0 0 0 32768 0 1073741824 1073741824 4194368 64 2147549184 4194304 16777216 0 4096 0 134217728 0 1 8192 0 0 16 0 0 33554432 0 536870912 0 2048 0 0 134217728 0 0 67239936 0 1073741824 0 536870912 0 8192 1 1048576 0 512 0 8388608 16384 0 8 0 0 0 0 262144 32768 4194304 0 0 2048 256 2147483648 0 512 603979776 264 0 2 0 128 2097792 0 256 0 0 131072 4 64 0 0 1073741840 32768 0 0 0 0 537001984 4096 1107298304 0 536870912 512 0 0 16388 0 0 0 32 16 0 66048 0 0 0 16448 0 4194304 0 2097152 262144 0 1140851712 256 0 0 134217729 4128 4096 0 0 0 32 0 8 0 32769 0 0 1024 128 0 1050657 0 2147484676 0 0 128 0 0 4194304 0 0 1024 0 1024 0 1048576 0 4259840 0 0 0 0 1073741824 0 1048576 536870912 4 0 1140850688 0 16777232 65536 0 4194304 0 33558528 8192 150994944 4096 0 67108864 0 0 0 0 0 0 0 4 65536 0 262144 1073741824 0 0 262144 0 268435456 0 33619968 68 4 8388608 0 0 513 0 16777218 0 0 67371008 16384 128 0 128 0 0 16384 0 0 2048 0 2147483648 0 0 0 1073744136 0 0 0 0 16777216 0 5242880 0 0 268960768 0 1073741824 2147483648 2176 67108864 65536 0 0 71303168 136314944 67108864 0 0 0 0 0 0 0 4 0 0 1073741824 0 262144 0 134217729 0 73728 16 0 0 67371012 0 0 66048 0 0 10 32768 0 2181038080 0 33554432 0 262144 0 33570816 0 0 0 268435456 536870912 0 0 0 0 0 65616 0 134217984 524288 2147483648 0 2 0 1 134217728 67108864 268435456 0 65536 0 1073741824 2 0 131072 134217728 1073741824 0 1048576 2048 0 0 0 0 4096 134217728 256 0 0 0 0 0 0 9437184 8650752 1536 0 0 0 0 1024 0 131072 0 34603008 0 0 64 768 256 32768 0 0 0 2281701376 0 6291458 0 0 0 4 18 0 0 0 1073741824 8192 0 1048576 0 2097152 2097152 0 0 0 0 2097152 0 2048 0 131072 4096 0 536870944 0 0 131072 512 4210688 570425344 0 16384 2097152 65556 0 64 4194304 0 0 2147483648 67112992 0 0 0 0 256 0 16384 0 0 8 8388608 16777216 0 65536 64 268468224 134217760 0 131072 16 0 0 0 0 0 1048576 0 0 1052736 0 0 0 0 33554688 0 0 0 524800 0 0 134479876 0 0 8388608 0 0 0 0 131072 0 4194304 71303168 0 0 0 0 0 98304 0 0 0 8200 1 0 0 0 1 1073741824 0 1 2147484160 0 0 0 164128 0 8 0 524288 0 0 0 0 0 2 0 0 64 268582912 1 0 4194432 0 0 2147614720 0 268435456 0 524288 4 68419584 256 0 16 0 0 268435456 0 0 6 0 2147483648 0 131072 0 512 131088 0 0 2048 0 262144 0 2 0 67142720 2097152 0 0 0 0 8 4352 8 0 65536 0 0 0 1048640 256 0 0 0 0 0 4194336 0 67112960 1073741824 131328 0 0 0 0 0 0 0 256 0 268443648 8192 1024 0 1048576 0 8192 1 0 16 536870912 512 4 0 0 524288 0 0 10 262144 1072 0 64 0 0 537001984 0 0 0 10485760 0 0 0 2147483648 134742016 0 134217728 0 0 4 0 0 1073741824 536887296 0 16777220 33554432 0 0 512 0 2155872256 128 134234112 0 32 0 262272 0 0 2049 131200 131072 33554432 0 32768 8388608 0 268566528 0 0 0 0 0 0 4194304 0 4 134217728 0 524288 1073750016 0 32768 0 0 0 2147483648 16384 16384 0 0 2097216 0 0 0 0 0 536870912 0 0 64 0 8396800 98304 0 2228224 0 0 24 0 0 0 0 0 8192 256 1048582 0 0 0 2 0 0 2147483904 67108864 64 0 4210688 0 0 0 0 0 2 0 2097152 0 0 2048 536870912 0 1048576 0 0 0 0 24 262208 0 0 36 0 0 16 268435456 512 0 0 2048 25166336 536870912 2105344 0 0 0 0 0 1050624 33554432 0 256 0 0 2097152 0 0 0 524288 0 524288 0 9 4096 0 4096 0 40960 0 33554432 262144 0 4096 0 536870912 262144 0 0 2048 0 0 16777248 0 8192 0 0 2 2820669440 0 0 1073741824 268435456 268566544 0 524288 0 0 131328 16 1048577 0 0 0 4227080 16777216 32 67108864 0 33554432 0 0 0 0 0 16777216 0 16777216 128 0 0 0 0 4194432 32768 0 0 2048 144 0 134217728 1073741840 0 1024 4194304 1 0 1049600 0 0 0 69632 0 16384 3 0 256 128 16777216 1073741824 0 0 0 262144 33024 0 4194304 0 268435456 0 0 0 0 2147500032 262144 0 8 0 536870912 2147484160 0 0 1027 0 1048576 536871936 8 4096 0 4194304 0 0 0 0 0 0 4096 0 0 0 0 524308 0 4096 67108864 0 0 0 512 8 64 2 0 0 4194432 32768 0 0 256 0 0 16384 8 1024 0 0 2097152 1024 33280 262144 4 0 604012544 8388608 0 0 4096 0 0 0 0 0 132 131072 0 0 0 0 16777232 0 8 65536 0 268435456 0 0 134218754 0 536870912 524288 0 2162688 0 0 2147549184 0 2147516416 0 0 2048 0 0 0 3145728 131104 0 16384 0 0 0 64 268435456 0 65544 0 0 0 16384 256 0 0 1 67108864 1048576 0 256 32
is_linear=0
shrinkage=1


Tree=1
num_leaves=64
num_cat=54
split_feature=9 9 9 4 9 9 9 9 0 0 0 0 0 0 0 0 0 0 0 0 4 0 0 0 0 0 0 0 9 0 4 0 0 0 4 0 0 0 0 0 0 0 0 0 0 0 0 0 0 0 0 0 0 0 13 0 0 0 0 0 0 0 0
split_gain=516665 21489.8 15469.3 3082.66 1868.26 1835.09 1695.85 1686.45 1272.28 1211.1 1156.13 1135.35 1136.93 1092.99 1080.55 1035.43 1024.57 919.84 867.986 791.947 781.006 905.098 773.176 770.872 740.714 717.06 710.03 708.894 705.329 620.829 618.291 818.258 812.23 607.401 602.069 798.763 599.185 596.521 576.122 556.038 554.834 538.926 517.954 515.557 500.872 490.776 489.711 483.464 467.675 463.922 461.154 458.873 429.387 428.303 461.293 699.533 616.102 510.427 469.096 444.303 424.986 414.862 410.375
threshold=0.31957446038722997 0.4380482435226441 0.2336879447102547 0 0.37232102453708654 0.17274536192417148 0.56562754511833202 0.27195686101913458 1 2 3 4 5 6 7 8 9 10 11 12 13 14 15 16 17 18 19 20 0.35043859481811529 21 22 23 24 25 26 27 28 29 30 31 32 33 34 35 36 37 38 39 40 41 42 43 44 45 0.31866537034511572 46 47 48 49 50 51 52 53
decision_type=2 2 2 1 2 2 2 2 9 9 9 9 9 9 9 9 9 9 9 9 1 9 9 9 9 9 9 9 2 9 1 9 9 9 1 9 9 9 9 9 9 9 9 9 9 9 9 9 9 9 9 9 9 9 2 9 9 9 9 9 9 9 9
left_child=2 3 5 8 14 17 9 16 -2 -3 -9 -10 -13 -7 -5 -12 -4 -1 -14 -6 41 -22 -15 -8 -21 -26 -18 -16 40 -17 32 -32 -24 -30 36 -36 -28 -19 -27 -31 -20 -11 -23 -29 -40 -45 -37 -41 -47 -49 -33 -34 -38 -51 56 -56 -55 -58 -57 -59 -46 -44 -50
right_child=1 6 7 4 19 13 23 10 11 20 15 12 18 22 27 29 26 37 28 24 21 42 30 -25 25 38 34 43 33 39 31 50 51 -35 35 46 52 -39 44 47 -42 -43 61 45 60 48 -48 49 62 53 -52 -53 -54 54 55 58 57 59 -60 -61 -62 -63 -64
leaf_value=0.00095833398401737324 -0.0024083324521780025 -0.00354181569069624 0.0030684529244899756 0.0025922624766826635 0.0049510656297206889 0.0027234855666756624 -0.00027976125478744451 -0.0019216400384902965 -0.0020238092541694647 -0.00029389746487140656 0.0038267550617456431 -0.0015697488933801658 -0.0012513443082571019 0.0014065648242831243 -0.0043465823307633411 0.0040208338201045994 0.0018965590000152577 -0.0030955880694091319 -0.00096759229898452656 -0.0039702378585934643 -0.0019516037404537197 -0.00032822802662849375 0.0024903852120041845 0.02151511073112488 -0.0039019605517387397 -0.0031666664779186255 0.0040833338350057596 0.0045559399574995043 -0.00011471867561340388 -0.0027963358163833607 0.0011704548448324193 -0.00046062193810939846 0.0012083340063691135 0.0039761909842491146 0.0010973966680467128 0.00044152658432722037 0.0021120331808924669 -0.010268939137458803 0.0054293482005596172 0.002358902245759964 0.0013964610546827322 0.0087486561387777328 0.00080754641443490927 0.0049736938625574104 -0.002326048202812671 0.0029248721152544013 -0.0036250000819563867 0.0020799558609724046 -0.0045021615922451021 -0.0023814094066619885 -0.0059590332582592975 -0.0054583330079913152 -0.0031249998137354851 0.0034748173505067814 0.00097282677888870244 0.001267857775092124 0.0027992425858974464 -0.0032559522241354002 -0.0024585455656051637 -0.00075595162808895231 0.0033278985321521766 0.008272485285997392 8.6174160242080691e-05
leaf_weight=712 531 570 588 1461 2331 574 827 2622 577 449 808 828 899 803 772 681 713 1338 554 443 801 792 549 230345 635 683 438 744 697 1575 696 808 670 25770 670 682 528 257299 1954 840 9125 32147 932 787 678 1022 26792 1044 549 1520 47885 28197 10944 544 730 919 670 1357 13167 22223 27534 51752 26375
leaf_count=712 531 570 588 1461 2331 574 827 2622 577 449 808 828 899 803 772 681 713 1338 554 443 801 792 549 230345 635 683 438 744 697 1575 696 808 670 25770 670 682 528 257299 1954 840 9125 32147 932 787 678 1022 26792 1044 549 1520 47885 28197 10944 544 730 919 670 1357 13167 22223 27534 51752 26375
internal_value=0 0.0391018 -0.0387203 0.0194785 0.0128846 -0.0436068 0.0455655 -0.020297 0.0306263 0.0396344 -0.0139918 0.0316927 0.0327574 -0.0369958 0.00414065 -0.0121442 -0.0277222 -0.0456506 0.0340561 0.020982 0.0401085 0.0364001 -0.037489 0.047809 0.0189075 0.0198165 -0.0286644 0.00210351 0.0352666 -0.0131493 -0.0379883 -0.041433 -0.0321926 0.0395001 -0.0295477 -0.0335512 -0.0200671 -0.0458059 0.0209031 -0.0138759 0.0237266 0.0462706 0.0371929 0.00334893 0.0219347 0.00227708 -0.0348712 -0.0127998 0.00117327 -0.0135502 -0.0422058 -0.0333431 -0.0222696 -0.0143875 -0.0133796 -0.0203631 -0.00921191 -0.0103957 -0.0228292 -0.0116236 0.0202218 0.0377994 -9.28195e-05
internal_weight=0 423564 429586 104949 65968 339531 318615 90055 38981 87443 48700 38450 37873 80182 31710 46078 41355 259349 37045 34258 86873 54277 79608 231172 31927 31484 40767 30249 36146 45270 78805 49389 29416 26467 40054 28144 11910 258637 30849 44589 9679 32596 53476 29477 30166 28733 27474 43014 27946 42174 48693 28867 11472 41130 39610 14816 24794 24250 14086 23580 28212 52684 26924
internal_count=853150 423564 429586 104949 65968 339531 318615 90055 38981 87443 48700 38450 37873 80182 31710 46078 41355 259349 37045 34258 86873 54277 79608 231172 31927 31484 40767 30249 36146 45270 78805 49389 29416 26467 40054 28144 11910 258637 30849 44589 9679 32596 53476 29477 30166 28733 27474 43014 27946 42174 48693 28867 11472 41130 39610 14816 24794 24250 14086 23580 28212 52684 26924
cat_boundaries=0 1 47 93 140 187 231 279 325 372 417 462 507 553 554 601 647 694 737 781 828 875 922 923 966 1011 1058 1059 1103 1151 1196 1238 1284 1330 1376 1423 1470 1512 1559 1605 1652 1698 1746 1789 1835 1882 1928 1974 2018 2066 2112 2158 2206 2251 2298
cat_threshold=12584991 0 0 0 134217728 8 0 0 256 0 0 0 8192 64 16 0 256 268959744 0 0 0 0 2 0 655360 512 0 0 0 0 0 129 1073741824 8 134217728 0 37122 2147484684 2097152 0 1024 0 0 0 0 0 4194304 0 536870912 65536 4194320 0 0 0 8388608 262176 0 0 0 1 0 263168 0 16777216 0 4096 536870912 4 0 0 64 0 536870912 65536 2 16777216 67108992 32768 0 131072 1048576 0 4718848 0 9216 0 0 0 2147483648 0 268435456 0 524288 1024 134217728 0 67108864 268435456 0 0 2097152 0 512 0 0 0 262144 134217736 0 0 134283264 1207959552 1048576 512 131072 1073741824 0 16896 0 0 64 0 1049088 1073741824 0 8388608 32 0 262144 32 16777216 0 0 516 0 0 32 0 0 67108864 64 2147483648 0 0 0 0 0 128 524288 0 0 0 0 262144 16384 0 0 0 0 268435456 570425344 256 2097152 1207975936 1077952512 0 65536 75497984 0 128 0 268435456 0 0 0 2621440 0 0 16777472 0 0 4096 0 0 0 0 67174400 0 0 0 8388608 2097152 32768 0 0 2149580800 8388608 0 33554432 0 2147483648 0 0 0 402653184 0 0 0 0 512 4194304 65544 8256 0 33554432 0 0 0 2097216 64 16777216 0 0 8388608 50348544 4096 0 0 2097152 0 9437184 0 0 0 0 16777216 0 16 1 0 0 1073741824 0 268435456 67108864 0 16777216 0 256 0 0 32768 0 0 75497984 8192 67108864 3145736 1073745920 0 0 4194304 260 536870912 0 0 0 524288 4194304 0 262144 0 0 0 0 33816576 131072 0 32 0 131074 0 268566656 17047568 8388608 71303184 0 0 0 1024 1073741824 268435456 512 64 2 2 0 0 0 0 0 0 0 0 0 71303168 0 0 0 0 0 0 0 0 268443648 0 0 0 2162688 536870912 1 32 16777216 0 4194304 0 0 2 0 16 3221225472 75497472 0 2147483776 0 2048 0 0 526336 0 1074003984 0 524288 524288 16 557056 0 0 0 32768 0 0 268435456 0 0 0 0 0 0 524288 268435456 0 0 33816576 524289 2147483648 0 0 536870912 0 65536 2097152 1 262144 1024 8192 66048 0 0 0 0 0 2048 0 0 33554432 1073741824 256 0 1 0 0 2155872256 0 16779264 0 0 0 1048576 0 0 1077936128 8 0 0 0 2 0 0 2148532224 32 134496256 0 134217744 0 16777216 2097152 128 0 4 0 4194304 0 134217728 1 8 167772160 1073741824 33554432 3145728 0 0 0 0 0 1024 512 0 0 0 8388608 0 0 1081344 1073741824 16 131076 8 8192 536870944 524288 0 0 0 4 67108864 262144 0 0 524288 0 262144 1041 0 0 16 0 0 128 65544 16781312 0 0 1073745920 0 0 262176 0 0 16777216 0 0 0 0 2147483648 262144 0 16386 16 671088640 1048704 0 2097152 0 0 0 4 16 67112960 0 16384 0 0 2147483648 262144 0 131072 0 32768 0 72 67108864 8390688 4194320 0 0 268435456 0 0 34816 512 335548480 1073776640 0 256 0 0 0 0 0 0 0 0 0 0 8192 0 4 0 0 0 0 8192 8192 256 2147483712 0 2113536 0 0 536870912 0 2147483648 8390719 0 1048576 0 0 2147483648 0 0 32768 0 655360 0 0 0 2147483648 16 0 0 0 0 16384 671088640 0 16 134217856 65600 1048576 0 1073741864 536870912 1049664 0 0 1 524288 0 512 0 0 0 0 0 0 1 0 32768 2048 9248 0 0 0 0 0 67108872 524290 0 402653188 134217728 36872 2048 0 0 0 0 0 16384 4194304 524288 0 0 671088640 0 0 524288 0 262144 2097152 0 0 0 0 1024 34078720 0 256 4 0 67108864 0 2097792 0 131072 0 65536 8192 0 0 0 0 0 0 8388608 320 0 0 0 0 268435456 0 0 0 0 0 37748736 1 1694498816 0 262144 65540 0 5 262144 0 1073741824 0 0 67108864 0 0 2097160 16 0 0 0 0 4096 0 0 16384 256 1296 134217728 33554432 0 8192 0 0 0 0 0 0 268435456 2147483652 2097152 0 0 4096 8 0 2147483680 0 256 512 0 0 4718592 1024 65536 0 0 0 8912896 0 0 32 67111040 0 0 33554432 0 0 0 0 2214596608 0 0 16384 512 0 0 524288 142606336 0 16777216 2050 256 0 0 2064 536870912 2048 1073741824 0 0 0 128 0 16777216 268451840 0 0 8 16777216 16 65536 0 0 1048576 33555456 0 4198400 524288 0 0 0 0 8 268435457 1114112 0 8912896 0 0 0 150994944 0 0 134217728 1 2048 65536 0 0 17039360 0 0 1024 0 0 0 0 0 33792 0 1073741824 1073741824 16384 0 6291456 0 0 262144 8389120 0 2 268435456 0 67108864 32 67108864 0 4194304 67108865 0 2 134217728 1074790400 16384 0 0 524288 0 134217728 0 4098 134217728 256 0 0 0 0 0 0 0 8650752 2560 0 0 0 4194304 33792 0 139264 0 68157440 0 0 268435520 256 256 0 0 0 524288 2281701376 0 2097152 0 0 0 0 18 16 262144 0 8256 0 0 0 16 4 0 0 0 528384 33554433 0 2281701378 0 16777216 65536 0 0 32 134217728 4096 1024 0 33555456 67108864 0 4194304 0 134217728 528 0 0 1024 0 2048 0 0 0 32784 0 0 1024 0 2 8355904 1056768 268435456 0 0 65544 0 0 0 0 0 32 8192 16 131072 0 512 0 0 1025 0 2684354560 0 4194304 128 2147483648 4194368 16777216 8192 32768 0 2048 8208 0 0 514 0 8 0 0 33554432 0 0 536870912 0 0 0 8192 512 128 4 1048576 0 0 0 33554432 0 536870912 0 0 1073741824 134217728 128 4096 0 2097152 0 4194304 0 16777216 4194304 2097280 4194304 32 256 0 0 4194304 1075838980 0 0 0 32 0 0 0 8 256 4194314 1048616 0 0 0 8192 0 0 0 268435456 0 20 0 0 0 0 16777216 0 524288 128 524290 1207959552 0 64 8192 0 0 33554432 0 268468224 32 0 0 0 8192 0 1050632 0 0 1073741824 2 0 1 0 0 0 0 268435456 16646144 8196 0 0 0 0 8192 0 4096 0 0 0 0 33554434 32768 2097152 0 32768 2147745792 256 0 0 1073741888 32832 1073741824 204800 0 268436480 0 2097152 0 0 268435464 0 0 0 0 0 1536 67112960 0 0 0 0 69632 0 0 8 0 32768 0 0 0 0 536870912 135168 0 0 0 0 0 0 0 0 0 0 16 4624 0 512 0 33554432 128 33620992 64 0 0 0 0 0 0 131072 16 0 0 1052672 0 3440640 0 0 0 16416 16 0 0 67371008 0 0 66048 0 4194304 268435458 0 0 2147483649 0 0 0 17039360 2 33570816 0 4096 0 268435456 536870912 0 131072 0 33554432 0 64 0 134217984 524288 2147483648 4194304 4718594 0 0 134217728 0 268435456 0 0 1048576 0 2 524288 0 0 4194304 0 32768 0 0 0 0 0 0 0 0 0 134217728 0 1048576 16 0 4 538968064 16456 134217792 0 8388608 4 1074003968 0 2097152 268435456 4194816 0 0 4096 16384 536871040 2097152 0 0 0 134217792 0 67108865 0 16793600 0 0 0 0 262144 65536 4 0 0 0 0 4096 1073741824 0 32768 8 4194304 8388608 0 1077936128 8388608 541130784 0 0 0 0 0 0 0 65536 0 4096 0 67108874 0 2181038080 0 0 67108864 2048 0 67108864 16896 16 0 1 0 2048 0 0 0 262144 1073741824 512 0 33554432 67108864 0 0 536870912 0 4194304 0 0 268468224 8388608 0 268435456 64 2 0 16777216 0 272 0 0 0 0 524304 268435456 0 0 256 0 0 32 10 32 1048576 0 0 0 0 0 0 2147549184 72 64 0 16384 0 0 64 0 2048 0 131072 18432 2147483648 2147483648 262144 0 0 64 0 2048 1048576 36 0 524292 0 4202496 512 2097152 0 0 0 0 0 0 0 0 0 4259840 0 67112968 2097152 256 1073741824 0 0 0 0 0 0 33554688 0 268435456 0 0 0 8388608 0 0 33554433 1073741824 0 65536 0 1 64 262148 524288 0 0 8 0 67141632 0 33554432 524288 524292 0 134217728 0 0 8388608 4 0 0 256 0 32768 256 32 34078720 2147483680 131072 0 0 0 0 0 8192 0 0 32768 0 0 0 524288 32 1 0 0 67372032 0 0 0 8192 0 8 131328 0 0 0 0 0 0 0 0 2147483648 16778240 0 0 2147549184 16384 524288 4194304 2097152 4196352 268468352 262160 1073741824 66048 0 128 0 17040384 0 805314560 0 0 2147483648 0 0 0 0 8650752 0 0 0 0 67109120 0 0 0 0 0 0 4194304 0 0 268435456 65536 0 0 0 32768 536873344 0 262144 2 32832 0 1140850688 65536 16777232 4 268435456 16777216 0 0 32 4096 0 0 524288 0 8 0 37748736 0 0 2058 524296 2 268435456 0 1073741824 0 0 0 0 0 0 65536 16 64 0 0 0 0 0 0 0 73728 16384 0 0 0 1048576 163840 0 134217728 268468232 32 0 67108864 0 0 0 1610612736 131072 0 0 0 1073741824 0 0 32 8 0 32768 1024 64 0 0 0 67108864 2048 4 536870912 256 8192 0 2 0 1073741952 536870912 67108864 0 256 0 0 0 32 33554432 0 0 32769 0 67108864 0 128 0 1048608 0 1028 0 0 128 0 262144 1078460416 0 0 0 0 268468224 0 34668544 0 4259840 0 67108864 0 0 1073741824 16777216 1048576 536870912 4 0 0 0 16 0 0 16384 1048576 0 0 8388609 0 0 0 0 0 0 0 16896 524296 0 67108864 0 0 0 0 16 0 0 16 0 0 2112 268468224 0 1 32 0 67108868 0 4194304 524288 64 0 1 1073741824 0 268435456 0 0 0 2097152 131076 2048 0 4196352 0 4096 8192 16777216 0 268437504 0 1024 0 0 0 0 0 0 4 0 0 0 0 2176 67108864 264192 0 0 0 136314880 68 4 8388608 0 0 513 0 2 4 0 262144 0 128 0 16777344 268435456 0 8192 16 8389120 0 524288 1073741824 0 0 0 536870916 0 0 0 4325376 128 8192 0 0 0 268435456 0 4202500 1073741824 1073741824 2112 1073741824 0 262144 0 0 4104 16 0 40 2 67108864 4 0 1 0 0 0 0 0 8912896 64 0 147456 16 1048576 536870912 0 0 0 536870912 0 1 0 0 0 0 0 4 16384 0 4096 16 128 8192 16777216 8704 0 2048 83886080 4 536870912 0 2621440 0 0 536870912 0 0 0 128 16 0 0 0 0 2359296 2097152 0 0 0 0 0 4096 2 0 131072 65536 0 0 1 8192 1048576 2048 4100 2147483648 268435456 0 2048 131073 8192 2147483712 1024 0 98304 0 128 0 0 0 0 4100 1024 0 0 0 0 0 69632 0 8192 0 262144 4194432 0 2147483648 268435968 134219776 0 1 0 0 0 32768 0 32768 131072 0 0 0 67108864 0 0 0 4 128 0 0 272 0 0 0 2048 35651584 33554432 0 268468224 0 0 22 4 0 131072 8 524288 268435456 0 262148 0 4096 0 0 0 1073741824 8192 0 1048578 0 2097160 2097152 0 0 0 0 2097152 0 2048 0 131072 4096 0 536870912 0 0 196608 0 4210688 33554432 0 16384 0 65552 0 64 4194304 0 0 2147483648 16781344 32768 0 2 0 0 134217728 16384 0 0 8 8388608 16777216 0 65536 64 32768 32 8 131072 16 0 256 0 0 0 1048577 0 0 1052672 0 0 0 0 256 2048 0 0 524800 0 0 134512644 0 128 8388608 0 0 0 1073741824 131072 2147483648 4194304 1048576 0 0 0 0 98304 0 0 0 8200 0 0 0 16777216 0 0 131088 1 512 0 0 0 688160 0 0 100663296 524288 0 0 0 0 0 2 0 0 64 268451840 1 0 4194432 0 0 393216 0 67108864 0 589828 4 0 0 0 0 0 131072 524288 0 258 0 0 0 0 0 0 17866752 0 41943040 268697600 0 4096 2147483648 0 8320 0 0 2048 1077936128 64 16777248 2097152 8196 0 0 2 2149580808 0 0 0 0 131072 0 0 256 0 131072 0 553648256 0 0 0 0 0 0 4096 0 0 0 0 32768 67125248 0 512 2048 8194 0 0 8192 0 16392 1 8192 0 33554432 0 0 0 512 134217800 64 8192 0 2147483648 2097152 0 0 1 4 65536 33554433 16777216 16384 0 134217728 2147483648 0 0 0 0 128 0 294912 0 2097152 0 0 0 0 0 0 0 16777220 0 8 16 0 16777728 0 16777216 131072 0 268435456 32768 0 262144 0 2097152 41943040 0 8192 0 0 0 4096 0 20480 33554432 0 276 2 512 0 1073741824 0 128 0 0 131072 0 0 0 16777216 33554432 0 0 1536 0 1610612736 128 134217728 0 536870944 0 270336 0 4 2048 0 131072 33554432 0 0 8 16778241 268566528 64 0 0 536870912 0 0 272629760 0 1073741824 33554432 0 0 65536 1064960 2048 0 0 2 0 536870912 524288 0 2097152 0 0 65536 67108864 0 16777216 4 0 536870912 16384 0 270532608 131072 0 2147500032 0 33554944 0 64 8519680 512 0 98304 0 0 0 0 0 0 0 0 1048576 0 256
is_linear=0
shrinkage=0.05


Tree=2
num_leaves=64
num_cat=55
split_feature=9 9 9 4 9 9 9 9 0 0 0 0 0 0 0 0 0 0 0 4 0 0 0 4 0 4 0 0 0 0 9 0 0 0 0 0 0 0 0 0 0 0 0 0 0 0 0 0 0 0 0 0 0 0 0 0 0 0 0 0 0 0 0
split_gain=501981 22734.9 14720 3116.51 2016.68 1807.87 1735.64 1654.05 1269.41 1212.31 1160.64 1141.78 1089.96 1072.25 1058.03 1036.39 1015.66 901.564 848.701 815.775 855.488 799.858 788.254 780.201 929.195 745.125 732.232 731.722 725.098 710.036 705.946 697.186 647.259 626.075 604.784 600.787 577.168 568.197 544.697 522.699 522.255 518.492 500.659 478.271 477.472 474.136 472.809 471.893 466.513 453.131 452.314 448.91 443.903 426.252 425.984 425.681 422.883 404.271 396.793 391.76 389.094 382.465 372.099
threshold=0.31622806191444403 0.4380482435226441 0.22295321524143222 0 0.27195686101913458 0.36882591247558599 0.6012820601463319 0.14839839935302737 1 2 3 4 5 6 7 8 9 10 11 12 13 14 15 16 17 18 19 20 21 22 0.36425061523914343 23 24 25 26 27 28 29 30 31 32 33 34 35 36 37 38 39 40 41 42 43 44 45 46 47 48 49 50 51 52 53 54
decision_type=2 2 2 1 2 2 2 2 9 9 9 9 9 9 9 9 9 9 9 1 9 9 9 1 9 1 9 9 9 9 2 9 9 9 9 9 9 9 9 9 9 9 9 9 9 9 9 9 9 9 9 9 9 9 9 9 9 9 9 9 9 9 9
left_child=2 3 7 8 15 13 9 21 -2 -3 -10 -6 -12 -5 -9 -4 -13 -7 -14 20 -17 -1 -19 26 -25 27 -11 -16 -8 -27 35 -21 -15 -32 -24 -20 -18 -26 -36 -34 -38 -31 -33 -41 -39 -43 -22 -42 -40 -49 -37 -45 -46 -50 -44 -23 -47 -48 -54 -51 -55 -57 -53
right_child=1 6 4 5 11 17 28 14 10 23 12 16 18 32 25 19 36 22 30 31 46 55 34 24 37 29 -28 -29 -30 41 33 42 39 -35 38 50 40 44 48 43 47 45 54 51 52 56 57 49 53 59 -52 62 58 60 -56 61 -58 -59 -60 -61 -62 -63 -64
leaf_value=0.0003081440888345222 -0.0022879158295691037 -0.0043487025965005177 0.0029150302782654765 0.0024180065169930459 0.0025169957540929324 -0.0036050593461841337 -0.00026577319204807158 0.0030057942420244205 -0.0023242894820868971 -0.00021514350548386548 -0.0013719085864722731 -0.0019822973906993891 -0.0017123368829488755 -0.0050029090400785211 0.00049438018538057742 0.00076655943412333731 -0.0030597444474697089 0.0046584564521908759 -0.0013109508007764809 0.0021336306165903791 0.00034086749888956466 -0.0037888478497043244 -0.0037068625241518023 -0.0020340333059430116 -0.00047447181493043836 0.001670204123482108 0.0089778171181678773 -0.0060939819347113379 0.021561150372028354 0.00029663700796663808 -0.00031352822482585974 -0.0037934885155409578 0.0041414668820798388 0.0037773814350366588 0.00536621392518282 -0.00065302745625376581 0.004105118222534657 0.00073096482269465748 -0.0033051017746329294 0.0032017126344144331 0.0026528884097933776 -0.00094723960198462025 0.0016045799721032374 -0.0036759336665272719 0.0013490577861666687 -0.0014833470508456238 2.6698084548110182e-06 0.0014759570546448221 0.0049607808217406266 0.00082946490868925917 0.0016345244199037546 -0.0042887635901570327 0.0027778793014585981 -0.0026629379466176026 -0.0034437500778585679 -0.005380492255091668 -0.0063618868757039319 -0.0036603814344853161 0.0083490570709109316 -0.0014324397183954731 0.0028270559832453746 -0.010210037574172021 0.0001727744564414019
leaf_weight=665 547 555 657 1385 892 551 711 681 618 552 815 2455 903 727 556 567 1530 2388 585 691 580 1068 546 698 803 675 36055 34187 207879 934 634 1897 796 21310 1821 827 597 922 574 907 826 1065 700 572 1097 1238 672 1060 1657 1101 13651 553 1234 671 24594 1751 66398 22656 68109 37684 27415 218654 27051
leaf_count=665 547 555 657 1385 892 551 711 681 618 552 815 2455 903 727 556 567 1530 2388 585 691 580 1068 546 698 803 675 36055 34187 207879 934 634 1897 796 21310 1821 827 597 922 574 907 826 1065 700 572 1097 1238 672 1060 1657 1101 13651 553 1234 671 24594 1751 66398 22656 68109 37684 27415 218654 27051
internal_value=0 0.0384558 -0.0382505 0.0185733 -0.0213702 0.0120283 0.0451644 -0.0433556 0.0296566 0.0400832 0.030713 -0.0137274 0.031802 0.00340252 -0.0382081 -0.0280228 -0.0148322 0.019778 0.0330353 -0.0288034 -0.035485 -0.0458058 0.0207742 0.0404549 0.0374343 -0.0386087 0.0464552 -0.0446422 0.0478446 -0.0356214 0.0342073 -0.0229277 0.00144696 0.039938 0.0187343 0.0258813 -0.0130303 0.0379917 0.0196249 0.00258791 -0.0119046 -0.0361182 -0.0241921 0.00148661 0.0384647 -0.0366237 -0.0369303 -0.0125894 0.0180153 -0.0133672 0.0278782 0.000329951 0.0389354 0.0188804 -0.0223127 -0.045969 -0.0371478 -0.0380452 0.0394381 -0.0142505 0.0174117 -0.0461232 0.00124574
internal_weight=0 426119 427031 107504 99159 67614 318615 327872 39890 110025 39343 46145 38725 31991 105734 53014 45253 35623 37910 52357 24475 222138 35072 109470 72863 105053 36607 34743 208590 70310 37007 27882 30606 21944 32684 15063 42798 72165 32138 29879 41268 69635 27191 29083 71362 68701 23908 40671 30317 39845 14478 28176 70440 29743 25294 221473 67636 23328 69343 38785 28086 220405 27604
internal_count=853150 426119 427031 107504 99159 67614 318615 327872 39890 110025 39343 46145 38725 31991 105734 53014 45253 35623 37910 52357 24475 222138 35072 109470 72863 105053 36607 34743 208590 70310 37007 27882 30606 21944 32684 15063 42798 72165 32138 29879 41268 69635 27191 29083 71362 68701 23908 40671 30317 39845 14478 28176 70440 29743 25294 221473 67636 23328 69343 38785 28086 220405 27604
cat_boundaries=0 1 47 93 140 186 232 276 324 370 417 461 506 507 554 601 647 648 695 696 743 787 834 872 920 967 1014 1058 1103 1149 1196 1238 1285 1330 1373 1420 1466 1513 1561 1608 1655 1699 1747 1795 1842 1887 1934 1979 2024 2070 2116 2164 2211 2258 2305 2351
cat_threshold=12584991 0 0 0 134217728 8 0 0 262400 0 0 0 8192 64 16 0 256 268959744 0 0 0 0 2 0 655360 512 2048 0 0 0 0 129 1073741824 8 0 0 36864 2147484684 2097154 0 1024 0 0 0 0 0 4194304 0 0 268435456 4194320 0 0 0 8388608 262176 0 0 0 0 0 263168 0 16777216 67108864 4096 570425344 4 0 0 0 2097152 536879104 65536 2 16777216 67108992 32768 536870912 0 1048576 0 4194304 0 9216 524288 0 0 2147483648 0 268435456 0 524288 64 2147483648 0 0 0 0 0 128 0 0 0 0 0 262144 16384 0 0 0 64 268435456 570425344 256 2097152 1207975936 1212170240 8192 0 75497984 0 128 0 270532608 0 134217728 0 2621440 0 0 0 0 0 4096 0 0 0 0 67174400 0 0 2 0 16 1073741824 75497472 0 128 0 2048 0 0 526336 0 1074003984 1073741824 524288 524288 16 524288 0 0 0 32768 0 0 268435456 0 0 0 0 0 0 524288 268435456 0 0 33816576 524289 2415919104 0 0 536870912 0 65536 0 0 0 8388608 2097152 32768 0 0 2149580800 8388608 0 33554432 0 2147483648 0 0 0 402653184 0 0 0 0 512 4194304 65544 64 65536 33554432 0 0 0 64 64 16777216 0 0 67108864 16794112 4096 32768 0 2097152 0 9437184 0 32 0 131074 0 268566656 270352 8388608 71303184 0 0 0 1024 0 268435456 512 64 2 2 0 0 0 32 0 0 0 263168 0 71303168 0 0 0 8 131072 0 0 0 268443648 0 0 0 2097152 536870912 1 32 16777216 0 0 2 32 0 0 524288 1 0 134217728 1073778688 2048 0 0 0 0 0 16640 4227072 0 32768 0 134217728 8388608 0 67108864 3145736 1073745920 0 0 0 0 0 0 524288 0 256 4194308 0 0 0 128 2097152 0 33554432 196608 0 32 1 262144 0 0 65536 0 134217728 0 0 0 2048 0 268435456 33554432 1073741824 262144 0 1 0 0 8388608 0 2048 4096 0 67108864 1048576 4096 0 1077936128 8 0 0 0 0 0 2 2148532224 32 67125248 0 16 0 16777216 2359297 2228224 1024 0 0 67108864 268435456 0 0 2097152 0 512 0 0 0 262144 8 0 0 134283264 134217728 1048576 512 131072 1073741824 0 16896 32 0 64 0 1049088 1073741824 0 0 34 0 262144 32 16777216 0 0 516 0 0 32 0 0 67108864 134217728 33554432 16384 8192 0 0 0 0 0 0 268435456 2147483652 2097153 16384 0 4096 0 0 2147483680 0 256 512 0 0 4718592 1024 65536 0 0 0 524288 0 0 32 83888256 0 0 33554432 0 0 0 0 67112960 8192 1041 0 0 16 0 0 128 65536 16781312 0 0 4096 0 4096 262176 0 0 16777216 0 2 0 0 2147483648 0 0 16384 16 134217728 1048708 0 2097152 0 0 0 0 1048592 8388608 0 0 0 0 2147483648 262144 524288 131072 15167 1073152 0 8388608 0 8192 0 0 4096 0 2097154 0 0 0 32768 2097152 67108864 0 2155872256 1024 0 0 0 64 1073741824 131072 4194304 268436480 1024 0 0 0 8 0 0 0 0 0 1024 0 32 0 0 67108864 71438336 0 0 16 0 0 262148 0 0 512 134217728 1 10 167772160 1073741824 0 0 0 0 17039360 0 0 1024 0 0 0 0 8388608 0 0 1048576 1073741824 16 131076 8 0 2147483680 524288 524290 0 1 0 67108864 268435456 0 0 524288 1073741824 262144 0 131072 0 0 0 8 67371008 8390688 4194320 0 128 0 0 0 34816 512 335548480 1073774592 0 0 0 0 0 0 0 0 0 0 0 0 8192 0 4 4 0 0 0 8192 73728 256 2147483712 0 16384 536870912 0 536870912 0 2147483648 8388671 0 1048576 65536 0 2147483648 0 0 0 0 131072 0 0 1 2147483648 16 0 0 0 0 0 671089665 134217728 0 64 64 0 0 40 268435456 1048640 0 0 1 0 0 524800 0 4 0 0 0 134217728 1 0 32768 2048 8224 6207 1048576 536870912 0 8388608 0 0 65536 2147549184 2120 64 0 16384 32768 0 64 0 268437504 0 131584 16384 1 1073741824 268697600 0 0 0 0 2097152 0 0 0 20 0 4202496 512 0 0 0 0 0 0 0 0 0 0 4259840 384 0 8 0 512 0 4 0 4 0 2147483648 0 0 8388608 163840 0 8192 0 2147483648 0 0 536870912 0 64 64 2147549184 2097152 16 263296 4 0 134217728 8 1 0 0 196608 0 0 0 0 0 0 524288 6144 8192 0 0 0 0 4 65536 131072 8388672 0 0 0 0 268435456 0 0 0 0 0 4194304 8 1090519040 0 262144 4 0 4 134479872 0 1073742848 0 0 67108864 0 0 2097160 16 1024 0 1024 0 4096 0 0 0 256 1296 0 0 0 0 65536 520 33554432 2147483648 268959744 0 0 131072 1048592 0 0 67108864 0 33554432 0 528384 0 2097408 2048 0 8192 16777216 32768 0 0 32 256 524292 65568 4194304 4 0 0 268435457 2147483648 0 1024 0 512 0 0 1048640 0 8192 0 2048 0 0 0 16777472 2048 524288 0 0 0 0 128 0 0 512 1073741824 1073741824 0 160 256 8421376 2097152 0 8388612 67108864 0 268435456 64 262144 0 0 2621440 262144 0 0 8388608 16 0 1074790400 0 0 0 0 0 134217728 0 4098 134217728 256 0 0 0 0 67108864 0 0 262144 3584 0 16384 0 4194304 33792 0 0 0 1048576 0 0 268435520 256 256 32768 0 0 540672 2281701376 0 4194304 0 0 0 0 18 1048584 0 1048576 0 8192 0 0 0 268435456 16384 4194320 0 0 8192 0 16777216 0 34078720 0 540672 1073741824 0 64 270336 0 0 33554432 0 268435456 32 0 0 0 0 4 2048 4096 33554432 1073741824 2 0 1 0 0 0 4 268435456 0 0 0 512 0 0 524288 142606336 0 16777216 2050 256 0 0 2064 536870912 6152 1073741824 0 0 0 128 0 16777216 268451840 0 0 8 16777216 16 65536 0 0 0 33554432 0 4198416 0 0 0 0 0 0 268435456 16928 0 0 1 0 2048 0 0 0 262144 1073741828 512 0 0 67108864 0 0 536870912 0 1077944320 134217728 16 268435456 8388608 0 268435456 4227072 2 0 16777216 0 16 0 0 0 0 34078736 268435456 0 0 256 0 0 0 10 0 201326593 512 16793600 0 0 0 0 262144 0 4 0 131072 0 0 4096 67108864 0 32768 8 4194304 8388736 0 1073741824 8388608 541065216 0 0 0 2097152 0 0 268435456 65536 0 4100 0 8 0 2181038088 524288 0 0 2048 0 67108864 0 67112968 2097152 256 0 0 0 32768 1 0 0 33554688 0 268443648 0 0 0 0 0 1073741824 0 0 16 134217728 65536 1048576 64 262144 536870912 1024 0 0 172032 0 0 33554688 2621440 524288 0 0 0 0 0 0 0 0 1024 4194304 2129920 4196352 268468352 16 1073741824 205312 0 0 268435456 17040384 0 805306368 0 0 2147483648 0 0 0 0 8388608 4194304 0 0 0 67109120 0 0 0 0 0 1024 4194304 0 0 268435456 131072 0 0 0 0 3328 0 0 2 32800 34078720 32 131072 16777216 4 0 16777216 0 8192 0 0 34816 0 524288 0 524288 0 1 0 0 67110912 8 0 0 8192 1073741824 0 0 0 0 0 0 0 0 0 0 2147483648 1024 0 0 2147483648 16384 598016 0 262144 0 8256 0 0 0 16 4 0 0 0 528384 1 0 2281701378 0 16777216 65536 0 32768 32 134217728 4096 1024 0 33555456 67108864 0 4194304 0 134217728 528 0 0 1024 0 2048 0 0 0 16 0 0 1024 1048576 0 0 1 0 536870912 536870916 1077936128 134217736 0 0 33554432 1 0 0 0 0 0 1024 0 2147483648 0 536870912 512 2048 256 0 256 32768 0 6291456 256 2147483648 1073741824 514 0 8 1048576 67108864 0 0 0 524288 0 33554432 4194304 150994944 8192 0 0 0 0 0 2147483712 0 0 0 0 1073741824 536871440 0 671088640 1048576 512 131072 0 0 0 4194336 262144 0 131072 0 278528 0 268435456 2097152 0 0 32 0 0 0 32768 1 128 2048 2048 4 16777216 0 262144 0 8388672 0 1140850688 65536 0 0 0 0 1073742336 524296 32 67112960 0 0 0 0 8 0 37748736 16 0 10 2048 0 268435456 0 0 0 67108864 0 0 0 64 0 1 1073741824 0 268435456 0 0 524288 2097152 4325376 0 2147483648 0 0 1073741824 536870912 524288 0 0 0 0 16777216 0 0 8192 0 0 2147483648 0 268451840 0 536870948 0 65664 0 4 2048 4 524288 33554432 0 8 0 1169 268435456 0 0 0 536870912 134217728 0 272629760 0 4 0 4 256 16384 0 0 0 5242880 4096 134217744 0 0 32768 0 8193 2097152 1048576 0 16777216 0 16777216 0 0 8 0 0 0 0 0 33554432 268697728 0 0 2056 0 536870914 1024 16384 536870912 0 0 134217730 262144 0 2097664 0 0 67108864 0 0 4 134217732 0 0 4096 0 32768 0 0 0 32768 268435456 256 0 67108864 16 0 0 0 0 0 0 0 0 8192 537395200 8192 65536 1140850688 131072 65536 0 268443652 262144 0 0 0 0 0 256 2 0 1207959680 0 0 0 0 256 2048 0 0 32 33554432 2147483656 0 32769 0 67108864 0 128 0 1048608 0 1028 0 0 0 0 262144 1078460416 0 0 0 0 268435456 0 34603008 0 65540 0 67108864 0 0 0 16777216 1048576 536870912 4 0 128 0 16 0 0 16384 0 0 0 0 0 32768 0 0 0 0 0 0 0 0 0 134217728 0 0 16 4 4 536870912 16456 134217728 0 8388608 0 262144 0 2097152 276824064 512 8388608 1048576 12288 16384 128 2621440 0 0 0 134217792 2147483648 1 0 0 4196352 0 4096 8192 16777216 0 2048 0 1040 0 0 0 0 0 0 4 0 0 0 0 2176 2 262144 512 0 0 136314880 68 0 8388608 0 0 513 0 2 4 0 0 1073758208 0 0 128 268435456 0 8194 16 0 4098 67108864 0 0 0 512 8 0 0 0 1073741824 128 0 0 0 256 0 128 0 8 1025 0 262144 2097152 1024 512 262144 0 0 536903680 256 0 1024 4 0 12288 33554432 0 0 128 131072 0 0 0 0 16777232 1 0 72 65536 16384 2048 0 0 2 0 536870912 524288 0 2097152 0 0 2147549184 0 32768 16777216 0 0 536870928 0 0 2097152 131104 0 2147631104 0 33554944 512 64 131072 512 8 65536 0 0 0 0 0 0 64 0 1048576 0 256 524800 1 0 0 0 0 0 268435456 1084227584 536870912 0 0 16 0 0 768 0 545259520 128 0 2 67108864 0 0 512 1 4194305 0 33685504 0 0 32768 8388620 16777216 33554432 64 0 536870912 0 0 0 0 0 16384 33554432 0 131072 0 524353 50331648 0 16392 0 0 33554432 64 1024 8192 67108864 0 0 0 524544 0 48 32 0 4096 0 33554432 524288 2 0 0 1 0 2 0 268435456 0 0 64 0 0 33554432 0 0 2 0 0 4194304 4224 65600 0 128 1073741824 32768 0 16777216 128 0 131072 4097 1073741824 0 32 0 0 0 0 0 0 1024 4096 536870928 0 65536 0 0 0 16448 0 2097152 0 0 0 0 1610613760 8448 0 0 134217728 0 67112960 0 0 4194304 0 0 67108864 0 32 65536 536870912 0 0 32768 4096 2181038081 0 0 0 8 0 33570816 0 0 0 268435712 536870976 0 131072 0 0 1 65600 0 134217984 524288 0 0 0 0 2 134217728 0 0 2147483648 65536 1048576 0 2 2 268451840 2148007936 0 32768 0 32 536870912 8388608 536870912 0 0 0 0 0 512 0 8388608 0 256 0 268435456 0 128 0 268697600 0 0 4194304 0 0 16 0 0 33554432 67108865 1 2048 0 0 128 69632 0 8405248 0 16 128 0 0 1073741824 17825792 0 0 0 0 0 16388 16384 0 8 8192 1024 0 0 8 0 2147483648 1073741888 0 0 66056 0 8421376 536870913 2097152 0 0 0 0 0 516 0 0 8192 524288 32768 0 2 0 0 0 2048 0 0 16384 0 0 4 0 131072 0 524288 1048576 0 33554432 0 67108896 0 0 2097152 0 134217728 33554440 0 262144 537272320 0 0 128 536870912 0 0 0 512 0 67108864 4194304 538968096 0 0 0 0 0 0 8519680 0 1073741824 268435456 0 9 0 0 0 16 2147483648 0 2 0 1073742088 134217728 0 0 0 16777216 0 5242880 0 0 268435456 0 1082130432 2147483648 0 128 65536 0 0 4194304 64 67108864 0 0 0 134217728 0 0 131072 2147483648 134217728 67108864 0 0 2147745792 0 134217728 64 65536 0 134217984 0 4194304 0 0 0 0 262144 0 0 2097152 0 0 0 0 0 0 0 0 512 8 16 64 16777728 0 16777220 1073872896 0 0 1048576 4194304 262144 0 1024 8388608 536870912 8192 0 0 0 4096 0 20480 33554432 0 276 0 0 0 8388608 0 128 4 67108864 128 0 512 0 0 0 8388608 512 0 524288 0 4354 0 0 0 0 0 0 128 8 32768 4196896 131072 1073741824 2097152 8 0 536870912 0 524288 0 0 128 16 1073741824 0 0 262144 1048576 0 268435456 0 0 0 0 524288 0 0 2621440 0 0 0 0 4194304 0 4096 0 0 1 0 8388608 0 0 268435456 536870916 0 0 285212672 0 1024 0 0 1050752 128 8 262144 134217728 0 128 0 64 1 67108864 16908288 552
is_linear=0
shrinkage=0.05


Tree=3
num_leaves=64
num_cat=55
split_feature=9 9 9 9 4 9 0 0 0 4 9 0 0 0 9 4 0 0 0 0 0 0 0 0 0 0 0 0 0 0 4 0 0 0 0 0 0 0 0 0 0 0 0 0 0 0 9 0 0 0 0 0 0 0 0 0 0 0 0 0 0 0 0
split_gain=488386 23881.4 13326.5 3194.64 2665.12 2280.41 1541.39 1414.17 1341.24 1225.58 1161.15 1087.66 1062.09 1059.42 956.219 949.333 913.245 1069.35 1100.34 934.109 892.349 874.122 869.586 854.624 814.639 800.892 765.031 733.358 677.375 672.515 667.839 697.404 641.254 640.735 638.282 624.282 596.373 593.356 589.997 584.719 563.617 538.31 534.559 534.273 558.753 534.193 533.573 593.244 519.336 490.143 480.925 466.046 435.803 431.198 429.019 427.554 423.627 417.35 437.887 407.451 406.245 396.904 395.406
threshold=0.31296642124652868 0.41223156452178961 0.20864427834749225 0.50362318754196178 0 0.26500600576400762 1 2 3 4 0.13921189308166507 5 6 7 0.35339367389678961 8 9 10 11 12 13 14 15 16 17 18 19 20 21 22 23 24 25 26 27 28 29 30 31 32 33 34 35 36 37 38 0.66915422677993786 39 40 41 42 43 44 45 46 47 48 49 50 51 52 53 54
decision_type=2 2 2 2 1 2 9 9 9 1 2 9 9 9 2 1 9 9 9 9 9 9 9 9 9 9 9 9 9 9 1 9 9 9 9 9 9 9 9 9 9 9 9 9 9 9 2 9 9 9 9 9 9 9 9 9 9 9 9 9 9 9 9
left_child=2 4 8 9 7 15 -6 -2 -1 22 36 -5 -11 -7 25 21 -9 -18 -19 -20 -15 -4 -3 -21 -17 -8 -16 -13 -26 -28 32 -32 -12 -14 -25 -22 -10 -35 -23 -30 -31 -33 -27 -37 -45 -39 47 -29 -42 -24 -40 -36 -47 -49 -46 -56 -48 -44 -59 -50 -41 -38 -52
right_child=1 3 5 11 6 13 14 16 10 12 30 27 33 20 26 24 17 18 19 23 35 38 49 34 28 42 29 46 39 40 31 41 -34 37 51 43 61 45 50 60 48 -43 57 44 54 52 56 53 59 -51 62 -53 -54 -55 55 -57 -58 58 -60 -61 -62 -63 -64
leaf_value=0.001944597319141031 -0.0034100802337750816 -0.0022968974663875987 0.0040513546471484 -0.0018430532581172861 0.0037310554008930909 -0.0018889352102763963 0.0032817835006862862 -0.0029764354476705199 -0.0015256702907383429 -0.0041651703607290978 0.00039823245992884061 0.00060146777760237415 -0.0019479794192593563 0.0040956912854686394 0.0039840637069195493 0.0022747227898798879 -0.0022294237181544304 -0.0015875458965078 -0.00055220124199986404 -0.00032052597720175772 -0.0025035318031907065 0.0022233333052136014 -0.00040172861926257575 8.6473733186737126e-06 0.00066807607072405517 -0.0049653480240143856 -0.0044551441856659968 0.00034420330226421215 0.00023220848641358207 0.0040255857963114984 0.0016522782229818401 0.00012153117069974295 -0.0061845398639328785 0.0064610160697251562 0.0011247190147638338 0.00386453590504825 -0.0042530001895036531 -0.0019173578213900339 0.0018381187398917977 -0.00099074934190139237 -0.0035910949986428021 -0.0062934582746587697 0.0028986896257847533 0.0024771303478628398 0.0014254289185628294 -0.00070536190792918067 0.0090926929205656041 0.0028623327739536772 -0.0022986417990177896 0.0059392556674778474 -0.0039632224720902746 0.002737448932975531 0.0054316036213189374 0.010899759718775749 0.00082850927221588683 -0.001565259708277883 0.022149757930636407 0.0032817835006862862 -0.00068434830568731009 0.0018949045199900872 -0.003911237860191613 -0.0096995356954634182 -0.0035117583400569863
leaf_weight=849 643 413 566 658 2468 2561 1067 429 835 582 541 938 550 654 1818 444 638 875 982 1261 1801 556 557 1381 696 662 520 845 904 1477 637 928 32131 3669 1610 552 1323 691 593 847 576 65659 725 964 916 744 1250 1155 655 28542 1695 26137 34878 93221 1108 41295 169463 978 20713 24947 36694 207963 20720
leaf_count=849 643 413 566 658 2468 2561 1067 429 835 582 541 938 550 654 1818 444 638 875 982 1261 1801 556 557 1381 696 662 520 845 904 1477 637 928 32131 3669 1610 552 1323 691 593 847 576 65659 725 964 916 744 1250 1155 655 28542 1695 26137 34878 93221 1108 41295 169463 978 20713 24947 36694 207963 20720
internal_value=0 0.0376562 -0.0380051 0.0437632 0.0148528 -0.0233468 0.00820439 0.0259259 -0.0433602 0.0343046 -0.0435312 0.0462602 0.0286937 -0.0153367 0.00643791 -0.0296139 0.027349 0.0283 0.0295728 0.0311191 -0.01363 -0.0217606 0.0420974 0.0326738 -0.0343869 -0.000967074 0.0124012 0.0464175 -0.0351549 0.0103583 -0.0390947 -0.0362108 -0.0450034 0.0296606 0.0344224 -0.0144471 -0.0456425 0.0304011 -0.0232417 -0.0360434 0.0114242 -0.0367111 -0.00293226 -0.0132802 -0.0138927 0.0284434 0.0465741 0.043577 0.00971819 0.0431258 -0.0244765 0.0360792 0.0292911 0.0439483 -0.0147326 -0.0154658 0.0482485 -0.0016142 -0.00286853 0.0107801 -0.0370043 -0.0458098 -0.0256566
internal_weight=0 428718 424432 338156 90562 113566 56606 33956 310866 70626 310017 267530 41114 49851 54138 63715 33313 32884 32246 31371 47290 24130 29512 30389 39585 24145 29993 266872 39141 28175 99896 67224 32672 40532 29128 46636 210121 39982 23564 38445 27655 66587 23078 44835 44283 36313 265934 95221 26178 29099 23008 27747 35622 94376 43319 42403 170713 22416 21691 25602 37541 209286 22415
internal_count=853150 428718 424432 338156 90562 113566 56606 33956 310866 70626 310017 267530 41114 49851 54138 63715 33313 32884 32246 31371 47290 24130 29512 30389 39585 24145 29993 266872 39141 28175 99896 67224 32672 40532 29128 46636 210121 39982 23564 38445 27655 66587 23078 44835 44283 36313 265934 95221 26178 29099 23008 27747 35622 94376 43319 42403 170713 22416 21691 25602 37541 209286 22415
cat_boundaries=0 1 47 93 141 142 189 236 283 284 331 375 422 470 516 563 609 656 702 749 795 842 886 933 934 980 1024 1070 1115 1161 1208 1255 1302 1349 1393 1438 1485 1531 1578 1622 1669 1713 1757 1805 1851 1896 1944 1992 2039 2087 2135 2181 2228 2272 2319 2364
cat_threshold=14680095 0 32768 0 268435648 67371024 8388640 71368720 0 128 0 0 0 268468224 512 4160 32768 0 524288 0 0 0 0 0 0 67108864 0 0 0 8192 0 0 132096 0 0 0 268443648 65536 0 64 0 0 0 0 553648128 0 4194304 268435488 2 0 0 0 0 0 134217736 0 0 0 131072 16 16 0 0 268959744 0 4 0 536870912 2 0 1074397184 4203008 8388608 0 0 0 0 129 0 0 1073741824 0 4096 4104 2097154 0 0 0 4096 262144 0 0 4194304 0 16384 0 32 4194304 0 134217728 1 0 134217728 1073741824 2048 3145728 2048 0 0 0 0 4195328 0 32768 0 0 8388608 0 0 3178504 1073745920 0 0 8 8192 0 0 0 0 16777216 4 0 268697600 2097152 0 524288 0 262144 131072 0 32 12585023 8192 0 0 0 0 0 0 8388610 8388608 0 0 0 1 2415919104 0 0 16779264 0 0 33570816 0 2147483648 8 0 1073741824 536879104 536870912 0 17301504 1048704 536870912 0 67108864 1 0 2097184 16 0 0 0 0 2147483648 0 0 32768 0 256 0 0 0 0 128 0 1026 16 262144 2621440 2 0 0 0 1040 0 16777216 0 128 0 536870916 16 16 134217728 524288 131072 65536 8 0 128 32768 0 0 0 2048 512 0 0 0 0 0 134217728 8388608 0 0 32768 32 1024 0 268435456 67108864 0 0 0 2097152 0 512 0 0 0 0 8 0 0 134283264 134217728 1048576 512 131072 1342177280 0 16896 32 0 64 0 512 1107296256 0 0 32 0 262144 2147483680 16777216 0 0 516 0 0 32 0 524288 67108864 8258752 0 2147483648 0 134217728 2097160 0 0 262528 0 0 4 0 0 0 0 0 0 268435456 2176 268435456 0 0 0 134217728 134217728 268435520 0 0 0 160 131072 0 0 16400 0 0 2147483648 512 0 33792 0 2097152 0 0 0 0 67108864 1024 0 0 0 1048576 0 0 1024 2097153 0 0 4096 0 262144 16384 0 0 0 0 0 0 256 2097152 16793600 0 2048 0 8388612 0 2097152 0 1342177280 8388672 134217729 8192 3670016 4 0 256 2147483648 0 0 0 1048576 0 134217728 67108864 16 0 0 0 65536 2147483648 0 1073741824 1107304448 0 2147483648 262144 0 0 536870912 0 2 0 0 512 268697600 81928 8192 0 1536 2048 0 0 2097152 8 4 0 256 8192 268435456 0 0 0 2147483648 0 8388608 0 0 65536 16 16777280 0 0 0 0 0 0 268439552 0 0 0 64 4096 0 0 0 150994944 0 0 1073741824 1073741824 2415919104 4194304 131072 16384 16 167772160 0 0 0 16 0 0 0 16 109576192 16777216 4096 2 0 0 0 524288 131074 0 0 1 0 0 2 0 16 1073741824 67108864 0 2147483776 0 2048 0 0 524288 0 262160 1024 524288 0 0 524288 0 16777216 4096 32768 0 1048576 268435456 0 0 0 134217728 0 0 524288 268435456 0 0 33554432 540673 0 0 0 536870912 0 65536 1 0 0 0 33280 2684354560 0 64 402653184 536870912 2048 2048 0 0 0 16777472 0 0 0 0 1024 0 6160 0 0 67108864 0 1073744000 0 0 0 32768 0 0 4 0 0 268435456 134221856 0 4096 0 2097152 0 2097152 0 8388608 0 0 0 8388608 0 0 0 0 2112 8388608 0 0 32768 268435456 32 16777472 0 16777216 0 0 2147483648 2147483648 0 327680 0 0 536936448 2048 0 0 0 268435472 256 8208 0 2131968 8388608 0 0 0 0 2 0 131072 0 4194304 1049161 0 0 0 0 0 0 0 17301504 8781824 0 512 128 0 0 0 0 33554432 0 0 33554440 16 0 0 0 0 0 536887296 4 33570816 32768 0 0 0 2 2048 0 33570816 64 0 0 131072 1 0 0 32 16777216 1056768 0 0 0 65536 8192 0 0 16 0 0 0 268435584 67108864 1073741824 67108864 32768 0 0 0 0 0 0 1082130432 0 0 0 0 0 0 2099200 4 0 0 2 536870912 0 1048576 0 0 0 536870928 536870912 135168 33554432 131072 0 0 2097154 32800 34087424 0 131072 0 0 0 1024 4096 8256 32 0 2048 2 8388608 524416 16 0 0 16 0 1024 0 67108864 0 0 1073741856 0 0 0 0 0 0 0 0 16777216 0 2952790016 0 0 0 0 16384 589824 0 2097152 71303168 131081 50331648 0 0 0 0 0 553648128 512 8192 0 0 1073741826 0 0 0 0 2147483648 4194304 0 0 0 320 0 0 0 0 4 6 4194304 268435456 0 0 8256 256 0 35651584 32768 67108864 0 262144 0 2147483648 0 0 0 0 0 0 0 131072 2097472 0 0 0 0 8200 2048 0 0 2149580800 0 4194304 9 1140850688 0 262144 65540 0 4 2 0 1073743104 0 0 8 0 0 8 0 1024 0 1024 0 4096 134217728 0 0 0 1024 16384 0 0 8192 0 0 0 536875008 4 136314882 8 0 0 16384 2097152 271360 0 0 0 0 2147483648 0 0 544 8192 4194304 1024 1073741824 64 0 0 0 0 262144 512 67125249 256 0 0 268697600 0 128 0 4194304 134742016 33554432 16384 0 0 524288 0 0 0 1 0 2147483648 2097152 0 16 4096 67108864 32768 65568 0 1024 0 16384 0 4194304 1024 0 0 0 0 0 0 262144 144 134217728 0 0 33554432 0 0 0 8388608 67112960 8192 0 0 2 6207 0 0 0 0 65568 520 34078720 2147483648 524288 0 4096 33685505 0 0 0 67108864 0 33570816 0 4096 0 2097152 0 0 0 16777216 0 4194560 0 32 256 524288 65792 0 4 0 0 4194304 0 0 0 0 0 0 0 65536 0 536870920 2 512 0 4 0 512 0 0 0 0 8388608 163840 0 0 0 2147483648 32768 0 1073741824 1073741824 0 64 196608 0 32 262144 4 0 134742016 8 1 64 0 81920 16 0 0 0 0 536870912 0 6144 134217728 1048576 128 131088 0 0 0 8388608 0 131072 0 0 0 16777216 0 0 131072 16384 4096 536870912 0 536870912 64 0 16777280 0 0 2 0 0 0 0 12288 1572864 33554432 131072 0 2098176 0 134217728 0 4 0 0 0 2048 65536 67108864 1048576 0 0 131072 0 512 0 16384 4194304 0 4194304 0 96 0 256 524288 0 33554432 134217728 1024 256 0 2097152 2 32768 262144 268435456 285212672 0 4 0 8192 4 8 0 0 1073741824 0 0 16 0 0 8 0 201326721 0 16384 268435456 0 0 0 33816576 1073741824 0 0 0 537133056 0 0 1073741824 0 32768 8 4194432 8388608 0 1073741824 8388608 0 262144 0 0 1048576 0 0 0 65538 0 4096 262144 8 0 2181038080 0 0 0 0 0 603979784 0 0 262148 0 0 66048 0 0 266 32768 0 33554432 0 33554432 0 262144 0 0 0 0 0 268435456 64 0 131072 0 0 0 65616 131076 256 1074266112 2147483680 0 524290 0 3 0 67108864 0 0 16 0 1073741824 0 0 131072 0 0 1024 301989888 0 134217728 4194312 0 0 4 536870912 0 10240 1 16781312 268437505 1073741826 256 0 32 0 0 0 0 0 0 0 0 0 0 4 0 0 0 2147483648 8192 65536 256 2147483648 131072 69206016 536870912 0 0 0 0 2097152 2147483648 0 8 0 4194304 0 0 1048576 0 0 4128 33685505 0 1 0 262144 2048 540676 0 0 0 0 2147483648 4194304 65536 16777216 0 0 65536 4194304 0 8388608 4096 0 33554432 0 2 0 64 67108864 0 0 0 0 0 2097152 2 0 0 524288 1073741824 16785408 0 0 0 0 0 16384 0 0 32768 0 16777216 0 0 0 0 0 0 0 64 2147483648 8192 1342242816 536880128 2228224 1073741824 0 8216 262144 0 4 0 0 8192 256 6 0 0 2097152 2 2 0 2147483648 0 0 2304 0 0 1073741824 0 0 0 0 2147746816 1073741824 134221824 67108864 0 4 0 260 1024 0 802848 1 0 0 10248 0 32768 0 0 0 8 67108864 0 8 1 64 0 0 0 0 0 512 0 8388608 0 67108864 0 0 0 0 536870912 1077936128 8 0 32768 2147491840 1073741825 0 0 8192 0 0 512 0 8 0 536870912 0 10240 256 0 0 36864 0 6291456 0 2147483680 0 514 536870912 256 269488128 67108864 0 0 0 0 0 2 0 1342177280 0 0 2048 0 0 0 0 2147487744 134348800 0 0 0 4194304 0 0 0 0 0 2564 0 0 0 16 2 0 139264 524288 1048576 0 64 8192 0 256 33024 262144 0 0 134217728 128 4194304 0 0 0 268435456 272 0 262144 0 64 512 0 8388608 16 0 0 0 0 528384 2049 0 2281701378 0 16777216 0 0 8421376 34078720 134217728 0 1024 0 0 0 0 4194304 4 0 528 0 0 1024 0 2048 262144 0 0 16 0 0 0 2097152 0 0 0 32 33554432 2147491840 16777216 32769 0 67108864 1024 128 0 1048576 0 1028 0 0 0 0 262144 1077936128 0 0 0 0 268469248 0 34668544 0 65536 0 0 0 0 0 16777216 1048576 536870912 67108864 0 1140850688 0 16 0 0 16384 524288 16 1207959560 0 0 0 0 0 1073741824 537133056 0 4 1 8192 0 0 256 0 0 50331648 0 134217732 0 1310784 2097152 1048576 0 262144 536870912 0 0 4194304 16 48 131072 0 0 524288 0 256 0 0 0 16384 16384 0 67108864 0 512 40960 0 0 0 0 0 8192 33554448 0 0 0 0 201326592 256 536870912 65536 32 262144 128 512 0 524288 536871424 805306368 0 0 0 1 0 268435456 4195328 0 16384 0 16384 0 0 1048576 0 128 524288 16 0 64 0 8192 0 0 524288 0 0 524288 0 0 0 0 0 134217728 0 3221225472 0 4 256 536871040 1024 536870912 268451840 0 0 0 0 524288 532992 32768 268435456 32 67113088 12 524288 150994944 0 0 0 0 0 268435456 537 0 0 0 0 0 65536 3221225472 268435456 64 0 0 0 4096 262144 1048576 2048 8388608 0 0 0 0 0 8192 524288 0 0 4198400 0 2048 0 524292 0 0 512 1048576 8 0 0 0 256 135168 0 8388608 64 0 0 16 0 0 18 0 0 32768 24 0 0 16777216 0 0 0 256 0 0 8 32 131072 0 512 0 0 0 4211712 2176 0 0 2097152 4194304 0 0 132096 0 0 0 0 2097152 262144 0 9 65536 4 16 0 4112 0 4198400 0 2048 512 0 1082130432 0 0 0 0 8192 0 0 0 0 1073741824 16384 0 0 0 0 2147483648 1025 0 0 98304 0 68161536 8388608 0 0 4096 0 0 524288 16384 0 16640 134217729 0 536870944 524288 67584 0 2147483648 0 0 0 0 0 134217728 0 0 0 54525952 0 524288 262144 0 2048 1048576 0 2 0 0 0 139264 0 0 4736 128 0 2097152 0 32768 8388608 32768 2097152 570425344 0 8192 32 0 0 2147483648 8193 2 33554432 512 0 0 0 1048576 256 0 1 0 8 0 33554688 0 0 0 0 268435456 58722304 65536 1073741824 0 16777216 0 16777216 0 2048 4194305 8650752 0 16777216 0 4 0 67108864 0 33554432 0 8192 0 0 16 0 536870912 256 16384 0 131072 2 65536 0 4196352 0 12288 8 134217728 0 2048 0 0 0 0 0 0 0 0 0 589824 0 0 0 0 34 262144 0 0 67108864 136314880 68 0 8388608 0 0 513 0 2 4 0 262144 1073741824 0 0 0 1025 0 2 16 0 0 0 0 2147483648 0 0 0 1073742088 0 0 0 0 16777248 0 5242880 0 8388608 269616128 0 1073741824 2147483648 128 67108864 65536 512 0 4194304 64 67108864 0 0 0 134217728 0 0 0 0 0 4 2147483648 0 262144 128 134217728 0 65536 1048576 0 0 0 0 8192 16 524288 0 0 0 0 0 0 0 262144 32768 16777216 3328 268435456 536870912 0 2097168 1024 0 0 0 536870948 0 0 0 0 0 100663424 262144 16384 0 0 0 2147483648 0 0 294912 0 335544320 268435712 1048576 8 1048704 131074 131072 0 2097152 0 0 0 4 0 0 0 4096 0 67108864 260 0 0 0 0 0 4194304 0 0 294912 0 0 268435456 1 0 8 256 1 4194304 524288 67108864 0 0 0 0 0 0 262176 524288 2147483648 0 0 16 0 0 0 0 16777224 2147483648 0 131072 268435456 0 0 16384 16 32768 0 16 0 0 1 0 32768 33554433 128 0 8192 262208 308281344 0 0 0 0 16 0 32 2097152 0 0 4096 67109120 65540 0 0 0 8388608 65536 32768 0 0 0 0 0 32768 0 8388640 0 2129920 268437504 256 0 0 2048 8192 0 0 0 262144 512 0 8 0 524288 0 0 262146 16777216 0 65536 512 0 0 0 2097152 16 0 0 134217728 0 0 2155880448 16384 0 0 262416 2180 0 0 0 0 32768 524288 0 268435458 2151677952 4 0 0 0 0 512 0 16384 0 33554432 0 512 2048 0 131072 512 8192 0 0 0 134217728 268435456 524288 3072 0 0 0 16777216 0 32768 0 0 67108864 83886080 0 0 67108864 0 0 128 536870912 67108864 0 0 4096 2147483648 0 0 0 8 0 2181054464 0 4096 0 256 536870912 0 65536 0 128 9 0 4194816 134217728 0 2097152 0 0 0 0 134217728 0 0 2147483776 65664 1048576 2097152 2 262144 1048576 131072 0 4194304 150994944 0 0 0 2097152 0 0 2147483648 0 128 0 64 0 537395712 0 151003136 8388608 128 131072 2 0 0 4194304 16 0 131073 0 0 64 134217728 0 0 33554432 0 0 0 0 134217728 1 128 0 657408
is_linear=0
shrinkage=0.05


Tree=4
num_leaves=64
num_cat=18
split_feature=9 9 9 9 4 9 9 9 4 4 4 4 4 9 5 9 3 1 4 15 4 1 9 1 1 3 1 7 4 4 3 14 2 5 2 1 3 4 1 2 3 4 13 4 13 2 1 15 3 1 4 2 2 1 4 2 2 9 13 3 3 3 4
split_gain=471276 26216.3 12935.2 4227.65 2248.14 1916.5 1817.77 1395.69 1175.19 1000.72 811.31 797.399 555.344 401.877 393.929 387.445 378.467 322.58 312.732 303.129 263.175 259.662 223.57 204.556 214.756 238.523 200.463 200.058 199.447 199.307 182.957 163.84 162.489 161.826 153.867 153.634 150.734 146.397 148.218 216.329 142.746 138.776 137.897 131.446 131.146 127.799 193.285 126.434 124.941 161.797 124.851 123.524 123.411 197.651 188.691 122.197 123.484 120.948 118.867 121.983 118.674 118.231 118.141
threshold=0.30825792253017431 0.44529914855957037 0.20722186565399173 0.36032786965370184 0 0.26726190745830541 0.62583333253860485 0.13921189308166507 1 2 3 4 5 0.47871376574039465 6 0.33558559417724615 27.500000000000004 48.857322692871101 7 -0.049999967217445367 8 48.89392280578614 0.38529014587402349 48.841115951538093 48.901489257812507 34.500000000000007 48.840650558471687 -0.6035533845424651 9 10 29.500000000000004 0.0652475841343403 2.4403589963912968 11 2.367847323417664 48.907365798950202 19.500000000000004 12 48.873491287231452 2.3199872970581059 24.500000000000004 13 0.52041664719581615 14 0.58397436141967785 2.298578262329102 48.811603546142585 -0.039999995380640023 28.500000000000004 48.860788345336921 15 2.2558089494705205 2.3714627027511601 48.877367019653327 16 2.4274274110794072 2.3003144264221196 0.81291666626930248 0.26500600576400762 22.500000000000004 15.500000000000002 36.500000000000007 17
decision_type=2 2 2 2 1 2 2 2 1 1 1 1 1 2 1 2 2 2 1 2 1 2 2 2 2 2 2 2 1 1 2 2 2 1 2 2 2 1 2 2 2 1 2 1 2 2 2 2 2 2 1 2 2 2 1 2 2 2 2 2 2 2 1
left_child=2 3 7 11 14 9 8 18 33 41 -9 15 -7 -10 44 35 29 22 30 -15 48 34 -6 -21 25 -25 -14 57 -17 -12 31 -1 51 -3 37 45 -20 -19 -39 -40 -16 -4 55 -23 -5 -2 -47 -30 49 -11 -36 -13 53 54 58 56 -24 -8 -28 -60 -31 -22 -58
right_child=1 6 5 4 17 12 27 10 13 20 16 32 26 19 40 28 -18 21 36 23 61 43 42 24 -26 -27 52 -29 47 60 -32 -33 -34 -35 50 -37 -38 38 39 -41 -42 -43 -44 -45 -46 46 -48 -49 -50 -51 -52 -53 -54 -55 -56 -57 62 -59 59 -61 -62 -63 -64
leaf_value=-0.010635013591609893 0.00046701373148709817 0.0085367582653835435 -0.0037156759671820336 0.0034516399166360512 0.0020443551398348068 -0.00076591890751384346 0.015506557195931673 -0.0058753128707362354 0.00516002344025299 -0.000840161438309589 -0.0045959017064841458 0.0010632519510574618 -0.0016319964065169947 0.0076600240362994371 0.0034516399166360512 0.001415925752259792 -0.0059787853609258312 0.00028500773368403398 -0.0082044579946622242 0.0091308031096309413 -0.0036575850143935554 0.0013651721520535648 0.004159263463895768 0.0076775055243819947 0.0093937545507401226 0.0085365886683762045 0.0010882473132573067 0.020176885097771883 -0.00041703053573146633 -0.0033669917292380698 -0.0089523211979493488 -0.0072382745259627684 0.00026978186508640477 0.0085653687388822456 -0.001360817577484995 0.00084492672231979986 -0.009504694577418267 0.003849291682820766 0.0024141230030171575 -0.00021295933956280157 0.0034516399166360512 -0.0034100055903149768 0.002852331270109862 0.0037234559379704271 0.00031919961784035168 0.0019714371453039363 5.508628279902173e-05 0.0014714361320249754 -0.0029896064911270506 -0.002625876362645069 0.0012234391809627433 -0.0005238688812591153 -0.0019319056286383448 -0.0016319964065169947 -0.0011238245977927025 0.0039684279300458728 0.0023454988038353608 0.023188496201783419 0.0013308877559844391 -0.0015362102522468225 -0.0064173824142152447 -0.0041654183779144651 0.0036183408683352182
leaf_weight=11560 2627 4955 17545 3494 6732 15941 27896 31637 15102 3543 12014 1555 7583 8891 6410 3413 38715 2687 11697 17098 14116 1679 2998 16653 6711 8281 2104 140944 953 677 40578 18796 1355 38285 1366 680 127745 4363 2411 1953 16612 15244 3893 4515 682 699 11146 5575 9603 5387 2896 20368 5495 5969 3196 1499 2295 27670 519 1510 14212 5297 5125
leaf_count=11560 2627 4955 17545 3494 6732 15941 27896 31637 15102 3543 12014 1555 7583 8891 6410 3413 38715 2687 11697 17098 14116 1679 2998 16653 6711 8281 2104 140944 953 677 40578 18796 1355 38285 1366 680 127745 4363 2411 1953 16612 15244 3893 4515 682 699 11146 5575 9603 5387 2896 20368 5495 5969 3196 1499 2295 27670 519 1510 14212 5297 5125
internal_value=0 0.0367604 -0.03757 0.0168931 0.0246069 -0.0231071 0.0443885 -0.042885 0.0394245 -0.0281424 -0.0379317 0.00547332 -0.0146903 0.0355167 0.0359306 0.011654 -0.0347306 0.0176602 -0.0451748 0.0374241 -0.0225893 0.0133379 0.0218614 0.0389728 0.0365919 0.034455 -0.0191427 0.0473182 0.019329 -0.0301806 -0.0423982 -0.0394683 -0.00119375 0.0459792 0.00991324 0.00662619 -0.0465809 0.0129402 0.0160753 0.00957837 0.0385066 -0.0345514 0.0251107 0.0220052 0.0218151 0.00553483 0.00332208 0.0141328 -0.0182899 -0.0140426 0.00180666 -0.00223281 -0.0163811 -0.0137765 -0.00827534 0.0277796 0.0258591 0.0447774 -0.00119479 -0.00983243 -0.0340929 -0.0266823 0.0223989
internal_weight=0 432467 420683 119981 71610 113052 312486 307631 115976 70735 97255 48371 42317 72736 27198 25093 65618 44412 210376 57634 37946 21870 22542 48743 31645 24934 26376 196510 9941 26903 70934 30356 23278 43240 15676 15152 139442 11414 8727 4364 23022 32789 15810 6194 4176 14472 11845 6528 18533 8930 4262 21923 18793 13298 7329 11917 10418 55566 4133 2029 14889 19413 7420
internal_count=853150 432467 420683 119981 71610 113052 312486 307631 115976 70735 97255 48371 42317 72736 27198 25093 65618 44412 210376 57634 37946 21870 22542 48743 31645 24934 26376 196510 9941 26903 70934 30356 23278 43240 15676 15152 139442 11414 8727 4364 23022 32789 15810 6194 4176 14472 11845 6528 18533 8930 4262 21923 18793 13298 7329 11917 10418 55566 4133 2029 14889 19413 7420
cat_boundaries=0 1 2 3 4 5 6 7 8 9 10 11 12 13 14 15 16 17 18
cat_threshold=12584991 8390719 15167 6207 16517151 16711681 32 8323072 8257536 15 8323072 32 3194880 11041 58368 12736 26592 193024
is_linear=0
shrinkage=0.05


Tree=5
num_leaves=64
num_cat=14
split_feature=9 9 9 9 4 9 9 4 4 4 9 4 3 1 9 9 1 4 3 1 4 5 1 9 4 7 2 1 3 9 4 14 5 2 2 4 13 2 3 9 1 13 9 1 4 1 1 3 13 2 1 1 11 9 1 13 3 2 1 13 4 13 8
split_gain=454902 26670.8 13414.9 4023.86 2084.55 2003.84 1885.15 1263.98 1123.96 1070.89 923.396 685.83 540.092 424.89 399.142 393.687 375.169 339.485 325.128 314.242 310.048 309.058 289.427 270.097 255.953 220.384 213.24 286.914 205.345 202.251 189.511 188.567 167.771 160.719 156.073 153.46 145.975 170.238 142.94 168.639 142.45 140.966 139.282 137.686 132.016 129.816 131.295 129.553 125.735 145.436 135.44 125.052 122.155 121.98 118.086 121.595 117.585 114.675 167.673 111.814 111.466 110.606 108.215
threshold=0.30825792253017431 0.45049019157886511 0.22140523046255114 0.36032786965370184 0 0.13079115748405459 0.63714733719825756 1 2 3 0.27195686101913458 4 28.500000000000004 48.841115951538093 0.33558559417724615 0.24818840622901919 48.902486801147468 5 29.500000000000004 48.857322692871101 6 7 48.89392280578614 0.38126567006111151 8 -0.6035533845424651 2.3003144264221196 48.809093475341804 32.500000000000007 0.18257576227188113 9 0.10833333805203439 10 2.3153568506240849 2.4403589963912968 11 0.48999600112438207 2.4238491058349614 26.500000000000004 0.28474904596805578 48.839452743530281 0.21483516693115237 0.70710679888725292 48.907365798950202 12 48.820686340332038 48.868331909179695 19.500000000000004 0.38126567006111151 2.3262122869491582 48.874814987182624 48.854564666748054 0.21483516693115237 0.47871376574039465 48.853876113891609 0.51538825035095226 30.500000000000004 2.3038195371627812 48.865642547607429 0.4380482435226441 13 0.26500600576400762 0.37940952181816107
decision_type=2 2 2 2 1 2 2 1 1 1 2 1 2 2 2 2 2 1 2 2 1 1 2 2 1 2 2 2 2 2 1 2 1 2 2 1 2 2 2 2 2 2 2 2 1 2 2 2 2 2 2 2 2 2 2 2 2 2 2 2 1 2 2
left_child=2 3 5 11 21 17 8 15 32 -7 20 14 24 53 43 -4 18 31 57 26 41 54 48 28 -11 42 -6 -28 -23 -14 -16 -1 -3 -20 -13 40 37 62 51 61 -12 -9 -8 -2 -24 -26 -47 -25 60 -50 -51 -17 -19 -10 -5 -56 -33 -15 -59 -41 -21 -40 -29
right_child=1 6 7 4 19 9 25 10 13 12 35 34 29 16 30 38 -18 52 33 22 -22 23 44 47 45 -27 27 36 -30 -31 -32 56 -34 -35 -36 -37 -38 -39 39 59 -42 -43 -44 -45 -46 46 -48 -49 49 50 -52 -53 -54 -55 55 -57 -58 58 -60 -61 -62 -63 -64
leaf_value=-0.0090266831289175873 0.00015630607221834571 0.0084993624761458466 -0.0030898206042719563 0.0038672931798603401 0.0038109234062791795 -0.0055271997120932229 0.012188139499299226 -0.002418781123939204 0.0052281103391097847 -0.0043228540147494058 -0.0014866697914667909 -0.0002950304539827642 -0.0063882271642927068 0.0081315005256272829 0.0013451294646468022 0.00047002591635053603 0.0085456875974722207 -0.0091181120718959712 0.0081502644076421864 0.00047679580788034803 -0.0031113001902357221 0.002029057622781025 0.0013006911817835644 0.003279057920804249 -0.0059998734286208638 0.019408426375262439 0.0030409412037478768 0.0022661228133202538 0.0018504865773823127 -0.0047299002798346342 0.001342353945658542 -0.0062552424031440158 0.0084979319524709114 0.0069493869744418181 0.00025629277183208401 -0.0012442588016861158 0.0013740705955671145 0.0044310080264033744 -0.0013667130011930152 -0.00016534153302247002 -0.0013611355794738073 -0.0035298921688229319 0.020088372619025407 0.00080268038620381075 0.0036581578423259794 -0.0051158357540217695 -0.0064665968413595096 0.0039523001226838689 0.0019990410311045122 0.00099577432910818455 -0.0021363926472966559 -0.0012442588016861158 -0.007224172621512784 0.0088913794766589983 0.0034339955741297477 -0.0015241285825744273 -0.0072517912904862293 0.0072761487600803369 0.0040551574029647737 -0.0028827321894937226 0.0024122760048615743 -0.0024763960380887158 0.0054993415102632713
leaf_weight=48706 14472 5109 8934 1985 5365 41387 9857 7090 3676 17216 3385 21923 30755 4925 3413 3049 9310 126165 7630 2459 21712 3961 1747 1906 2414 136110 2471 7504 3442 17396 6528 9774 38636 12424 1355 16232 4303 1114 4504 3735 8284 11152 43686 680 4490 7909 10149 18889 2325 2926 1468 5659 3594 21310 1801 591 8000 9079 6538 717 5751 2765 1308
leaf_count=48706 14472 5109 8934 1985 5365 41387 9857 7090 3676 17216 3385 21923 30755 4925 3413 3049 9310 126165 7630 2459 21712 3961 1747 1906 2414 136110 2471 7504 3442 17396 6528 9774 38636 12424 1355 16232 4303 1114 4504 3735 8284 11152 43686 680 4490 7909 10149 18889 2325 2926 1468 5659 3594 21310 1801 591 8000 9079 6538 717 5751 2765 1308
internal_value=0 0.0361566 -0.0368711 0.016592 0.0237818 -0.041766 0.0440371 -0.0205847 0.0390936 -0.0368785 -0.0243358 0.00532447 -0.0336713 0.0353475 0.0110564 -0.0119038 0.0326875 -0.0449347 0.0306114 0.0165711 -0.0292136 0.0333359 0.0122224 0.0352649 -0.0291923 0.0471295 0.0207501 0.0179641 0.0270634 -0.0371841 0.0188462 -0.0419567 0.0454885 0.0351401 -0.000858811 -0.0173596 0.015233 0.0185674 -0.0080792 -0.0116842 -0.0217527 -0.0243425 0.044412 0.00595301 0.0212682 -0.0330046 -0.031565 0.0381847 0.0084433 0.00337104 -0.00197997 -0.00322692 -0.0464537 0.0406748 0.0209847 0.0135033 -0.0375549 0.0261902 0.0240923 -0.00402066 0.0125944 -0.0163778 0.0162392
internal_weight=0 432467 420683 124177 75806 323465 308290 97218 118637 127226 67855 48371 85839 74892 25093 29363 49906 196239 40596 43231 39954 32575 21166 28198 37688 189653 22065 16700 7403 48151 9941 66480 43745 20054 23278 27901 14229 9926 20429 11721 11669 18242 53543 15152 6237 20472 18058 20795 14929 6719 4394 8708 129759 24986 4377 2392 17774 20542 15617 4452 8210 7269 8812
internal_count=853150 432467 420683 124177 75806 323465 308290 97218 118637 127226 67855 48371 85839 74892 25093 29363 49906 196239 40596 43231 39954 32575 21166 28198 37688 189653 22065 16700 7403 48151 9941 66480 43745 20054 23278 27901 14229 9926 20429 11721 11669 18242 53543 15152 6237 20472 18058 20795 14929 6719 4394 8708 129759 24986 4377 2392 17774 20542 15617 4452 8210 7269 8812
cat_boundaries=0 1 2 3 4 5 6 7 8 9 10 11 12 13 14
cat_threshold=12585023 16646144 8390719 6207 16517151 8323072 116417 32 8323072 15 32 30776 58368 1171456
is_linear=0
shrinkage=0.05


Tree=6
num_leaves=64
num_cat=54
split_feature=9 9 9 4 9 9 9 9 0 0 0 4 0 0 4 0 0 0 0 0 4 0 0 0 0 0 0 0 0 0 0 9 0 0 0 0 0 0 0 0 0 0 0 0 0 0 0 0 0 0 0 0 0 0 13 0 0 0 0 0 0 0 0
split_gain=440552 20077.3 19865.2 2914.63 2553.27 2305.5 1826.36 1516.46 1332.48 1315.5 1299.22 1278.33 1248.32 1215.59 1089.07 1081.02 1298.06 1051.99 1019.56 1010.37 944.34 1147.43 949.19 935.805 933.261 929.605 836.957 835.155 821.038 814.77 799.955 701.801 747.128 693.239 687.847 696.797 661.682 659.103 658.897 647.934 647.732 612.33 660.315 577.168 573.327 569.022 567.882 567.734 552.951 536.266 520.867 506.015 499.132 498.789 494.857 732.825 655.665 532.494 499.23 490.658 475.348 474.699 462.28
threshold=0.33114035427570349 0.22767145186662677 0.45972973108291632 0 0.13003220409154895 0.30471627414226538 0.66915422677993786 0.37590579688549047 1 2 3 4 5 6 7 8 9 10 11 12 13 14 15 16 17 18 19 20 21 22 23 0.37590579688549047 24 25 26 27 28 29 30 31 32 33 34 35 36 37 38 39 40 41 42 43 44 45 0.26726190745830541 46 47 48 49 50 51 52 53
decision_type=2 2 2 1 2 2 2 2 9 9 9 1 9 9 1 9 9 9 9 9 1 9 9 9 9 9 9 9 9 9 9 2 9 9 9 9 9 9 9 9 9 9 9 9 9 9 9 9 9 9 9 9 9 9 2 9 9 9 9 9 9 9 9
left_child=1 4 3 9 29 10 8 17 -4 -2 -3 18 -13 -12 25 -11 -17 -5 -6 -9 22 -22 -15 -16 -18 -10 -23 -21 -24 -1 -14 47 -33 -29 -25 -36 -30 -7 -19 -8 -28 -32 -43 -20 -40 -35 -39 -26 -31 -37 -38 -51 -42 -53 55 -52 -56 -57 -58 -44 -47 -59 -54
right_child=2 5 6 7 11 37 39 19 14 15 13 12 30 20 23 16 24 38 43 27 21 26 28 34 31 -27 40 33 36 48 41 32 -34 45 35 49 50 46 44 -41 52 42 59 -45 -46 60 -48 -49 -50 51 54 53 62 -55 56 57 58 61 -60 -61 -62 -63 -64
leaf_value=0.00063479302130797777 -0.0020135856441527628 0.003013932178287894 -0.0034806988218191088 0.0027020146690260151 0.0013406033426975024 -0.0020982637238994269 0.00034085830700285595 0.0045102790065908675 -0.0014553532100931744 -0.0028165010537326341 -0.0028817144993799645 0.0033476197453985281 0.00091541285679484774 -0.0031449031303269455 -0.0021971365449141717 -0.0012345054800741385 -0.00058557315709837916 0.0040249714902411693 -0.00086843904438567161 -0.0038201671015526632 0.004323837252687218 0.0010982381713949246 0.0042140038401009298 -0.0010049389950745515 -0.00055878931894740025 0.008635282956557631 0.0010916885039382706 -0.0031022136991775461 0.0026220665714791372 -0.0017203210414581005 0.00056192769284378889 -0.00072428476628875473 0.0039438183285200046 0.0053581918321921251 -0.00032423454992189238 0.001226217412647604 -0.0041470059002637677 0.0013609560136878627 -0.0032836365548325227 0.019063004460452872 0.00056729986886216446 -5.0221208235207153e-05 -0.0057990317879543177 -0.0052414629163327542 0.00024368328898656256 -0.0029105710156702436 -1.4603930775353158e-05 0.0015109384723396041 -0.0085735542449525554 0.0018092756388389281 0.0032280273241405591 0.0029876176972238322 0.00053298948536373021 0.0084475992111366222 0.0029954737934939886 -0.0042175603078796779 0.0017647195789951581 0.0035408152040858013 -0.0029293775287368958 -0.0053345863981470931 0.0027685621618105784 -0.0010216660761181134 -0.0023729398738711357
leaf_weight=695 555 826 629 1429 539 961 805 2640 555 575 3620 691 931 1945 729 1024 990 1035 843 557 663 779 668 888 580 42438 833 684 731 915 1039 635 23181 1761 1181 1189 1214 944 665 170271 832 1468 4904 44266 26109 665 18150 14767 191466 1328 676 1653 1021 80422 628 957 794 548 14105 85277 35297 18491 35493
leaf_count=695 555 826 629 1429 539 961 805 2640 555 575 3620 691 931 1945 729 1024 990 1035 843 557 663 779 668 888 580 42438 833 684 731 915 1039 635 23181 1761 1181 1189 1214 944 665 170271 832 1468 4904 44266 26109 665 18150 14767 191466 1328 676 1653 1021 80422 628 957 794 548 14105 85277 35297 18491 35493
internal_value=0 -0.0348698 0.0370154 0.019146 -0.0408778 -0.015792 0.0437085 0.0129382 0.0392659 0.0295307 -0.0193966 -0.0357357 -0.0323929 -0.02001 0.0396145 0.0305517 0.0315063 0.00421369 -0.0426256 0.0190727 -0.0187279 -0.0242298 -0.0133748 0.0363879 0.0329271 0.0461631 -0.0253439 0.0170293 -0.0116583 -0.0446052 -0.0328888 0.0341421 0.0395238 0.0179152 0.0368641 0.0373192 -0.0126252 -0.000545999 0.00205435 0.0471106 -0.0263937 -0.0333535 -0.0337877 -0.0434462 0.000533901 0.018823 0.00149707 0.0258129 -0.0447991 0.0378537 -0.0135492 0.0383316 -0.0273691 0.0388299 -0.0124596 -0.00739648 -0.0192085 -0.00913226 -0.0213126 -0.034331 0.0174525 -0.0072891 -0.0282444
internal_weight=0 437913 415237 113149 333034 104879 302088 70842 131012 42307 84824 139958 94310 83998 130383 41752 41177 29238 45648 41604 80378 39621 40757 87390 40153 42993 38958 38964 38812 193076 93619 39163 23816 38407 86661 85773 38144 20055 27809 171076 38179 92688 91649 45109 26774 37723 19094 15347 192381 84592 37413 83403 37346 82075 36199 20672 15527 19996 14899 90181 35962 19039 36514
internal_count=853150 437913 415237 113149 333034 104879 302088 70842 131012 42307 84824 139958 94310 83998 130383 41752 41177 29238 45648 41604 80378 39621 40757 87390 40153 42993 38958 38964 38812 193076 93619 39163 23816 38407 86661 85773 38144 20055 27809 171076 38179 92688 91649 45109 26774 37723 19094 15347 192381 84592 37413 83403 37346 82075 36199 20672 15527 19996 14899 90181 35962 19039 36514
cat_boundaries=0 1 47 93 140 141 189 235 236 283 330 374 421 467 468 513 560 607 649 695 739 782 827 874 919 965 1012 1059 1107 1154 1197 1244 1290 1334 1378 1421 1468 1515 1562 1609 1657 1702 1749 1794 1839 1886 1934 1981 2029 2075 2122 2164 2211 2258 2306
cat_threshold=12584991 0 0 268435456 0 0 0 0 8388608 4194304 0 0 0 1 0 262144 512 16777216 67108864 128 33554432 12 0 0 262208 2097152 536879104 65536 0 16777216 1048704 32768 0 0 32768 0 32 16 0 524288 0 0 2147483648 0 268435456 0 2052 0 0 4 134217728 8 0 0 384 0 0 0 8192 64 16 0 256 268959744 0 0 268435456 0 0 0 655360 1073742336 2048 0 0 2048 0 0 0 0 16 0 37130 2147483656 35651584 0 1024 0 0 0 0 0 4194304 0 262144 2 64 16 1073741824 67108864 0 0 0 2048 0 0 34078720 0 16 1024 1 0 0 33554432 0 134217728 0 32768 0 68157440 268435456 2097152 0 4 0 0 0 2 0 0 2147485696 33816576 540672 0 0 0 524288 2097152 2162688 2097152 6207 0 0 0 8388608 65536 0 0 1 268435456 0 1073741824 0 268435456 0 67108864 0 65536 256 0 0 0 0 2048 8388608 0 83886080 3178504 1073745920 0 8388640 0 0 0 0 6 0 16777216 4194304 0 262144 0 0 0 0 134479872 196608 0 32 256 128 4194304 16384 0 2 0 1024 0 1073741824 0 0 2147483648 0 8 0 2147483648 65536 134217728 1081344 128 0 0 0 8388864 32 0 0 0 8 33816576 1048704 0 0 32768 4096 0 0 0 0 512 1 0 1024 16 524416 8388671 0 0 0 0 0 512 0 0 524288 0 0 0 0 266240 16384 0 0 0 128 0 33554432 258 2097152 134299648 4194304 8192 65536 75497984 0 128 128 1342177344 0 134217728 0 524288 0 16384 0 0 0 4096 0 131072 0 16384 67108864 81 0 0 8912896 0 0 0 0 2097152 8388608 0 33554432 0 2147491840 32 0 0 134217728 0 0 0 0 512 1077936128 65536 0 0 33554432 1048576 0 131073 2097152 64 16777216 0 0 0 16777216 4352 0 0 2097152 0 9437184 0 32 65536 0 131074 0 268599488 17047568 8388608 67174416 0 0 0 0 0 268439552 512 64 2 2 0 0 0 0 0 0 0 0 0 71303168 0 0 0 0 4 0 0 0 268443648 0 0 0 2097152 536870912 1 32 16777216 0 0 2 544 0 4 0 4 0 2147483648 16384 0 8388608 131072 0 8192 0 2147483648 33792 4096 536870912 0 4194304 64 2147483648 4194304 16 128 0 0 134217728 8 0 0 0 0 268435456 0 0 0 0 536870912 524288 6144 33554432 0 65536 4194304 2097152 4195328 268435456 67371008 8388608 0 0 0 0 536870912 0 268478464 0 268435456 1073743873 1073741826 256 0 32 0 0 0 0 0 0 0 0 8192 0 0 0 0 0 0 0 73728 256 2147483712 0 16384 536871168 0 0 0 2147483648 16712897 20 0 0 32 0 8 8389120 0 8388608 0 0 0 0 0 1073741824 32768 0 8388608 65537 0 1073741824 2147483648 0 130 1024 64 0 536870912 0 1073872896 2048 0 0 262144 0 4194304 0 4 0 0 0 524304 32 4198400 33554944 0 0 1073741824 150994944 4 0 0 8192 262144 0 0 0 8192 262144 0 0 512 0 536870944 8388608 512 8192 0 2097152 0 4194304 0 32 131072 512 1073741824 0 1024 2097408 0 4194816 0 0 0 0 32768 0 0 2080 128 8392704 16777216 0 1073741824 65536 16 2147483648 0 0 2 0 131072 0 256 0 268435456 16 16384 0 2147483648 0 536870912 134218753 2147483648 0 0 64 0 0 10 268435456 64 4096 8 1 0 0 0 4194304 1024 0 0 0 0 0 16384 524288 268435456 32 512 0 0 4194320 0 0 0 0 4096 0 4 1073741824 0 0 262144 0 0 16777216 0 0 1207959552 0 2415919104 0 3162120 16386 16 671088640 0 0 0 16 65536 8192 0 1048576 8388608 134217728 16793600 0 0 2147614720 1050624 0 0 8388609 0 32768 65536 2147483776 2112 64 0 16384 32768 0 64 0 2048 0 0 512 0 1073741824 0 0 0 0 32768 2097152 0 32 536870912 4 0 8192 0 0 0 4194304 0 0 0 4096 1048576 0 0 4259840 1073152 0 4096 0 0 8192 0 1 4 69206016 0 0 2 0 0 67109376 0 0 524288 0 2155872256 0 0 32 131072 2 302056448 0 0 0 0 8 0 0 0 65536 8192 0 0 0 268435456 0 0 83886080 0 33554432 0 16 0 0 1024 0 8192 524288 2 4 2097152 0 16 4096 0 0 2147483680 0 1280 640 16 0 4718592 4 0 0 0 0 8945664 0 0 32 33556608 0 1073741824 33554432 0 0 0 0 8388608 1 0 0 1073741824 50364928 0 16777216 33104 134217736 0 1024 0 0 16779264 256 0 64 0 0 0 0 4194304 536870912 0 0 0 0 4096 0 0 0 0 0 0 8913408 0 0 0 0 262144 0 0 131072 2 134217728 0 8 4 0 0 66048 134217728 0 394 134217728 0 256 0 33554432 0 262144 0 0 0 0 8 0 0 0 0 0 0 1077936128 16 131588 264 0 2147483680 0 524288 536870912 1 0 256 268435456 0 0 0 1073741824 262144 0 131072 0 0 0 0 0 512 524288 0 0 134217728 4104 2048 0 2048 0 67109888 0 33570816 4195328 4096 32768 256 0 67109376 0 0 0 4194304 64 0 4194312 4 34 1077936128 512 0 0 4 0 0 0 0 0 0 2 1048576 0 1048576 0 0 0 0 1073741824 268435456 16448 4194320 0 0 0 1024 83886592 0 34078720 0 16386 0 0 64 262144 0 0 0 32768 268435456 32 0 4 128 4194304 512 2048 16384 0 0 0 131088 0 0 0 0 4 134742016 0 16384 4194304 0 0 524288 142606336 0 16777216 0 2147483904 0 0 2048 536870912 4096 1073741824 0 0 4 16 0 0 0 0 0 8 16777216 0 65536 0 0 1048576 0 4 4194432 0 536870912 0 16777216 0 2147491840 268443650 0 0 8 0 67108864 2097152 0 0 0 0 0 0 0 8192 128 0 2147491840 0 0 0 0 0 268451840 0 134217728 16 134348800 65536 0 0 8389120 537395200 256 0 512 8 1 270532608 256 0 0 0 0 0 134217728 0 0 32896 524288 1280 0 8 0 0 0 0 0 131073 1 0 1048576 8192 0 0 0 0 2048 0 0 0 536936448 36 262144 0 512 1048576 536870916 537133056 4259840 1024 0 0 131072 8 0 35651584 0 548864 0 0 0 0 0 0 0 0 0 2 0 0 2048 0 0 0 0 0 0 134217728 0 1073741824 524288 131072 0 2164264962 0 524288 0 0 0 0 2080 4096 0 524288 32768 4194304 65536 0 4194304 8388608 0 0 0 1089 0 1048576 32 67108864 0 0 2097152 16777216 1 0 8192 1088 64 0 1052672 0 16779264 0 262144 0 0 0 0 131072 0 0 4096 67109392 0 0 8388609 516 0 0 4194304 4194320 4194304 256 0 0 0 0 0 8 65536 0 37136 0 0 0 2281701384 0 0 64 0 0 2 40 34078720 32 0 0 1073741828 0 0 1073741824 8192 0 0 268435456 0 524288 0 524288 0 0 0 0 263168 67633216 0 0 8192 1073741824 0 0 0 8 0 0 0 0 64 0 2149580800 1024 0 0 0 4210688 589824 1048576 0 0 0 128 0 16 131072 10485761 0 0 8192 1 268435456 0 0 32768 16777216 1024 268435456 536870920 1073741824 2097152 0 4 0 4 536870912 0 1075840000 0 0 0 128 0 16408 0 1024 0 0 0 0 0 0 67108864 256 1 0 0 4096 8 524288 0 655360 0 0 64 16384 8192 0 0 1610612736 0 268697600 256 0 0 0 32768 0 73728 0 0 0 72 0 2097152 16 0 0 524288 536887296 0 0 0 0 16384 1073741984 0 131072 0 0 0 1073741824 0 0 570425344 2151677952 134217756 0 32768 1 0 0 0 2164260864 0 0 0 524288 2181038080 2097152 671088640 0 2048 0 0 256 16 0 2097152 524288 0 0 0 0 4416 2048 0 0 2097280 0 0 256 0 0 0 1 1048608 0 48 1073741824 0 0 0 2181046272 1076887569 0 0 0 0 0 512 0 8 0 0 262144 8192 256 0 262144 16777216 0 256 0 2147483648 524288 0 536870912 2 1052672 67109120 0 0 2097152 524288 8388608 0 0 0 0 65536 0 536870912 0 0 0 0 0 32768 0 512 0 18432 0 0 1073741824 1073741824 64 0 65536 0 524288 1024 16388 1048576 0 16777232 1 64 4096 212992 16 0 33554432 32770 0 0 0 16777216 0 2048 16384 0 1074790400 16384 0 0 524288 0 134217728 0 0 134348800 256 0 16384 0 0 0 0 0 8650752 512 0 0 0 268435456 164864 0 139264 0 68157440 0 64 268435520 0 0 98304 0 0 524288 0 0 0 67108864 0 0 0 16 128 32768 0 536870976 272 2048 2121728 0 128 268435456 17039360 0 671088640 0 64 0 0 0 4194304 0 8650752 0 0 0 2 256 0 0 0 0 4 0 4259840 0 1048576 8192 0 0 0 0 67108864 67111936 0 0 0 0 1 524416 0 32768 8192 0 0 131072 0 128 0 0 0 4096 0 0 264192 1073741824 0 0 16 262176 2080 0 0 0 262144 268435456 67108864 0 4194304 8 134217728 0 0 0 0 0 256 33554432 4 2415919104 512 536870912 536870912 0 0 8192 17408 0 1048576 0 0 0 0 65536 0 2147483648 1073741824 512 0 0 67108864 1048576 0 536870912 0 1077944320 536870920 0 0 8388608 0 268436480 4227072 0 4 0 0 0 0 0 0 0 528448 512 0 0 128 0 262144 0 2 2048 0 1 0 0 67371520 8388608 0 0 0 1 0 32768 0 33554433 0 0 0 0 0 33554432 0 4096 33554432 0 536870912 0 0 0 128 3 65600 0 0 1074266112 0 0 2 0 2 134217728 201326592 0 2147483648 16 1073741824 2097152 2 8388608 4096 16384 0 1074790912 0 0 32768 10485760 0 64 67108864 0 0 0 0 0 9437184 0 1073741824 2 0 0 8 1073741824 1024 4194305 1073741824 0 33554432 0 32768 8192 67109888 0 0 0 4 0 134217728 0 268435456 0 0 0 272 131072 0 67108864 1 0 0 34078720 0 0 0 0 0 2097152 256 0 1024 0 0 0 8192 536870912 0 132 0 2147483648 0 671092864 0 0 8 0 16384 96 8 589856 0 524304 0 8 524288 0 1 0 128 0 2048 512 0 67108864 0 0 256 0 0 1073741824 64 0 50331648 33554448 0 67108864 0 0 2113536 2097152 0 0 1694498816 0 536871040 0 8388608 128 32800 131072 1073741824 0 0 0 0 4198400 524288 0 0 0 0 0 4096 4 0 33554432 128 0 0 0 0 0 32 4096 0 134217728 8 0 0 67108864 0 262148 0 0 268567552 0 1 0 0 0 0 0 8421376 1140850688 0 0 0 4 2359296 167772160 0 131072 0 0 536870912 262208 0 514 536870912 0 0 131072 65536 0 0 0 0 0 536879108 0 0 0 524288 32768 2097152 0 8 2097152 0 0 33556480 65536 138412032 0 64 8 1024 0 0 524288 134217732 0 0 0 25165856 0 16777216 0 536870912 3 0 0 1 0 0 0 0 0 1 8192 1 0 0 0 8388608 0 0 0 1048576 256 536879136 0 133120 0 32 0 256 0 4 512 0 0 4112 561152 0 2147549184 2097152 128 0 135266304 0 0 0 2147483648 262144 0 0 0 0 0 4 0 131072 0 0 71303168 0 8388644 32832 0 128 0 0 2147483648 135266304 0 65536 0 0 0 0 1048576 8192 138674176 0 0 0 0 266240 536870912 256 0 0 0 272629760 0 0 4210688 2097160 2 0 0 0 3240099840 0 0 536870912 0 4096 4096 0 0 0 0 0 16 4096 0 0 0 134217728 1 8192 0 2097152 0 0 64 0 0 134217728 1073872896 536870912 512 0 0 2151677952 134217728 2 269090816 0 0 0 0 0 0 1048576 2 0 0 0 2359328 0 0 1073741824 520 0 0 4194304 1 16777216 256 0 0 0 8192 0 0 536870912 129 128 4 0 16512 0 1 0 8 2048 0 268436480 0 0 0 0 67108864 0 0 0 0 64 1358954560 0 2097152 0 0 0 0 3 268435456 0 2097152 147456 0 262144 1048704 0 16384 524288 256 0 0 0 536870916 0 0 0 536871424 0 2149580800 2097152 0 16388 541065224 131072 0 512 134217728 3223322624 0 0 67108864 0 32 0 0 0 0 0 16384 1048576 33554432 2097152 0 0 134479872 0 524292 0 134742016 8 0 256 128 0 2147483648 0 0 0 262144 0 0 268435456 0 8192 0 134217728 16777216 0 16 0 0 536870912 64 134217728 16777216 0 32 262144 536870912 2097280 805306368 0 0 0 2097152 8404992 0 2097152 0 134217728 0 0 0 4096 0 0 256 33554432 0 1064968 0 0 0 4096 0 32768 0 66064 0 1073741824 0 0 1048576 0 134250496 0 0 0 0 131088 0 0 0 33554496 2097152 4194304 0 524288 1 0 0 0 0 8388610 0 4160 2176 0 0 268435968 16384 0 0 16384 0 0 67108864 0 65536 0 0 536871432 0 2 0 2147483904 0 0 0 0 0 0 0 33554432 0 0 2112 0 0 0 0 8192 131072 24576 0 3489661184 67174656 2147483648 4194816 512 0 0 67112960 2 0 134217728 0 0 0 0 0 2
is_linear=0
shrinkage=0.05


Tree=7
num_leaves=64
num_cat=56
split_feature=9 9 9 9 9 9 4 9 0 0 4 4 0 4 0 0 0 0 0 0 0 0 4 0 0 0 0 0 0 0 0 0 0 0 0 0 0 0 0 0 0 0 0 0 0 0 0 0 0 0 0 0 0 0 0 0 0 0 0 0 0 0 0
split_gain=426405 22619 16723.1 3276.76 2181.71 1998.34 1984.36 1886.78 1365.89 1341.09 1208.38 1143.19 1054.52 1009.27 1019.89 1001.56 997.922 982.211 959.849 945.807 891.388 859.587 853.452 947.635 794.369 790.73 788.38 762.511 751.174 740.926 723.292 692.949 679.231 676.529 668.367 647.869 637.667 627.546 623.577 622.294 617.188 571.659 568.035 567.971 565.928 560.903 535.997 561.36 498.395 497.563 496.273 493.015 465.325 483.736 463.943 455.798 454.709 488.436 441.142 435.908 490.554 495.706 431.96
threshold=0.31957446038722997 0.45972973108291632 0.2124435901641846 0.37590579688549047 0.26500600576400762 0.66915422677993786 0 0.13003220409154895 1 2 3 4 5 6 7 8 9 10 11 12 13 14 15 16 17 18 19 20 21 22 23 24 25 26 27 28 29 30 31 32 33 34 35 36 37 38 39 40 41 42 43 44 45 46 47 48 49 50 51 52 53 54 55
decision_type=2 2 2 2 2 2 1 2 9 9 1 1 9 1 9 9 9 9 9 9 9 9 1 9 9 9 9 9 9 9 9 9 9 9 9 9 9 9 9 9 9 9 9 9 9 9 9 9 9 9 9 9 9 9 9 9 9 9 9 9 9 9 9
left_child=2 3 7 8 19 9 12 27 -2 -3 18 21 -5 14 -10 -8 -13 -6 -11 -4 -12 -9 33 -24 -16 -19 -17 -1 -14 -15 -18 -7 -22 -21 -27 -26 -28 -31 -34 -29 -37 -39 -40 -36 -35 -38 -32 -48 -47 -46 -45 -41 -44 -54 -42 -33 -25 -58 -51 -52 -61 -62 -49
right_child=1 5 4 6 17 31 15 11 13 10 20 16 28 29 24 26 30 25 -20 22 32 -23 23 56 35 34 36 39 -30 37 46 55 38 44 43 40 45 41 42 51 54 -43 52 50 49 48 47 62 -50 58 59 -53 53 -55 -56 -57 57 -59 -60 60 61 -63 -64
