tree
version=v4
num_class=1
num_tree_per_iteration=1
label_index=0
max_feature_idx=15
objective=regression_l1
feature_names=station_id lat lon capacity hour dow is_weekend hour_sin hour_cos bikes_pct bikes_pct_lag_15m bikes_pct_lag_30m bikes_pct_lag_60m bikes_pct_lag_180m bikes_pct_roll_1h bikes_pct_delta_15m
feature_infos=-1:446:1281:531:1087:525:1350:315:1013:1140:126:255:403:1208:1034:1123:1222:45:653:720:1137:136:366:640:826:860:991:1122:1211:1295:1392:342:456:1374:1427:35:80:178:198:527:620:736:880:928:967:1117:1382:1400:1501:26:56:78:557:709:776:851:852:911:912:934:1038:1094:1300:1302:74:134:217:326:354:705:895:1040:1142:1230:1250:1313:1377:1456:1490:1494:24:160:229:328:534:644:681:730:741:742:807:884:943:973:986:1036:1073:1103:1148:1178:1248:1252:1337:1383:1410:1482:1486:38:124:154:168:195:367:430:472:717:761:809:961:1024:1097:1198:1262:1326:1341:1381:4:14:250:252:281:282:357:409:435:440:718:739:896:905:907:954:989:1005:1015:1060:1127:1170:1209:1264:1310:1332:1340:1343:1391:1402:29:51:75:93:230:234:269:297:316:415:418:676:711:725:755:830:914:996:1002:1011:1019:1076:1090:1129:1193:1219:1291:1415:1433:1437:36:83:99:221:242:272:293:346:353:427:444:515:555:565:611:619:631:677:684:769:798:802:815:855:886:909:924:951:1006:1028:1072:1074:1088:1093:1165:1194:1202:1328:1345:1436:1489:12:16:155:236:243:395:457:476:484:488:510:520:616:772:783:804:1043:1089:1169:1206:1234:1258:1268:1412:1455:1461:1481:1:98:111:115:153:156:159:203:233:276:289:337:407:423:462:463:477:603:648:683:704:708:726:729:734:747:751:786:797:825:833:848:850:945:990:1099:1100:1174:1192:1223:1279:1367:1378:1435:54:61:67:88:135:227:239:241:267:284:347:485:500:512:582:614:624:657:664:688:716:892:974:1033:1050:1086:1107:1114:1138:1147:1215:1241:1260:1344:1361:1366:1384:1405:1449:1502:1505:15:43:110:123:167:170:197:244:298:410:513:596:613:625:671:700:773:778:791:847:853:894:980:997:1008:1014:1018:1020:1061:1098:1105:1247:1297:1329:1351:1379:1422:1426:0:13:25:188:190:211:332:344:380:398:413:431:436:502:585:589:597:652:785:788:803:834:839:870:942:960:1029:1051:1056:1059:1065:1077:1134:1135:1144:1162:1164:1225:1226:1259:1336:1364:1408:1447:1471:1508:116:117:122:132:143:166:177:294:322:324:329:373:379:388:451:465:487:533:536:545:552:556:615:649:668:693:737:792:849:908:936:950:1066:1082:1109:1139:1161:1204:1265:1277:1303:1308:1315:1334:1354:1362:1372:40:94:104:121:128:138:205:213:215:232:280:290:306:312:368:393:400:421:425:428:459:529:639:651:656:692:702:713:715:763:787:872:876:897:922:953:963:978:995:1022:1064:1081:1092:1111:1121:1143:1197:1224:1239:1240:1249:1267:1283:1321:1322:1375:1390:1425:1438:91:108:146:199:228:245:274:283:314:351:361:365:378:382:454:482:497:504:508:539:541:567:593:595:605:635:641:690:691:827:976:1007:1075:1083:1085:1163:1213:1242:1280:1289:1309:1316:1348:1439:1443:1464:1493:27:48:109:112:145:191:237:273:286:287:301:319:334:385:414:468:473:499:535:559:563:570:581:623:629:646:647:703:735:738:750:793:796:812:816:845:867:890:906:937:939:940:941:947:956:983:994:1035:1126:1154:1167:1179:1189:1191:1227:1229:1290:1293:1294:1330:1359:1363:1398:1417:1423:1452:1458:2:10:18:42:73:79:119:172:182:222:231:246:259:261:279:296:302:331:363:479:551:599:633:650:695:771:881:952:969:979:985:1048:1063:1136:1157:1173:1185:1186:1199:1220:1237:1311:1369:1409:1428:1450:1459:1460:1500:6:19:28:50:114:163:184:216:263:265:295:313:396:399:411:426:447:452:492:516:610:618:689:770:836:929:932:1069:1102:1104:1153:1175:1176:1195:1270:1299:1314:1317:1331:1346:1416:1445:1465:1466:1477:1478:1483:8:11:52:70:71:97:125:133:171:254:256:285:310:320:364:369:384:394:401:439:467:470:475:517:537:547:626:638:670:719:740:777:779:799:808:820:831:840:873:891:935:949:984:1023:1079:1118:1128:1177:1182:1254:1257:1266:1304:1338:1365:1463:1473:1488:1498:55:63:100:161:194:299:303:338:345:349:372:375:390:391:397:406:417:443:450:469:474:491:494:501:540:548:561:572:580:586:608:622:674:679:682:698:766:794:842:843:869:877:879:910:933:958:998:1012:1054:1068:1132:1160:1180:1201:1218:1235:1275:1296:1320:1323:1356:1388:1389:1393:1434:1462:1480:1495:5:17:20:76:105:106:113:180:209:210:214:253:257:266:277:278:356:370:392:404:412:432:458:471:518:550:568:578:602:706:707:714:790:805:885:887:902:920:926:1025:1057:1070:1071:1084:1116:1133:1183:1188:1200:1228:1263:1307:1376:1407:1411:1414:1424:1442:1448:1454:1479:1485:44:65:68:95:129:142:164:193:206:248:260:288:304:307:330:374:416:445:480:507:521:528:594:617:642:645:710:722:723:728:752:754:784:813:846:883:931:959:987:1017:1106:1124:1155:1205:1269:1298:1333:1358:1373:1429:1474:1497:1507:3:72:96:102:144:147:300:348:358:437:442:449:461:481:496:523:530:542:606:636:665:672:685:687:745:810:817:838:862:875:889:900:925:962:977:1026:1052:1101:1112:1181:1187:1238:1272:1324:1325:1349:1370:9:22:23:32:33:92:103:162:181:196:200:225:235:247:258:340:453:464:483:489:498:558:569:576:587:604:748:814:864:878:916:930:948:971:992:993:1001:1027:1044:1053:1130:1150:1156:1236:1243:1319:1327:1353:1355:1451:1468:1475:1487:37:41:58:85:101:130:189:201:271:355:402:405:448:455:544:560:571:588:598:600:609:632:654:724:731:744:746:759:764:768:819:835:898:899:913:964:1055:1096:1108:1119:1120:1131:1196:1207:1214:1216:1231:1245:1251:1255:1261:1285:1287:1306:1347:1380:1440:1444:46:62:87:127:139:173:321:335:336:339:343:350:434:486:509:514:562:579:601:612:721:762:818:822:832:861:893:903:918:923:957:1030:1049:1080:1282:1284:1342:1368:1387:1491:1499:84:86:107:120:149:169:308:317:376:433:466:546:591:627:634:659:660:663:680:699:753:901:915:968:1046:1062:1067:1113:1158:1203:1246:1312:1371:1395:1404:1413:1421:1469:1509:49:66:90:150:157:186:264:275:311:325:419:420:441:511:524:583:628:675:686:694:782:801:821:865:919:946:1000:1037:1095:1151:1278:1288:1352:1399:1419:1472:1506:7:30:39:60:118:152:219:220:223:224:240:270:305:359:383:554:592:607:658:749:774:823:856:904:921:955:981:1058:1141:1146:1217:1274:1276:1286:1305:1397:1431:1496:82:131:140:158:165:262:318:327:360:362:493:505:643:655:661:662:678:732:758:765:811:829:841:868:917:927:982:999:1016:1041:1115:1145:1152:1212:1253:1335:1394:1406:1418:1430:31:77:137:187:192:381:429:538:549:553:590:621:673:743:789:806:944:965:1010:1039:1042:1159:1233:1339:1432:1503:53:59:89:202:251:268:291:478:490:495:503:584:637:757:800:844:1032:1110:1168:1184:1210:1273:47:183:341:371:387:389:408:438:519:526:573:696:837:854:859:871:874:970:975:988:1078:1166:1256:1360:1401:1446:1476:151:212:522:575:630:712:733:760:824:858:972:1021:1091:1172:1271:1301:1318:1357:1403:1457:1504:176:179:207:352:377:424:460:506:532:697:866:938:1009:1171:1420:21:64:141:204:309:543:574:667:669:828:857:1031:1125:1492:175:226:333:756:795:1003:1047:1149:1190:1292:1396:1453:69:148:185:208:564:701:781:1045:1221:1232:1244:1484:218:767:1386:1467:57:81:323:577:863:882 [48.743385314941406:48.957569122314453] [2.1655967235565186:2.5382421016693115] [11:105] -1:4:2:23:9:11:15:3:12:10:13:18:20:17:21:14:19:1:16:5:22:7:8:0:6 -1:6:5:0 -1:1:0 [-1:1] [-1:1] [0:1.7599999904632568] [0:1.7599999904632568] [0:1.7599999904632568] [0:1.7599999904632568] [0:1.7599999904632568] [0:1.7599999904632568] [-0.76470589637756348:0.75]
tree_sizes=15390 15559 15720 15707 6073 6070 15734 15639 6072 15994 6142 16009 15629 15741 15327 15783 6074 15579 15028 15814 16312 16069 16236 16117 15905 6085 15875 16170 16439 16583 16349 6118 6138 16463 16403 16627 16712 6147 16151 16380 16665 16297 16526 16593 16284 16183 15828 16303 16747 16544 16498 16696 16238 16404 16680 6220 16708 16489 16705 16560 17185 16921 17033 16368 16730 16404 16609 6119 16584 16761 16718 16578 6258 6137 17054 16849 16411 16910 16780 16941 16932 16951 16213 17013 16408 16755 16918 16604 16460 16849 16333 16586 6142 6138 6118 16326 16564 6110 16169 15891 15420 15750 15139 6173 16206 15541 15442 15291 14154 14789 16013 14987 15366 15389 16321 6123 14623 16400 14684 14016 15322 14965 15166 15349 6077 14905 14459 14332 15771 13921 15840 15483 14841 15679 6156 6093 15242 14927 14457 14615 15358 15066 14309 6072 13943 14924 13214 16626 12928 12656 13027 13261 14298 13880 6083 14595 15878 6076 15755 15270 6141 14014 13907 14375 15254 16722 17308 14555 6097 14126 6227

Tree=0
num_leaves=64
num_cat=55
split_feature=9 9 9 4 9 9 0 0 0 0 0 0 9 0 9 0 0 0 0 0 0 0 0 4 0 0 0 0 0 4 0 0 0 0 0 0 0 4 0 0 0 0 0 0 0 0 0 0 0 0 13 0 0 0 0 0 0 0 0 0 0 0 0
split_gain=480357 24786.5 15512 3334.35 2367.88 2168.15 2001.97 1849.26 1784.92 1508.68 1452.13 1444.95 1424.04 1372.02 1318.08 1296.52 1181.81 1157.49 1272.25 1319.3 1121.92 1114.01 992.984 967.16 1079.71 939.234 891.603 862.561 849.153 843.123 921.12 859.075 832.976 804.316 790.487 780.128 763.715 756.136 930.629 845.892 830.722 742.794 739.831 728.692 728.173 673.487 657.523 627.604 619.359 610.414 606.291 910.075 799.43 787.304 606.283 605.665 599.652 588.034 577.855 565.804 562.764 558.956 558.494
threshold=0.31957446038722997 0.4380482435226441 0.22140523046255114 0 0.556623935699463 0.26500600576400762 1 2 3 4 5 6 0.13921189308166507 7 0.38529014587402349 8 9 10 11 12 13 14 15 16 17 18 19 20 21 22 23 24 25 26 27 28 29 30 31 32 33 34 35 36 37 38 39 40 41 42 0.32173123955726629 43 44 45 46 47 48 49 50 51 52 53 54
decision_type=2 2 2 1 2 2 9 9 9 9 9 9 2 9 2 9 9 9 9 9 9 9 9 1 9 9 9 9 9 1 9 9 9 9 9 9 9 1 9 9 9 9 9 9 9 9 9 9 9 9 2 9 9 9 9 9 9 9 9 9 9 9 9
left_child=2 3 6 7 10 25 -1 -2 -5 -9 -3 -10 26 -7 20 -6 -15 -11 -19 -20 -13 -14 -16 34 -25 -4 -8 -21 -26 31 -31 -27 -22 -18 -12 -30 -29 38 -23 -39 -40 -24 -35 -44 -34 -38 -43 -46 -28 -17 51 -45 -53 -52 -55 -32 -42 -33 -49 -54 -48 -41 -63
right_child=1 4 5 8 15 13 12 9 11 17 23 14 21 16 22 49 33 18 19 27 32 37 41 24 28 29 48 36 35 30 55 57 44 42 -36 -37 45 39 40 61 56 46 43 50 47 -47 60 58 -50 -51 53 52 59 54 -56 -57 -58 -59 -60 -61 -62 62 -64
leaf_value=0.32227272242307664 0.31381118372082711 0.31338383331894876 0.32227272242307664 0.32370129376649859 0.31477272212505342 0.32258522212505342 0.31893938928842547 0.31436949595808983 0.32370129376649859 0.31434168741106988 0.31655843704938891 0.3229623779654503 0.32036363184452055 0.31560605615377424 0.31338383331894876 0.32150349169969561 0.31477272212505342 0.31523568481206893 0.31655843704938891 0.31727272272109985 0.3125029683113098 0.32227272242307664 0.31314228698611257 0.31287878304719924 0.3150386795401573 0.32310605496168138 0.31427272185683253 0.31818181276321411 0.31727272272109985 0.31991978138685229 0.319580414891243 0.32102272212505339 0.32370129376649859 0.32414772212505338 0.32727272212505343 0.32634679675102235 0.31893938928842547 0.31949799731373785 0.31991978138685229 0.31655843704938891 0.31852272152900696 0.32286095768213274 0.32162756025791167 0.32272726744413377 0.32302743941545486 0.322084042429924 0.31477272212505342 0.31393938884139061 0.30696022212505342 0.34027272164821626 0.32102272212505339 0.31520375609397888 0.32310605496168138 0.31937798559665681 0.31477272212505342 0.31363635882735252 0.31136363148689272 0.31427272185683253 0.31778996288776395 0.31713758707046508 0.32123823910951615 0.31417748406529428 0.31060605570673944
leaf_weight=992 772 559 574 2784 680 963 849 669 2337 538 563 1429 954 2655 679 1278 2008 741 1107 1099 916 545 551 522 802 537 1551 1419 971 586 655 545 1074 711 29955 48117 1820 724 933 942 973 1864 1013 725 1083 31267 624 769 207750 235053 805 1848 561 817 15754 30519 39325 17752 30853 27172 20567 1482 66468
leaf_count=992 772 559 574 2784 680 963 849 669 2337 538 563 1429 954 2655 679 1278 2008 741 1107 1099 916 545 551 522 802 537 1551 1419 971 586 655 545 1074 711 29955 48117 1820 724 933 942 973 1864 1013 725 1083 31267 624 769 207750 235053 805 1848 561 817 15754 30519 39325 17752 30853 27172 20567 1482 66468
internal_value=0.318182 0.355881 0.280843 0.334809 0.362826 0.297424 0.2754 0.346297 0.327891 0.347831 0.355473 0.326148 0.275183 0.304313 0.324652 0.365354 0.303258 0.349147 0.350197 0.351511 0.318597 0.279726 0.333661 0.356026 0.351744 0.290015 0.272752 0.353185 0.352495 0.289296 0.284312 0.297714 0.316803 0.304945 0.363086 0.353332 0.354578 0.279267 0.28463 0.276054 0.283768 0.335376 0.306212 0.30547 0.318086 0.356123 0.336753 0.31675 0.272546 0.365551 0.304576 0.308842 0.307483 0.297127 0.294788 0.28314 0.282685 0.295876 0.315463 0.309614 0.334231 0.275486 0.274953
internal_weight=0 423462 429688 104962 318500 106200 323488 39432 65530 38660 81489 62746 322496 55032 60409 237011 54069 37991 37453 36712 36124 112346 24285 80930 50412 51168 210150 35605 49890 50594 31760 18834 34695 51414 30518 49088 34506 111392 41776 69616 41231 23606 49406 48695 33779 33087 23055 32705 209301 236331 47682 30306 29581 17376 16571 31174 40298 18297 31622 27733 21191 68892 67950
internal_count=853150 423462 429688 104962 318500 106200 323488 39432 65530 38660 81489 62746 322496 55032 60409 237011 54069 37991 37453 36712 36124 112346 24285 80930 50412 51168 210150 35605 49890 50594 31760 18834 34695 51414 30518 49088 34506 111392 41776 69616 41231 23606 49406 48695 33779 33087 23055 32705 209301 236331 47682 30306 29581 17376 16571 31174 40298 18297 31622 27733 21191 68892 67950
cat_boundaries=0 1 49 96 140 186 232 278 325 373 420 467 509 555 602 648 695 696 743 789 833 880 927 928 972 1020 1064 1110 1157 1205 1250 1251 1296 1343 1390 1435 1482 1527 1575 1623 1666 1712 1759 1805 1852 1898 1944 1986 2033 2078 2124 2171 2219 2266 2310 2354
cat_threshold=14680095 0 0 0 32 4259840 0 134217728 1 0 134217728 1073741824 2048 1076887552 1048576 0 0 0 0 1024 0 32768 0 0 8389120 0 67108864 34603016 1073745920 0 0 4194312 0 2147483648 0 2 0 16777216 4 0 0 0 0 0 0 262146 131072 0 32 64 0 0 0 8 0 0 134217736 0 0 0 131072 0 2147745792 0 0 268959744 0 0 0 0 0 2097152 1207959552 24576 10240 0 512 0 32 0 0 72 0 8192 2101248 0 52445696 16777216 0 0 0 0 0 0 0 268435456 128 32768 0 268435656 16 8388640 71434240 0 0 0 0 0 268470272 512 4160 268435456 0 0 0 16 0 0 0 0 0 8 0 0 8192 0 0 131072 0 0 0 268443648 8192 256 2147483712 0 0 1024 0 536870912 32 2147483648 0 0 3145728 0 0 0 2101248 0 0 33562624 64 16 0 0 0 0 4 268435456 536870912 256 512 524288 0 16448 0 134217728 0 128 129 1342177280 0 1073741824 0 33026 0 0 0 0 0 0 0 8388608 0 4194304 0 536870912 65536 4194320 0 0 0 8388608 262176 0 0 0 1 0 263168 0 16777216 0 4096 536870912 4 0 0 64 64 536870912 65536 0 16777216 67108864 32768 0 0 1048608 0 525056 0 0 0 0 0 2147483648 0 268435456 0 524288 0 2228224 0 32800 67371008 1073743872 65552 0 0 268435456 17039360 0 536870912 0 0 32768 0 0 0 524288 32 4194304 0 0 67108864 67108864 67108864 4194304 0 0 0 0 0 268435456 0 0 65536 0 0 2686976 536870912 2048 32 0 0 2151677952 0 262144 2 32 4112 0 201326592 0 2147483776 67108864 2048 0 4096 524288 0 2 0 524288 524288 16 294912 1074266112 0 0 0 0 1024 268435456 0 0 4 8388608 0 0 524288 0 0 0 33816576 16384 0 0 0 536870912 0 65536 2097152 8192 0 0 0 0 4 0 8388608 256 0 0 0 1 268435456 2048 0 16777216 136314880 0 33554432 0 1677721600 0 262144 1073741828 0 1 0 0 1024 0 0 67108864 0 0 2097160 16 1024 0 1024 0 0 0 256 16384 0 1296 1 1024 134217728 268435456 67108864 0 0 0 0 0 512 0 0 0 0 134217736 0 512 65536 134217728 0 512 131072 0 0 16384 32 0 64 0 33554944 1107296256 0 8388608 32 0 2 2147483680 16777226 0 2147483648 512 0 0 32 0 524288 67108864 8 0 134217728 142606336 0 0 0 128 268435456 8388608 0 0 16 0 0 0 0 838860800 2176 2 0 2 0 0 512 8388608 65536 4 0 0 0 0 256 134217728 0 0 2147483652 0 0 1024 0 0 262144 1179648 0 0 67108864 1040 0 0 0 0 0 0 2147483904 16777217 0 0 0 128 0 278528 0 0 159383552 0 0 0 0 0 16924672 8 0 16 33816576 0 0 0 0 0 5 128 1572872 8 1024 4096 2147483648 0 2147483648 1 2 67108864 16 0 0 0 65536 0 0 4 0 4194304 0 0 256 0 0 0 0 134217728 1040 2147483648 0 65536 268435458 0 8389632 268435456 0 131072 16 0 0 4 2064 8392704 0 0 2 16384 2101248 1 0 131072 32 0 2 2 1 50339840 2147483648 16384 0 132 0 0 1073742336 4096 32 0 6 0 524288 0 0 16384 33554432 0 0 262144 0 0 0 65536 0 0 1024 0 0 0 0 0 2147483648 0 0 2147483648 67108864 0 16777216 65536 16384 65536 0 0 2 0 0 4104 34078720 1077936128 134217728 0 4096 33693697 0 67108864 0 16777216 0 0 0 0 2147483648 0 134219776 0 8192 0 1024 0 32768 0 0 532480 0 0 0 536870912 0 5242880 0 0 0 512 524288 0 33554432 65536 134742016 33554496 16384 4194304 0 0 524288 16 0 0 0 0 0 2 2064 0 0 1073741824 0 0 0 0 16384 0 17317888 0 0 131072 16777216 2097152 524288 4194304 0 0 33556480 0 0 524288 0 0 0 0 0 268468224 32768 0 786432 12582975 0 68161544 0 0 2147483648 0 0 32768 0 655360 0 0 0 0 16 0 0 0 0 0 536870912 0 16 0 0 4 64 2 536870912 0 67108864 0 12288 0 0 4194304 524288 1024 0 0 0 4194304 1 4 0 268437504 8224 1 0 524288 0 0 0 16 0 0 0 2048 0 268435456 33554464 1073741824 0 2 256 0 0 2147483648 0 2048 0 0 0 1342177280 0 0 1077936128 8 0 0 0 33554432 1088 0 1048580 32 262144 0 0 0 16777216 2359296 131072 0 0 67371012 0 0 512 524288 67108864 10 32768 0 33554432 0 33554432 8388608 262144 0 16384 0 0 0 268435456 536870912 0 0 0 0 0 65616 512 256 524288 32 0 524288 0 0 0 67108864 268435456 0 65536 524288 1073741824 0 16777232 0 0 0 0 0 512 2148007936 262144 1073741824 1073745920 0 0 1024 0 0 0 0 37748736 33554440 1073741824 0 262144 6291456 0 0 256 4 33554432 0 2097156 0 8192 0 0 0 0 1073741824 0 0 134217729 0 524288 8 67108864 65536 0 0 16384 0 0 536870912 0 16 0 0 0 16777216 0 2147483648 0 0 0 0 0 16384 0 1073741824 0 150994944 2147483648 0 128 32 655360 34603136 0 32768 8388608 16 0 64 2 4 536870912 0 0 268435456 8396804 16384 32768 0 1024 8323264 1056896 0 0 0 0 8192 0 0 0 32 0 0 0 67141632 0 67109376 0 0 0 0 8388608 64 0 1073741856 0 4202496 33792 0 1 0 0 8196 0 262144 512 0 0 0 0 32 0 528 0 4329488 0 0 8 0 2130432 0 0 0 0 536870912 0 1073741824 0 16908288 0 16777472 0 524292 0 0 1024 32 537001984 0 0 0 0 2048 65600 0 134217728 0 0 4194304 8388612 0 0 268435457 0 67108864 0 4096 0 0 0 0 12582912 16 0 1342177280 16384 0 0 0 0 0 262144 4128 268566528 0 0 0 0 0 0 0 0 8650752 512 0 0 0 0 33792 0 0 268435456 1051136 0 64 276955136 192 67109120 33280 0 0 0 2147483648 0 64 0 10240 0 129 0 2048 0 0 0 2097152 0 1073807360 0 0 0 262144 0 4096 0 0 1073774592 1048576 128 0 1073741824 0 8389120 2048 0 131072 0 3145728 0 0 134217736 65536 0 4100 262148 2097152 0 0 4 0 64 2048 0 67108872 1048593 0 0 8388608 0 0 65536 2147549186 64 64 0 16793600 0 0 96 524288 0 33554432 512 0 0 1073741824 0 65536 8 0 32768 0 1048576 32 0 20 0 0 0 0 8 16384 0 0 0 0 134217728 0 0 4259840 256 0 1073741824 0 0 1073741824 0 65536 0 0 0 1056784 33554432 0 8192 0 0 2048 2148532224 0 8194 2 0 0 537264128 66048 33554432 1 1073741824 0 1024 0 0 32768 0 268435456 33554432 1 524288 0 134217728 0 0 0 0 33554432 0 0 2 1049088 0 1048576 4194304 0 131072 512 0 0 147456 4194304 512 0 4096 32 0 0 524288 0 0 0 0 268435456 4194304 0 4194305 0 536870912 0 285212672 32768 8396800 0 0 2 0 0 524288 16384 0 256 131072 0 0 524288 8323264 32 67108864 131072 0 0 128 4 0 524288 570425344 32768 0 0 0 8388608 0 0 32768 0 4352 4096 0 536871040 4194304 512 16777728 4194304 0 1024 0 134217728 16777216 0 0 1073741824 0 0 268435456 0 0 0 0 8 16384 1 8396800 268435456 0 0 0 0 0 603979776 0 0 0 0 0 0 0 0 0 2147483648 4194305 0 0 0 64 128 2147549184 4194304 0 262144 4096 0 2048 272 2 1024 16384 0 8 8192 0 33816576 0 536870912 536870912 163840 0 0 65536 16385 0 0 0 0 536870912 2 16 2 0 65536 0 0 0 0 0 0 176160768 512 0 8 0 4 0 0 524288 640 65664 4259840 268435488 2097152 0 256 1073741832 4194304 0 0 0 0 0 0 2101248 0 0 0 2097168 8388608 0 0 0 0 128 32768 0 4096 33562624 0 0 2151678212 0 0 0 536870912 536870912 0 0 553648128 4 2176 64 536870912 0 1024 16777728 0 0 67108864 67108864 32768 264192 256 134217728 8388608 0 0 0 0 0 0 512 16384 8 0 0 0 64 0 3221225472 8388608 1 0 0 0 0 524288 1050624 0 262148 1024 0 0 0 1073741824 33554432 150994944 0 294912 0 0 4194304 0 4194304 0 134217728 512 0 0 1024 16777216 2048 0 524288 2147483648 128 0 0 512 2228224 8192 16 0 0 0 33554944 0 16777216 16 268435456 0 1024 0 0 33554464 0 2281701392 262144 0 65664 0 0 0 34816 67112960 1024 512 1048576 0 1048576 0 0 0 16 0 512 0 0 0 536870912 1 1073741824 16 524288 16777216 1024 0 0 2304 131072 0 0 512 0 268435456 0 1024 4096 16 524288 67108864 0 2 0 524288 8 0 0 0 1073774592 8 2112 4194306 268435456 0 0 0 134217988 0 0 1 1073741824 0 0 0 0 0 655361 0 0 0 131072 524288 16 0 4096 0 528384 0 0 0 0 64 0 0 0 0 0 32768 0 264 2147483648 1073741824 0 0 0 64 64 2147483648 1024 35136 0 0 0 536870912 256 32768 0 0 16384 34603008 268435456 320 0 4 2 0 36 2 0 0 1 4194304 0 67110912 0 0 0 8200 0 128 1048576 536871936 1024 8192 0 335544320 3221227520 1073807360 256 1024 32 262144 0 0 0 0 0 8 0 65536 16384 4 0 0 0 8388608 0 0 0 0 4 16384 536871168 2 16 0 134217728 8388608 524288 0 0 16 0 0 0 0 532544 0 0 16 0 0 0 33554432 0 524289 128 0 2 256 136347648 0 0 1073741856 8 67108864 65538 138412032 0 64 0 0 1073741824 1024 0 16777216 0 8388608 0 4 0 0 0 0 0 65536 0 4194306 0 0 37376 2147483648 0 4096 16 0 0 33554432 0 4096 33554432 0 0 0 0 262144 128 262144 4194304 2048 136314880 1073742336 0 0 8388608 0 0 134218753 0 0 2147483776 16 0 0 0 1310720 131072 0 0 0 0 2560 8448 65536 131072 64 0 0 0 0 0 0 512 0 0 0 272629760 536870913 16777216 0 1152 65536 0 4 545521664 0 1073741824 0 0 131072 67108864 128 4210944 268435456 0 0 0 0 4096 0 1048576 0 256 0 0 0 8388608 0 0 268435456 32768 0 134225920 8 131072 0 0 256 1073741824 0 1 1049088 0 0 1048576 0 0 2056 32768 1073742080 67110912 0 0 524288 0 0 2281996288 0 128 8404992 1 0 0 0 131072 0 4194304 0 0 4194304 0 2 0 17842176 134217728 0 2 0 262144 0 0 0 131072 0 0 0 1140850688 0 262144 8388608 4194308 128 0 268435456 4194304 65536 262144 0 0 0 75497472 512 64 64 1024 0 0 67108864 0 8 524288 0 67108864 268435456 0 536875008 0 0 2048 1073741824 8192 0 1052672 0 2304 0 0 0 0 4096 0 0 2048 0 394240 4096 0 2147483648 0 0 0 0 268451840 0 0 0 4194304 65552 0 64 2 0 0 4 67112960 0 0 0 0 384 134217728 16384 2048 0 0 8192 0 8 0 0 8 2097152 0 0 0 0 2097152 0 0 0 268451840 0 4096 4194336 256 0 0 0 0 33554432 35651584 1073758208 0 4 0 0 4194304 3221225472 0 2147483648 1073741832 294916 268451840 32768 2048 262144 8388608 8192 0 0 524288 524288 4 134217730 0 67108864 0 0 64 263168 0 0 0 4194304 0 0 32768 0 2147483648 0 0 1024 268566528 0 0 8 0 0 0 536936448 0 9216 256 2 0 0 0 75497472 0 0 256 0 0 135266304 16 32768 0 2080 8388608 0 32768 16 2147500032 0 16777216 0 2147483648 0 0 128 0 524288 256 0 262144 32768 0 0 2048 0 578814080 4096 4 524288 0 0 0 2 1024 134217728 0 0 0 0 2097152 4194312 0 0 16384 16 0 536870912 0 1048640 268435456 0 4104 0 8388608 0 8192 1048576 2048 131072 0 0 0 0 4112 0 0 16777216 512 128 16384 8388608 4194304 8388608 2097152 0 1 1073741824 2 0 0 0 0 65536 2097152 8388608 8 262144 134217728 1048576 65664 0 2048 0 0 0 0 2147483650 134217728 272629760 65536 2147500032 0 0 0 0 1114112 0 2048 0 1024 0 6291456 33554432 256 2147622912 0 8388608 0 0 262144 1048576 65536 0 0 0 0 0 0 0 64 0 0 16 16777216 524288 256 4194312 0 16777216 32768 65536 192 32768 0 1 0 0 0 0 0 0 4 2147483649 0 524288 4096 131200 0 0 67108864 524288 0 0 4 512 0 0 0 0 0 0 0 0 0 0 1207959552 131072 524288 37748736 0 0 4 0 256 1208025088 512 0 0 0 0 0 2097152 0 0 0 0 0 134217728 131072 2148532224 16400 2048 512 0 16 64 0 0 0 0 0 268435456 268533760 512 0 0 4096 131072 67108864 0 0 0 0 64 262152 1 131072 32768 256 128 0 67108864 0 0 0 0 2281701376 136 0 0 1048576 16 131072 67108864 1024 0 0 32768 0 1073741824 0 4194304 0 2048 64 16777216 128 8 0 136839168 0 1 0 0 0 524545 512 0 1049088 0 128 1048576 4096 0 0 0 512 0 8192 16 4 268435456 0 32 0 8388608 0 0 0 0 4 0 4096 12582912 1073741824 0 1073741888 0 0 2621444 1280 16400 1082130432 256 0 2162720 0 524800 1 4096 0 0 0 0 0 0 2048
is_linear=0
shrinkage=1


Tree=1
num_leaves=64
num_cat=55
split_feature=9 9 9 4 9 0 0 9 9 9 0 0 0 0 0 0 0 0 0 0 0 0 0 0 0 4 0 4 0 4 0 0 0 0 0 0 0 0 0 0 0 0 0 0 0 0 0 0 0 13 0 0 0 0 0 0 0 0 0 0 0 0 0
split_gain=465629 25699.8 14806.6 3359.03 2210.71 1928.66 1870.04 1836.14 1765.84 1521.31 1462.03 1413.72 1361.56 1303.67 1234.49 1218.14 1468.63 1285.96 1155.24 1151.11 1146.28 1125.16 1113 1095.06 917.912 895.819 907.039 850.683 870.217 831.887 913.531 910.683 819.346 816.357 764.554 755.391 743.104 713.639 701.808 698.743 692.838 723.333 675.643 669.888 660.279 657.633 650.399 634.482 618.157 607.864 856.496 816.908 592.8 590.535 587.668 586.72 582 557.637 556.883 553.058 654.98 613.08 543.486
threshold=0.31622806191444403 0.44529914855957037 0.22140523046255114 0 0.55051019787788402 1 2 0.36032786965370184 0.26500600576400762 0.13921189308166507 3 4 5 6 7 8 9 10 11 12 13 14 15 16 17 18 19 20 21 22 23 24 25 26 27 28 29 30 31 32 33 34 35 36 37 38 39 40 41 0.32173123955726629 42 43 44 45 46 47 48 49 50 51 52 53 54
decision_type=2 2 2 1 2 9 9 2 2 2 9 9 9 9 9 9 9 9 9 9 9 9 9 9 9 1 9 1 9 1 9 9 9 9 9 9 9 9 9 9 9 9 9 9 9 9 9 9 9 2 9 9 9 9 9 9 9 9 9 9 9 9 9
left_child=2 3 5 6 11 -1 -2 19 18 24 -8 -3 -6 -9 -10 -12 -17 -18 -4 -5 -16 -11 -15 -19 -7 -13 -27 33 -29 31 -31 -23 -24 -20 -34 -25 -22 -28 -38 -26 -36 -42 -21 -14 -40 -33 -30 -46 -32 50 -49 -51 -47 -37 -52 -39 -50 -44 -35 -43 -61 -62 -63
right_child=1 4 8 7 12 9 10 13 14 21 15 25 43 22 20 16 17 23 27 42 36 29 32 35 39 26 37 28 46 30 48 45 34 58 40 53 38 55 44 -41 41 59 57 -45 47 52 -48 49 56 51 54 -53 -54 -55 -56 -57 -58 -59 -60 60 61 62 -64
leaf_value=0.0038863641768693922 -0.0043548380956053732 -0.0037644297257065779 0.0032412020117044446 0.0038149356096982947 -0.0032386361062526712 0.00019545454531907924 -0.0032184747979044914 -0.006294191665947438 0.0041832388937473293 0.0021636371314525614 -0.0037519342452287663 0.0086363638937473289 0.0022751658409833897 0.0056826600432395933 -0.0024469687789678563 -0.0024284502118825909 -0.0011577531695365906 -0.0015779212117195129 0.0046780300885438915 -0.0053310306370258327 -0.0032386361062526712 0.0038863641768693922 0.0057756835222244262 5.303017795085796e-05 -0.0037136363610625282 -0.0023636360466480267 -0.0010395622253417975 0.0018611542135477056 0.0014610396698117257 0.00069176729768514751 -0.0015422069281339657 0.0017209231853485109 -0.0049428285285830487 0.0027074163034558289 0.0060371576994657505 0.00071969769895076645 -0.0032601878046989441 -0.00063106477260589655 0.0055317436158657087 -0.010660511106252671 0.0046852139383554451 -0.0047829682193696495 0.0052435069531202305 0.020917397886514665 0.0039186222851276403 0.00014529228210449218 -0.004318181239068508 0.0038636369258165356 -0.0033279218524694455 0.0024271248281002053 0.0043841803446412085 -0.0028354106843471536 -0.006568181216716768 0.0038957981765270241 -0.0011509963870048518 0.0079683744907379141 -0.0071969692036509521 -0.00067210748791694537 -0.0037136363610625282 -0.0047875494882464401 -0.0035619119554758079 -0.0032386361062526712 0.0024438355863094343
leaf_weight=997 818 575 728 1252 707 869 638 789 861 983 589 19901 1178 2613 2594 955 1056 1363 547 826 1906 558 1889 1457 1533 673 873 579 707 723 950 780 555 537 1735 1625 1898 926 680 207742 2094 470 706 238162 949 1002 30338 775 1437 875 650 15301 44127 34295 25982 49389 61787 24034 17732 719 842 962 31357
leaf_count=997 818 575 728 1252 707 869 638 789 861 983 589 19901 1178 2613 2594 955 1056 1363 547 826 1906 558 1889 1457 1533 673 873 579 707 723 950 780 555 537 1735 1625 1898 926 680 207742 2094 470 706 238162 949 1002 30338 775 1437 875 650 15301 44127 34295 25982 49389 61787 24034 17732 719 842 962 31357
internal_value=0 0.0368597 -0.037017 0.0164987 0.0442667 -0.0422863 0.0275581 0.00981257 -0.02057 -0.0425002 0.0290214 0.0366044 0.0465757 0.0160965 -0.0141249 0.030185 0.031221 0.0326948 -0.0271791 -0.000499664 -0.0151162 -0.0378047 0.0172594 0.0341819 -0.0450125 0.0372276 0.0337404 -0.0280793 -0.0331005 -0.0382728 -0.0419516 -0.0331271 0.0152155 -0.0196271 0.0136382 0.0357905 -0.0133949 0.0345013 -0.0121498 -0.0452242 0.0144898 0.0130109 -0.0027995 0.0467792 -0.0108929 -0.0339021 -0.0342376 -0.0116429 -0.0425838 -0.0125261 -0.00799248 -0.0202151 -0.0346917 0.0372266 -0.00950379 0.0352817 -0.0431888 -0.00130505 -0.0214372 0.0112631 0.0120153 0.013043 0.0141436
internal_weight=0 426023 427127 113639 312384 323488 42796 70843 103639 322491 41978 72337 240047 44025 52471 41340 40751 39796 51168 26818 51610 112347 43236 38740 210144 71762 51861 50440 31624 111364 64897 46467 40623 18816 38734 37377 49016 51188 47110 209275 38179 36444 25566 239340 45212 45909 31045 44532 64174 43583 27407 16176 45129 35920 26632 50315 63224 24740 18269 34350 33880 33161 32319
internal_count=853150 426023 427127 113639 312384 323488 42796 70843 103639 322491 41978 72337 240047 44025 52471 41340 40751 39796 51168 26818 51610 112347 43236 38740 210144 71762 51861 50440 31624 111364 64897 46467 40623 18816 38734 37377 49016 51188 47110 209275 38179 36444 25566 239340 45212 45909 31045 44532 64174 43583 27407 16176 45129 35920 26632 50315 63224 24740 18269 34350 33880 33161 32319
cat_boundaries=0 1 49 96 142 188 236 283 329 376 420 466 512 559 606 652 698 745 789 790 837 838 882 883 930 975 1019 1067 1114 1159 1205 1250 1296 1343 1387 1433 1477 1524 1570 1617 1664 1709 1756 1804 1851 1893 1941 1988 2035 2079 2127 2173 2217 2264 2309 2357
cat_threshold=14680095 0 0 0 32 4259840 0 134217728 1 0 134217728 1073741824 2048 1076887552 1048576 0 0 0 0 1024 0 32768 0 0 8389120 0 67108864 34603016 1073745920 0 0 8 0 2147483648 0 2 0 16777216 4 0 268435456 0 0 0 0 262146 131072 0 32 96 0 0 0 0 0 0 134217736 0 0 0 33685504 0 2147745792 0 0 268959744 0 0 0 0 0 2097664 1207959552 24576 8256 0 512 0 32 0 0 72 0 8192 4096 0 18891264 0 0 0 0 0 0 0 0 268435456 0 2147483648 0 0 3145736 0 0 128 2101248 0 0 8192 64 16 0 0 0 0 4 268435456 0 256 0 524288 512 8404992 0 134217728 0 128 129 1342177280 0 1207959552 0 2130176 0 2 0 0 0 0 0 1179648 0 4194304 0 2751463424 65536 0 0 0 0 8388608 0 64 0 0 1 0 262144 0 16777216 0 4224 536870912 4 0 0 64 64 536870912 65536 2 17301504 67108864 32768 0 0 1048608 0 525056 0 1024 0 0 0 2147483648 0 268435456 0 524288 8192 0 0 0 0 4 0 8388608 256 0 0 0 1 268435456 2048 0 16777216 136314880 0 33554432 0 3825205248 0 262144 1073741828 0 1 0 0 1024 0 0 67108864 0 0 2097160 16 1024 0 1024 0 0 0 256 16384 0 1296 1 524288 0 16384 4194304 0 0 2 0 262144 0 268435456 4194304 0 16386 2048 0 0 0 0 0 0 0 16384 0 16793600 2147484676 0 131072 0 2097152 524288 32768 0 32 100665344 0 0 34078720 0 0 0 0 4096 12290 0 0 262144 0 262144 2 32 4112 0 134217728 0 2147483776 67108864 2048 0 4096 524288 0 2 0 524288 524288 16 262144 1074266112 0 0 0 0 1024 268435456 0 0 4 8388608 0 0 524288 0 0 0 33816576 16384 0 0 0 536870912 0 65536 8 0 134217728 142606336 0 0 0 0 1 8388608 0 0 16 0 0 0 0 847249408 2176 0 0 2 0 0 134217728 0 65552 4 537919488 0 0 0 256 17 0 1572864 2147483652 0 0 33792 0 0 262144 0 0 0 67108864 17 0 0 0 0 0 0 2147483904 285212672 0 0 0 128 8192 278528 0 0 150994944 0 0 1073741824 0 0 16990208 8 0 0 33816576 0 0 0 0 0 4 128 0 8 33555456 4096 2147483648 0 2147483648 1 8388608 1024 0 67108864 16 0 0 0 327680 2147483648 0 4 0 0 0 0 256 0 0 0 2 671088640 16 2147483904 0 4194304 268435458 0 8389632 2048 0 131072 16 0 0 4 2048 8400896 0 0 2 0 2101248 0 0 0 16416 1048577 0 524288 0 0 0 16 0 0 0 6144 0 0 32 1073741824 0 2 257 0 0 2147483648 0 2048 32 0 0 268435456 1073741824 2097152 1077936128 8 0 0 0 33554432 1073742912 0 2148532228 0 0 0 0 0 16777216 2359296 131072 0 131074 2 268435616 270352 0 131088 0 4 0 0 1073741824 0 32 64 32772 0 0 0 0 32 4194304 0 0 262144 0 67108864 268435456 8192 0 0 131072 0 0 0 0 0 0 64 2097152 805306368 0 0 553648128 0 0 589824 1024 134217728 268435456 67108864 0 0 0 0 0 512 0 0 0 0 134217736 0 512 65536 134217728 0 512 131072 0 0 16384 32 0 64 0 33554944 1107296256 0 8388608 32 0 2 2147483680 16777224 0 2147483648 512 0 0 32 0 524288 67108864 0 0 2 0 0 4104 34078720 4194304 134217728 0 4096 33693697 0 67108864 0 16777216 0 0 0 0 2147483648 0 134219776 0 8192 0 1024 0 32768 4 4194304 532480 2 0 0 536870912 0 5242880 0 0 0 512 524288 0 33554432 65536 0 32768 0 64 0 8388640 71434256 0 0 0 536870912 0 268470272 512 67108864 1073774593 0 0 0 16 0 0 0 0 0 0 8 0 8192 0 4 4 0 0 0 268443648 73728 256 2147483712 0 0 1024 0 0 0 2147483648 0 16777216 0 4194304 0 0 0 512 0 262144 0 1073745920 4194304 0 1024 0 0 0 0 37765120 33554440 1073742848 0 262144 2162688 0 0 256 268435460 33554432 0 2097156 0 8192 0 0 0 0 1073741824 0 0 1 0 524288 131080 0 65536 0 0 67371012 0 0 66048 537395200 67108864 10 0 0 33554432 0 33554432 8388608 262144 0 16384 0 0 0 268435456 536870912 0 131072 0 0 0 65616 131584 256 524288 32 0 524288 0 0 0 67108864 0 2147483648 65536 0 1073741824 8388639 0 8 0 0 2147483648 0 526336 32768 0 524288 0 0 0 2415919104 16 0 0 0 0 2048 1024 2147483664 0 262144 0 0 0 2147483648 131072 33554560 67108864 0 8388616 0 0 0 4718592 0 0 0 0 0 8388608 4 0 2052 9216 8323264 8320 0 0 0 0 8192 0 0 0 2097184 0 0 268435456 67141632 0 67109376 0 0 0 0 8388608 64 0 1073741824 0 4202496 33792 0 1 0 0 8196 0 262144 512 0 0 0 0 32 0 528 0 4329488 8356032 8396800 268435456 0 0 0 0 0 67108864 0 2097152 0 0 0 0 0 0 0 2147483648 1 0 0 0 4194368 128 2147551232 4194304 16777216 262144 4096 0 2048 16 0 1024 524288 0 524296 8192 0 33816576 0 536870912 537919488 131072 0 0 65536 32 67108864 131072 0 0 128 0 0 0 536870912 32768 128 0 0 0 4194304 1073741824 16809984 0 4096 0 0 128 4194304 512 16777728 138412032 2097152 0 32 2097152 0 0 1073741824 1073741824 0 0 268435456 0 0 0 0 0 16640 335544321 128 2097152 71303168 268435592 67108864 1073743872 65536 0 0 0 262144 0 0 0 4160 2147485696 0 0 1024 524288 0 1 0 0 0 67109128 0 4194304 0 0 0 131072 0 0 0 0 0 0 0 4 131072 67111168 0 537133056 0 0 8 0 2130432 0 0 0 0 536870912 131072 0 0 16908288 0 16777472 0 524292 0 0 1024 32 537001984 0 0 0 0 2048 65600 0 0 0 0 4194304 8388612 0 0 268435457 32 67108864 0 4096 0 0 0 0 8388608 16 134217728 64 65536 8192 128 524288 524288 16 0 0 0 0 0 0 16 0 4096 1073741824 0 0 260 0 0 0 0 0 0 0 16777216 0 0 0 268705792 1048576 134217728 16777216 16 134217728 2097152 0 0 0 2147483648 268435456 32768 0 256 1049088 0 1048576 0 0 131072 512 0 0 147456 1077936128 512 0 4096 32 0 0 524288 0 0 0 0 268435456 4194304 0 4196353 0 0 0 285212672 32768 8396800 0 0 2 0 0 524288 256 0 256 134348800 0 0 524288 0 129 0 0 0 0 0 2097152 0 1073741824 0 0 0 262144 0 4096 0 0 1073774592 1048576 128 0 1073741824 0 8389120 0 0 131072 0 3145728 0 0 134217736 65538 0 4100 262148 2097154 0 0 4 0 0 2048 0 67108872 0 0 0 0 1073741824 536870912 0 0 0 131072 8208 0 0 8192 0 0 0 2148532224 0 0 0 0 0 687996928 66304 0 0 1073741856 0 1049600 0 0 32768 16777232 268435456 131136 3 524288 0 134217728 0 0 0 0 33554440 0 67108864 0 17844224 268435456 0 0 0 262144 65536 0 0 0 0 0 0 1073741824 0 0 8388616 4 8388736 0 1077936128 0 541065216 262144 0 0 0 67108864 0 64 0 1024 1573120 0 67108864 0 33554432 0 268435456 67108864 268435457 0 536870912 0 0 0 0 0 0 0 4194304 0 32768 4608 2147483648 0 4096 0 0 0 33554432 0 4354 33554432 0 0 0 0 262144 128 0 4194304 4196352 136314880 512 0 0 8388608 0 1 134743041 0 0 0 16 524288 0 0 1310720 1179648 20972544 131072 2304 32769 16908304 0 8200 0 128 1048576 16778240 1024 545259520 0 0 0 0 524288 0 32 0 0 0 0 0 0 0 0 0 1 0 0 4194304 268435456 8388608 0 0 0 0 524288 2097152 16777216 32 8388608 0 2 0 0 33816576 67108864 512 0 16 0 64 0 8192 32 0 4 0 256 0 0 32 272629760 0 1 67108872 524288 67108866 0 4194304 0 128 0 2 0 0 0 64 0 270336 33554432 0 536870912 2 1073741824 0 4194304 0 1342177280 0 0 2048 0 0 0 0 2148536354 134217728 0 0 2147483648 0 0 67108864 0 65536 8650752 512 0 1024 0 4194304 2098176 256 0 268439552 2560 0 64 8388608 64 256 0 0 0 0 0 0 64 64 2048 0 0 0 0 512 8448 65536 131072 2097217 0 512 0 0 0 0 512 0 0 1024 4194304 0 16777216 0 0 589824 0 4 545521664 0 1073741824 0 32 131072 67108864 128 4194560 268435456 0 0 0 0 0 1048576 0 0 256 128 0 0 0 64 0 3221225472 0 1 0 0 0 0 524288 2048 0 262164 263168 1 0 0 0 33554432 150994944 0 294912 0 0 4194304 0 4194304 0 134217728 512 0 0 1024 16777216 2048 0 524288 2147483648 0 0 0 512 2228224 1 0 134217728 8192 33554432 0 6 0 524288 33554432 0 0 0 0 8388608 0 0 176177152 0 256 0 0 536870916 0 0 0 640 0 0 8388608 0 0 256 8 0 0 0 0 0 0 16 2101248 12 0 4194304 2097152 8388608 2048 262144 0 1073750016 8192 0 524288 524288 4 2 0 67108864 0 0 0 17040384 0 0 0 4194304 0 0 32768 0 2147483648 0 1073741824 1024 131072 0 0 0 0 1024 0 536936448 0 8192 256 32770 0 134217728 0 67108864 0 0 256 16 0 0 0 33554944 0 83886080 32768 268435456 0 1024 0 0 1048608 0 2281701376 0 0 65536 0 0 0 2176 4096 1024 512 1048576 0 1048576 0 0 0 16 0 512 0 0 0 536870912 1 0 32912 524288 0 134218752 128 64 0 0 0 0 0 2818572292 268435592 0 32 1048576 8388624 131072 16 0 0 0 32768 0 1073741824 0 0 0 0 0 32768 128 12 0 134742016 256 1 0 0 0 257 512 0 32768 0 128 0 4096 0 0 524288 0 256 0 8388608 16777216 65536 268500992 0 0 8192 0 131072 0 0 256 1073741824 0 0 1049088 0 524288 1052672 0 0 8 67141632 256 67108864 0 0 524288 0 0 2281963520 0 0 8404992 1 0 0 0 131072 131072 4194304 0 0 4194304 4 0 0 2048 0 8192 8 1052672 0 2304 0 0 0 0 4096 2097152 0 2048 0 279552 4096 32768 2147483648 0 0 131072 0 268451840 33554432 0 0 0 65552 0 64 2 0 0 4 67112960 0 0 0 0 384 0 16384 2097152 540672 0 4 0 32768 536871424 96 1073743888 0 0 0 2147483648 1 0 0 0 0 0 640 0 589824 256 0 262144 32768 0 0 65664 65664 536870912 0 4 4096 0 4194304 0 2 1024 67108864 0 0 131072 0 4098 0 528384 0 0 0 0 64 0 0 0 0 0 32768 0 67109128 2147483648 1073741824 0 0 2147483648 64 64 2147483648 1024 2048 0 0 0 0 256 32768 0 0 16400 101711872 0 16448 0 4 2 0 36 0 0 0 1 524288 0 4210696 0 0 8192 0 64 1073774592 0 1 0 1073741824 67108864 0 0 0 4 2147483648 0 0 0 131104 0 8192 0 34078720 0 0 4 512 1073741824 2 0 0 0 268435520 0 0 128 0 1140850720 0 0 71303168 0 524296 4 0 136 0 0 0 65536 0 524288 0 0 8192 0 0 0 0 131072 0 0 268435458 2 1073741824 16 0 0 0 1 262152 0 0 0 0 262144 67666436 0 32 2097152 4 0 0 0 0 16777216 16384 0 0 288 0 0 67108864 512 0 8192 16 0 0 0 0 0 0 0 0 0 0 0 0 2 8388608 1075838976 0 1073750080 0 64 2621444 1280 16384 1073741824 536871168 512 2162720 0 0 0 4096 0 0 512 0 2097152 33554432 536872960 0 0 0 163904 34079232 8388640 0 0 0 268435456 16777216 0 64 524288 4096 0 2 524288 524288 0 0 34078720 0 1073741824 0 64 16384 0 0 1073741824 0 134217984 0 0 524288 0 8192 0 0 0 2147483648 0 0 8388608 0 147456 0 16 0 0 16384 16 0 536870912 0 1048640 268435456 0 8 0 8388608 0 8192 1048576 2048 131072 0 0 0 0 4112 8192 131072 16777216 512 128 16384 8388608 4194304 8388608 0 0 1 0 2 0 0 0 0 65536 2097152 8388608 8 262144 0 33554432 0 0 0 0 0 0 32 0 0 2147483652 256 0 0 4096 67108872 0 0 536870912 0 2576 64 0 0 0 0 8192 0 1048576 268443648 4194304 8388608 128 0 32768 0 0 0 0 0 8388672 75497472 16385 0 4096 128 0 0 32768 0 0 33562624 557056 0 268435712 1 0 0 536870912 536870912 0 0 262144 512 128 0 64 4194304 0 65536 0 0 67108864 75497472 0 0 1280 16777216 8388616 128 2097152 0 0 0 0 8192 0 0 0 4 0 201326848 1073741824 512 0 0 0 134217728 0 2097152 0 0 0 0 0 134217728 0 2147483648 2147483664 16777216 0 0 0 536870912 268959744 0 0 0 0 268959744 98304 512 0 0 267264 4194816 536870912 0 131072 0 0 0 9 32768 8 0 0 0 0 2147483648 4096 0 32768 0 0 131074 0 0 0 32 0 0 1048576 0 0 1024 536875008 24 134217728 1073742336 0 16777220 32776 67108864 0 0 8 4096 0 128 147456 0 0 536870912 0 0 0 262144 0 33685504 32768 524288 2
is_linear=0
shrinkage=0.05


Tree=2
num_leaves=64
num_cat=56
split_feature=9 9 9 4 9 9 0 0 0 9 0 0 0 0 9 0 0 0 0 0 0 0 0 0 0 4 0 0 4 0 0 0 0 4 0 0 0 0 0 0 0 0 0 0 0 0 0 0 0 0 0 0 0 0 4 0 0 0 0 0 0 0 0
split_gain=449570 21397.9 18704 3455.24 2827.45 2097.21 1840.14 1817.96 1675.37 1541.77 1469.84 1399.15 1329.32 1393.38 1302.43 1253.06 1226.97 1183.78 1160.53 1100.07 1087.98 1087.91 1061.68 1002.91 989.841 964.29 1108.44 946.627 889.98 979.711 855.363 846.029 839.695 831.018 918.347 902.217 775.846 769.723 752.591 738.309 714.822 713.935 692.05 649.19 638.893 705.216 627.835 614.035 596.777 595.659 592.989 609.598 610.509 585.965 545.61 1003.79 935.337 741.261 736.047 645.461 605.785 573.718 526.326
threshold=0.33114035427570349 0.45972973108291632 0.22140523046255114 0 0.27195686101913458 0.61152571439743053 1 2 3 0.13921189308166507 4 5 6 7 0.37590579688549047 8 9 10 11 12 13 14 15 16 17 18 19 20 21 22 23 24 25 26 27 28 29 30 31 32 33 34 35 36 37 38 39 40 41 42 43 44 45 46 47 48 49 50 51 52 53 54 55
decision_type=2 2 2 1 2 2 9 9 9 2 9 9 9 9 2 9 9 9 9 9 9 9 9 9 9 1 9 9 1 9 9 9 9 1 9 9 9 9 9 9 9 9 9 9 9 9 9 9 9 9 9 9 9 9 1 9 9 9 9 9 9 9 9
left_child=2 3 6 8 21 11 -1 -5 -2 30 -9 -3 -10 -14 17 -15 -6 -12 -18 -7 -17 -4 -16 -11 -13 32 -27 -24 36 -30 -8 -29 -23 34 -25 -35 -26 -31 -20 -36 -22 -40 -19 -28 -32 -46 -34 -21 -44 -43 -33 -52 -53 -37 55 -51 -56 -58 -57 -59 -60 -61 -39
right_child=1 5 4 7 16 19 9 10 12 23 14 24 13 15 22 20 18 42 38 47 40 25 27 33 28 26 43 31 29 37 44 50 46 35 39 53 -38 62 41 -41 -42 49 48 -45 45 -47 -48 -49 -50 54 51 52 -54 -55 56 58 57 59 60 61 -62 -63 -64
leaf_value=0.003692045968025923 -0.0038061505649238827 -0.003814303463324906 0.0037226911708712592 0.0057842408418655403 -0.0031183710023760776 -0.0019032179526984718 0.00033653005212545275 -0.0060511798765510334 -0.0030917293271049864 0.0020554552748799334 0.0030730201378464678 -0.0020194310303777471 -0.0024514060467481615 -0.001708162736147642 -0.0054178512576036151 -0.00038990139216184554 0.0033585472330451005 0.0042189108356833456 0.0052551564350724229 0.005525399290025235 8.8474009186029223e-05 0.0037648606952279812 0.0049416490681469423 0.0041417527943849565 -0.00012878713756799831 0.0028764702044427382 0.0017451297771185648 -0.0045481720138341175 -0.0015259431004524234 -0.00042704206705093396 -0.002427953617647291 -0.0030605405084788819 0.0030438686665147543 0.00065717893280088928 0.0011054647713899608 -0.0010212061041966079 0.0097670456990599629 0.00059193420410156303 -0.003576704569160938 -0.0058647725135087987 0.0037010082677006728 0.0037226911708712592 -0.0039966973513364786 -0.0040584039762616153 -0.0047639441192150137 -0.010163822777569297 -0.0034589889887720357 0.021595666848123075 0.00021553558856249045 -0.0032993295341730124 -0.0026346743926405902 -0.002244763372465969 0.0035527390763163552 -0.0068371207434684061 0.0041948015913367276 0.0038435271829366682 0.0035527602620422818 0.0020840657949447619 0.0037010082677006728 0.0013275073543190963 -0.00058193887770175985 -0.0021058924719691259 0.0089985285997390748
leaf_weight=965 667 585 700 3217 2153 791 746 1078 530 908 1548 834 741 909 690 1250 1015 991 813 1391 1350 572 2585 552 685 657 681 756 732 1155 1240 688 562 754 838 1016 27387 1066 1548 36058 32512 887 709 29643 2176 205998 24645 200845 26420 1235 901 1162 34424 72237 714 785 959 1131 690 1259 16584 27301 66529
leaf_count=965 667 585 700 3217 2153 791 746 1078 530 908 1548 834 741 909 690 1250 1015 991 813 1391 1350 572 2585 552 685 657 681 756 732 1155 1240 688 562 754 838 1016 27387 1066 1548 36058 32512 887 709 29643 2176 205998 24645 200845 26420 1235 901 1162 34424 72237 714 785 959 1131 690 1259 16584 27301 66529
internal_value=0 0.0370459 -0.0355717 0.0184985 -0.0182077 0.0439937 -0.0417196 0.0122834 0.0307949 -0.0419252 0.0106348 0.038026 0.0322047 0.0333433 0.0115188 0.0347437 -0.0103252 0.00353243 -0.00886658 0.0469029 0.0362479 -0.0260372 0.0172718 -0.0371986 0.0384825 -0.0267994 -0.0327563 0.0183191 0.0389478 0.0358876 -0.0444542 0.0163135 -0.0196305 -0.037623 -0.03151 -0.0407116 0.0465067 0.0365023 -0.0098672 -0.0324717 0.0379428 -0.0106011 0.00118023 -0.0341531 -0.0446434 -0.0448579 -0.0209958 0.0471317 -0.000326099 -0.00959073 0.017382 0.0182522 0.0192831 -0.0412739 -0.0103043 -0.00368317 -0.014375 -0.015698 -0.000689025 -0.0170988 -0.00285235 -0.0185684 0.0371962
internal_weight=0 415128 438022 113128 114534 302000 323488 75169 37959 322523 71952 98973 37292 36762 70874 36021 57074 29668 54921 203027 35112 57460 41206 112363 98388 56760 30981 40516 97554 69482 210160 37931 25779 111455 37448 74007 28072 68750 53906 36896 33862 53093 28120 30324 209414 208174 25207 202236 27129 51545 37175 36487 35586 73253 50658 19294 31364 30650 18059 29691 17274 28560 67595
internal_count=853150 415128 438022 113128 114534 302000 323488 75169 37959 322523 71952 98973 37292 36762 70874 36021 57074 29668 54921 203027 35112 57460 41206 112363 98388 56760 30981 40516 97554 69482 210160 37931 25779 111455 37448 74007 28072 68750 53906 36896 33862 53093 28120 30324 209414 208174 25207 202236 27129 51545 37175 36487 35586 73253 50658 19294 31364 30650 18059 29691 17274 28560 67595
cat_boundaries=0 1 49 91 138 182 228 272 319 366 413 457 503 550 596 642 689 735 782 783 827 873 874 921 965 1012 1060 1061 1106 1153 1200 1245 1292 1339 1385 1431 1478 1525 1572 1618 1665 1711 1758 1805 1850 1898 1945 1989 1990 2038 2086 2133 2180 2224 2271 2318 2365
cat_threshold=12582943 0 0 0 32 4259840 0 134217728 1 0 134217728 1073741824 2048 1076887552 1048576 0 0 0 0 1024 0 32768 0 0 8389120 0 67108864 34603016 1073745920 0 0 4194312 0 2147483648 0 2 67108864 16777216 4 0 0 0 0 0 0 262144 131072 0 32 0 2097152 0 268435528 67108864 8390688 4194320 0 0 0 536870912 0 402688000 512 4160 0 2 0 0 32 0 0 0 0 0 8 0 0 8192 0 0 4 0 0 0 268443648 73728 256 2147483712 0 0 256 32 0 0 0 0 0 0 384 0 8388608 0 33554432 0 2147745808 0 0 268959744 16777216 0 0 0 2 512 1073741824 0 16384 0 0 2048 32 0 268435456 64 0 0 8 4104 50348032 0 0 0 0 0 0 0 4194304 268435456 134217728 1073741832 16384 0 0 0 524288 1024 262144 34 402653184 4194304 0 0 0 0 0 0 32 0 0 0 0 0 2097152 1024 0 8192 16777216 3145728 524288 0 276824064 1049056 67108864 0 0 0 0 2147483648 0 0 4096 268435458 0 67108864 268435456 0 0 0 0 8388608 0 0 0 0 0 0 262144 0 16779264 0 4224 0 4 2147483648 0 0 2097216 536879104 65536 0 554303488 0 32768 0 131080 128 0 0 0 0 524288 0 0 2147483648 0 268435456 0 526340 16 0 0 142606336 8 0 0 2147483648 2101248 0 0 8192 64 0 0 256 0 268435456 0 2 33554432 0 2097152 134742016 520 0 0 0 1048576 0 129 1073741824 0 0 0 36866 2147483648 2097664 16781312 1024 0 0 0 1048576 1 0 0 0 0 0 0 0 285736960 0 0 0 0 0 16384 0 0 570425344 0 268435456 0 256 0 212992 16384 8192 16 713294336 4 128 0 2097152 0 134217744 0 524288 0 0 1073741824 0 0 0 1 131072 0 0 67108864 1024 0 67108864 16 0 0 0 0 0 0 4 0 0 0 262144 0 0 134742016 0 33554432 134217736 0 2147483648 4194304 65536 268435458 0 0 268435456 0 131072 0 0 0 0 1050880 8388608 0 0 0 0 2149584897 262144 8388608 0 32 65536 1024 134217728 0 67110912 268435456 0 0 2097152 0 66048 0 0 0 262144 134217736 0 0 65536 134217728 1048576 512 131072 0 0 16896 32 0 64 0 34603520 1073741824 0 8 65536 0 4096 0 16777226 0 0 0 0 0 32 0 0 67108864 0 131074 0 164000 50602000 0 67174400 0 0 0 0 1073741824 4096 524288 0 6 0 0 0 16 0 4194304 0 0 262144 0 67108864 0 0 0 0 134217728 0 0 0 0 0 2147483648 0 2097152 536870912 1 32 16777216 2176 262144 32770 96 16 2147483648 134217728 0 128 67108864 2048 0 528384 2048 0 2 1073741824 524288 524288 16 0 0 0 0 32768 512 1024 268435456 0 0 4 8388608 0 0 524288 0 0 0 33554432 0 0 0 0 536870912 0 65536 8192 0 0 0 0 4 65552 131072 8388608 0 0 0 8388609 268435456 0 0 32768 0 0 0 8 1090519040 2097152 0 4 0 5 536870912 128 1073742848 0 0 67108864 0 0 8 16 1024 0 1024 0 4096 0 256 0 0 1296 576 16 1048576 4194304 0 0 512 66048 0 0 1077936128 1073741824 4194304 0 32 0 0 0 0 4210688 536870912 1073742848 0 0 2149580800 0 0 0 0 16777216 0 8388624 65536 0 4 0 0 524288 16384 2 0 0 0 64 8 2052 65537 0 524288 0 0 0 150994960 0 0 0 2049 0 0 33554432 1073741824 0 2 256 0 0 2147483648 0 0 0 0 67108864 269484032 4096 0 1077936128 8 0 0 0 33554434 1088 0 1048576 0 16384 0 0 524288 16777216 2097152 2228224 0 33554432 65536 4194304 0 0 1024 0 0 2147483648 0 0 0 2 2064 4096 0 1073741824 2147483648 536870912 256 512 16 0 524288 2147483652 0 0 0 67108864 75497472 4194304 0 0 33556480 8388608 0 0 2097152 0 16777216 0 2155872256 0 8 0 256 0 0 2 0 0 4104 34078720 4194304 134217728 0 4096 33693697 0 67108864 0 16777216 0 0 0 0 0 0 134219776 0 8192 0 1024 0 32768 0 0 532480 0 0 0 536870912 0 5242880 134217728 0 0 512 524288 0 33554432 65536 0 0 65536 16 0 0 0 0 0 0 0 0 1 0 0 0 0 67108864 0 805322752 33554434 603979780 0 134479872 512 0 1 2 0 1048960 0 4 1 32768 268435456 35651872 0 9216 0 0 0 0 0 0 0 0 1024 16744640 1056768 0 0 0 0 0 0 0 0 2097152 0 0 268435456 67141632 0 512 0 8388608 1024 0 0 1073741824 32768 0 8192 4202496 99328 0 0 131072 0 268443652 0 262144 512 0 0 0 0 0 0 134217746 603979776 71434256 4194432 0 4195328 0 262144 0 131072 0 0 0 16778240 0 8192 0 335544320 3221260289 1073741824 256 1024 0 262144 0 0 0 0 256 8 0 0 16384 4 131072 0 0 0 0 0 0 0 524288 16384 536872960 0 536870912 0 2147483648 8388639 0 536870920 0 0 2147483648 0 526336 0 0 0 0 256 0 8192 16 0 0 0 0 0 1025 16 0 131136 256 0 0 2147483656 0 33554496 0 0 36864 0 2097152 131584 4194304 4 0 134217728 0 0 134217728 0 1073741824 268435456 32 0 0 262148 0 0 66048 536870912 67108864 10 0 0 33554432 0 33554432 8388608 262144 0 16384 0 0 0 268435712 64 0 131072 0 0 0 65616 131072 256 524288 0 0 524288 0 2 0 67108864 268435456 2147483648 65536 0 1073741824 524288 0 128 0 0 0 0 134217728 8192 17301504 2 260 0 8192 0 536870912 536870912 0 0 16777216 4 2192 64 150994944 16777216 0 16777216 0 536870912 0 268435456 0 0 16 0 512 128 2097152 0 0 0 0 8192 4096 0 32768 4 64 0 1024 0 2097664 0 4096 0 0 0 0 1073741824 0 131072 256 16777472 0 4 2155872256 0 0 2097152 133248 0 0 0 1073741824 0 64 0 0 0 0 0 4 0 0 268435456 2 67108864 0 0 0 0 138412032 0 8388608 16 8323136 0 0 131072 0 0 128 4 0 2 570425344 32768 0 0 0 8388608 0 0 32768 0 4096 4096 0 536871040 4194304 512 17302016 4194304 0 1024 0 131072 16777216 0 0 1073741824 0 0 268435456 0 0 0 4096 8 16384 9 8396800 0 0 0 0 67108864 0 603979776 0 0 0 0 0 0 0 8192 0 0 4194305 0 2147483648 0 4194368 128 2147551232 4194304 0 262144 0 0 2048 24 2 0 16384 0 8 0 0 33554432 0 536870912 536870912 163840 0 0 65536 0 0 0 8388609 0 0 65536 3221225472 2112 64 0 16384 32768 0 64 0 0 0 132608 0 0 1073741832 0 4194304 0 0 32768 0 0 0 536870912 16 2148007936 8192 512 0 8388608 0 256 0 0 0 1572864 8192 0 4194304 128 0 131073 0 0 1073741824 536870912 0 134217728 0 131072 0 50339840 16 2147483648 0 0 0 2148548608 0 0 134283264 134217728 0 65664 1073807360 0 128 1208221696 0 0 0 0 0 83886080 0 0 1 536870912 0 0 0 0 0 16384 557056 0 0 0 0 4096 1073741824 67239936 1 0 0 0 0 0 524320 0 264192 0 0 0 0 32800 524288 134217856 0 67108864 0 268435456 71303168 0 4194304 8 131072 512 0 0 1024 16777216 0 0 2686980 2147483648 16777216 0 0 0 0 8192 540672 67108864 128 0 0 536870912 0 16 524288 0 65552 0 0 16777216 0 0 0 134217728 0 256 8 16 4 8192 0 0 640 2048 0 301989920 134217728 0 0 0 4194304 0 0 1024 0 0 0 2097152 262148 0 0 2097152 8388608 1048584 0 0 524288 16777216 0 0 32 72 147456 0 0 0 0 1024 0 67108864 0 1073741824 0 0 0 0 8256 0 3072 32768 0 0 0 32768 8196 0 8192 1073741826 16384 1048576 0 256 0 16640 131074 0 0 524288 16384 0 2214592513 0 1064960 0 0 0 0 262144 262144 0 0 0 0 0 4096 0 0 32768 8388608 4 8388736 0 4194304 8388608 536936448 0 131072 0 2097152 67108864 0 134217728 0 0 557056 36 0 0 2181038080 4 0 0 2049 0 67108864 0 0 258 1 0 0 131584 16 268435456 0 2147484672 512 8192 16384 0 32768 65536 524288 524288 524288 0 33554433 0 0 0 67108864 0 268435456 0 0 0 0 0 0 0 2147483648 0 16 1073741824 0 2147483648 1024 0 0 0 4210688 589824 4 0 0 1073745920 0 8704 0 0 0 2 4 0 0 0 0 67371008 0 536870912 65536 0 8388608 0 64 1073741824 2147483648 0 0 1024 131072 0 0 8 0 67109888 0 0 0 9728 0 33026 0 524800 0 4096 0 0 256 0 0 67108864 8388608 0 128 524288 4194304 0 32768 4608 0 0 0 0 0 0 0 0 4096 33554432 0 536870912 0 0 0 128 2097152 4194304 4194816 2097152 512 32 0 8388608 0 1 134218753 0 0 128 512 524288 0 2 0 1179648 0 0 0 0 0 131072 0 2 0 0 32768 2147483648 0 2147487744 17 520 0 167772160 0 258 8 0 0 0 0 262144 0 327689 0 2084 134217728 1073741824 0 8 0 0 0 524288 134217728 0 0 16 1048576 0 0 1310720 0 0 16384 8208 0 0 0 1048640 268435456 0 4112 0 0 0 0 0 2048 524288 0 0 5120 0 0 0 0 32768 0 1073741952 0 8388608 138412032 8421376 0 4194304 1 1073741824 258 1 32 262144 0 4096 0 8388608 0 0 4194304 0 0 0 0 0 8192 0 0 2097217 0 0 0 0 0 0 0 262144 33554432 1792 4194304 536870912 0 16 9216 0 64 0 134479908 0 0 0 0 0 67108864 262144 4210944 268435456 524288 0 0 0 0 1310720 1048576 268435456 268435712 0 1048576 0 8192 2048 524288 0 0 0 0 524800 0 65536 2147483648 0 65536 0 0 1048576 262144 2048 0 4096 2147483648 0 33587200 0 132096 0 8389120 0 64 262144 0 65536 66048 262144 0 0 0 0 64 64 0 0 0 16777216 0 0 131072 0 33554432 0 0 0 268435464 0 0 0 0 1048576 0 3355443220 262144 0 65536 0 0 1073741856 2048 4096 263168 0 0 0 1048576 0 0 524288 67108880 0 512 0 0 2048 536870912 32 0 16 0 16777216 268435968 0 4 0 256 1073741824 0 0 0 0 8388608 524288 32768 0 0 0 0 0 134217728 131072 0 16 0 1024 0 0 0 4210688 0 4 134217728 0 1024 98304 0 262144 0 0 16448 0 33554432 0 256 0 64 1 24577 163840 0 67108864 0 16 2147483776 4352 0 128 1 0 131072 0 0 0 0 0 0 0 0 2048 1 8 0 0 1073742336 8388608 4608 131080 67108864 268435456 0 8 0 0 1152 1048576 0 524288 536870912 0 0 2281701376 262144 0 33554432 0 0 2 536870912 64 512 512 0 8 0 0 4194304 393216 0 0 2097152 0 0 0 16777216 3145728 4 33816576 512 2097152 0 0 0 0 0 294912 0 16 134217728 0 1024 1024 4456448 131072 0 0 131072 0 0 0 16777216 32768 0 2101248 262144 128 268435520 0 0 0 0 0 1207959552 268435592 2097152 0 1048576 16 131072 67108864 1024 0 2147483648 0 0 0 256 0 0 0 0 16809984 128 4100 0 0 256 0 1073742848 0 0 524545 8192 0 1048576 0 128 0 4096 16646147 131104 0 0 0 2097152 256 0 0 0 0 0 0 139281 0 0 0 0 0 0 0 0 6 1073741888 268435456 134217728 268435520 0 33 2147483648 0 0 32 0 1141391394 0 0 8192 0 0 0 0 0 536870912 0 0 1048576 0 1 0 0 0 8388608 2097152 0 512 524288 0 0 0 4096 8208 0 0 32768 65536 0 0 0 0 2147483652 32768 2 8192 64 0 0 0 1073741824 0 1073741824 0 134479872 0 4194304 8192 4194304 64 0 0 0 0 4194304 262144 0 0 4 16 0 138412032 0 1048576 40968 0 537001984 0 0 0 0 0 0 0 268435968 0 0 128 0 2147483648 1048576 0 0 0 0 2621440 0 0 32 0 536870928 258 2147483656 1 0 0 4352 0 0 0 32 0 0 33554432 131072 18874368 33554432 256 65544 131072 32 0 268435456 32768 0 8192 8 0 0 0 0 0 0 0 0 0 0 4096 0 0 0 1048576 4194304 0 42008576 4 524544 16777217 0 0 0 0 0 1 16777216 0 1073741824 0 1073872896 0 1024 0 4194304 1048576 0 1073743872 0 0 256 0 67108864 0 134217728 0 0 0 0 0 0 0 553648129 268435969 4096 1073741832 0 524288 0 2048 0 0 2 2097152 0 0 268443648 0 67108864 0 0 0 0 266240 2 268435456 1074266240 0 524304 524288 0 1024 1073741824 0 0 0 80 134217730 0 32 0 0 16777216 0 0 0 0 1048578 0 0 0 0 0 0 33554432 1073741888 0 0 67108928 0 0 0 0 0 128 16386 2147483648 0 1048576 0 131072 268435456 64 1048578 262144 134217984 0 0 0 524288 16785408 0 553648128 0 0 0 1024 67108864 0 0 0 0 0 8388608 131072 2 0 0 0 0 134217728 67108864 8437760 536870912 0 16384 0 2147483648 0 1090519044 2 16777216 0 4 512 4194368 0 32768 0 0 0 0 196608 4 0 0 0 32 0 0 131072 0 537395200 16 0 33554432 268435464 0 512 0 8390656 0 1073743872 0 1073741824 262144 16785408 524288 1 2048 545259520 0 0 0 0 0 1025 0 0 0 524288 0 0 0 0 0 131072 33554432 0 8448
is_linear=0
shrinkage=0.05


Tree=3
num_leaves=64
num_cat=55
split_feature=9 9 9 4 9 9 9 0 0 0 0 9 0 0 0 0 0 0 4 0 0 0 0 0 4 0 0 4 0 0 0 0 0 0 0 0 0 0 0 0 0 0 0 0 0 0 0 0 0 0 0 0 0 0 0 0 13 0 0 0 0 0 0
split_gain=435301 21249.3 18463 3534.17 2760.85 2186.27 2044.52 1709.7 1689.07 1504.34 1315.57 1266.96 1373.89 1168.69 1168.09 1143.3 1142.4 1139.68 1068.96 1097.06 1033.3 1271.84 1437.56 1077.43 1011.57 1001.21 980.254 958.98 978.471 956.277 942.699 907.206 901.503 894.032 810.251 800.246 769.041 760.06 737.898 729.621 724.683 680.536 679.4 766.826 677.188 668.18 647.753 649.028 641.286 623.583 620.946 600.545 588.466 576.842 612.59 573.157 555.506 885.326 841.75 770.934 667.383 584.848 545.763
threshold=0.33114035427570349 0.45972973108291632 0.22140523046255114 0 0.27195686101913458 0.14839839935302737 0.66915422677993786 1 2 3 4 0.39314988255500799 5 6 7 8 9 10 11 12 13 14 15 16 17 18 19 20 21 22 23 24 25 26 27 28 29 30 31 32 33 34 35 36 37 38 39 40 41 42 43 44 45 46 47 48 0.28679654002189642 49 50 51 52 53 54
decision_type=2 2 2 1 2 2 2 9 9 9 9 2 9 9 9 9 9 9 1 9 9 9 9 9 1 9 9 1 9 9 9 9 9 9 9 9 9 9 9 9 9 9 9 9 9 9 9 9 9 9 9 9 9 9 9 9 2 9 9 9 9 9 9
left_child=2 3 5 7 14 15 9 -2 -5 -3 -10 12 -12 -7 -4 -1 -11 -6 30 -20 -9 -22 -23 -24 33 -13 -19 29 -29 -16 -18 -26 -8 -15 -21 -27 -14 -28 -36 -37 -38 -30 -17 -44 -25 -35 -39 -48 -40 -31 -46 -33 -47 -41 -55 -42 58 -58 -49 -59 -60 -62 -53
right_child=1 6 4 8 17 13 32 20 10 16 11 25 36 24 27 42 18 26 19 34 21 22 23 44 31 35 37 28 41 49 -32 51 -34 45 38 39 40 46 48 53 55 -43 43 -45 50 52 47 56 -50 -51 -52 62 -54 54 -56 -57 57 59 60 -61 61 -63 -64
leaf_value=0.0024474837020039527 -0.0036158430366776879 -0.0043527550064958653 0.0027800945531576862 0.0058606380283832554 -0.0030020358186215153 0.0042254091065377008 -0.00010720179621130089 -0.0020829359960276629 0.005913242393359542 -0.0015402503997087509 0.0040305836346000408 -0.0043209924765862523 -0.0054635290510952478 0.0037974580302834516 0.0036008434095419956 -0.0013394228979945217 -0.00055306691788137026 0.0041833054278045904 -0.0019184594788588583 -0.00025115135135128918 -0.0023151963502168666 -0.0015571435820311314 -0.0012344105247408172 -2.4345651455223718e-05 0.0024447707839310162 0.0051937908379361027 -0.0032766565900295974 0.0031402676103636619 0.0014573245947249237 -0.0037572494062595055 0.010027376354113222 0.00018399388426914854 0.021886352241411805 0.001484958745539189 0.00039328218102455126 -0.005208126039640046 0.0045097244951874003 0.0053988190080970534 0.001666485394723713 -0.0031160768397152402 -0.0058369953726418317 -0.0038993519783020016 -0.0037174870940856644 -0.0095448895614594249 0.00097690702583640718 0.00060814024135470441 0.0031299670275300759 -0.0019532888818532212 0.0095009830653667443 -0.0028550048253498969 0.0036268937211483723 -0.00074555304944515233 -0.0053720654539763935 -0.0020760257642716191 0.0033352295953780393 0.00022753270082175871 0.0020384233199059964 0.0015971983023919168 0.0034607149999588724 -0.0020300317991524932 0.0034593393445014942 -0.00061871698722243407 -0.0063751050822436822
leaf_weight=686 681 661 758 2939 1921 649 932 427 2434 1099 1873 664 801 526 678 1071 644 815 834 1255 665 1016 1168 1091 663 2178 1574 581 685 1841 36064 794 170085 701 1449 637 1216 715 1474 648 711 29636 2107 218350 1639 820 1000 1316 87503 23281 31272 1007 28563 1092 27151 32825 1086 1298 661 22796 688 23204 67551
leaf_count=686 681 661 758 2939 1921 649 932 427 2434 1099 1873 664 801 526 678 1071 644 815 834 1255 665 1016 1168 1091 663 2178 1574 581 685 1841 36064 794 170085 701 1449 637 1216 715 1474 648 711 29636 2107 218350 1639 820 1000 1316 87503 23281 31272 1007 28563 1092 27151 32825 1086 1298 661 22796 688 23204 67551
internal_value=0 0.0366155 -0.0348405 0.0181326 -0.0175887 -0.0409487 0.0435391 0.0305684 0.0118471 0.0388382 0.0103308 0.00906656 0.00280286 -0.0348599 -0.0253254 -0.0437236 0.0392183 -0.00979956 0.0396513 0.0367668 0.0320076 0.0329088 0.0341723 0.0358698 -0.0352894 0.0163114 -0.00847398 -0.0261479 -0.0321008 -0.0190081 0.0469089 -0.0386169 0.0471395 -0.0276682 0.0372877 0.0175842 0.000597531 -0.00929381 0.0378433 0.015414 0.00172027 -0.0333372 -0.043922 -0.0441161 0.0374956 -0.0288031 -0.00826733 -0.00891969 0.0384219 -0.0205953 0.0387853 -0.0391756 -0.0299578 0.0165859 0.0176601 0.000339832 -0.00970348 -0.0149921 -0.00455951 -0.0169806 -0.00246102 -0.00384068 -0.0396789
internal_weight=0 415128 438022 113128 114534 323488 302000 37959 75169 130983 72230 69796 37426 101274 57460 222214 130322 57074 129223 92515 37278 36851 36186 35170 100625 32370 55153 56702 30902 25800 36708 70015 171017 30610 91681 31706 35553 54338 90426 29528 34752 30321 221528 220457 34002 30084 52764 52049 88977 25122 32911 69352 29383 28891 28243 33536 51049 25180 25869 24094 24553 23892 68558
internal_count=853150 415128 438022 113128 114534 323488 302000 37959 75169 130983 72230 69796 37426 101274 57460 222214 130322 57074 129223 92515 37278 36851 36186 35170 100625 32370 55153 56702 30902 25800 36708 70015 171017 30610 91681 31706 35553 54338 90426 29528 34752 30321 221528 220457 34002 30084 52764 52049 88977 25122 32911 69352 29383 28891 28243 33536 51049 25180 25869 24094 24553 23892 68558
cat_boundaries=0 1 48 90 137 183 230 278 324 369 416 460 461 508 552 599 646 692 693 737 783 784 828 876 923 967 1014 1059 1104 1151 1194 1240 1288 1334 1381 1428 1471 1518 1564 1611 1656 1703 1748 1795 1842 1889 1935 1982 2029 2076 2123 2169 2216 2263 2307 2351
cat_threshold=12582943 32 0 0 0 0 0 0 2147484032 0 8388608 0 33554432 0 2147745808 0 256 268959744 0 0 8 33554432 2 2097664 524288 0 16384 0 0 1048576 32 0 0 64 0 0 32768 4104 33570816 0 0 0 0 0 0 2 4194304 268435456 0 2097152 0 268435688 67108864 8390656 0 0 0 0 536870912 0 402688000 0 4160 0 2 0 0 48 0 0 0 0 0 8 0 0 8192 0 0 4 0 0 0 268443648 73728 256 2147483712 0 0 1280 0 67108864 268435456 0 0 0 0 8388608 0 0 0 0 0 0 262144 0 16777216 67108864 0 33554432 4 2147483648 0 262208 2097216 536879104 65537 512 554172416 1048576 32768 0 0 0 0 0 16 0 524288 0 0 2147483648 0 268435456 0 526340 1024 4194304 163840 0 0 262416 1073741824 2310144 0 0 0 17039360 1024 536870912 0 0 1 0 524288 0 524288 32 4194304 0 0 2 67108864 67108864 0 0 0 0 131072 4194304 268435456 0 0 0 0 0 524288 536870912 67110912 32 0 0 2147483648 0 2 0 163840 50339840 32 67108880 0 0 0 2147483648 1073741824 4096 524800 0 32774 0 0 0 8 0 1 0 0 262144 0 0 268435456 0 0 0 134218752 0 0 0 0 64 2147483648 0 2097152 0 1 0 25165824 0 4210688 65536 0 0 2 32 65536 8 34078720 1 0 0 0 0 3145728 68157440 0 0 0 0 32768 0 32768 0 0 8388608 0 67108864 34603016 4096 32768 4 0 262144 0 0 2 0 0 5242880 0 268435456 0 2 0 0 33554432 196608 0 32 1 0 524288 0 0 0 150994944 0 0 0 2048 0 0 32 1073741824 0 2 257 0 0 2147483648 64 0 0 0 0 1048576 1073745920 2097152 4194304 8 0 0 0 33554432 1088 0 2148532228 0 16384 0 0 524288 16777216 2359296 2228224 0 0 262148 0 0 512 671088640 0 10 167772160 1073741824 33554432 0 0 0 262144 0 16384 1024 0 0 0 0 8388608 0 0 1048576 1073741824 80 0 8 0 2147483648 524288 524290 0 2 0 67108864 268435456 0 0 0 1073741824 262146 0 0 0 0 0 0 0 0 0 0 0 0 1 2415919104 0 0 0 2147483648 0 805322752 2 1275068416 0 134348800 1073807872 0 0 2 0 384 0 4 131081 67141632 268435456 35651616 0 1024 0 0 0 4096 0 0 0 0 256 1024 201326592 0 2048 268435456 0 0 2097152 0 66048 0 0 0 262144 8 0 0 65536 134250496 1048576 512 131072 0 0 8405504 32 0 64 0 34603520 1073741824 0 8 65536 0 4096 0 16777226 0 0 0 0 0 32 8388639 0 536870920 65536 0 2147483648 0 2048 32768 0 8 0 0 0 0 16 0 2048 0 0 0 1025 16 262144 0 256 0 0 2147483656 131072 64 4096 0 32768 0 0 131584 4194304 0 0 134217728 0 0 134217728 16384 1074266112 268435456 32 0 0 0 142606336 8 0 0 0 2101248 0 0 8192 64 0 0 0 0 285212672 0 2 0 0 0 1207959552 520 0 65536 0 0 0 129 1073741824 0 0 0 4098 2147483648 512 16781312 1024 0 0 0 1048576 17 0 0 0 0 0 0 0 285736960 0 0 0 0 4096 16384 0 0 570425344 0 268435456 0 256 0 212992 16384 0 16 704905728 4 128 0 0 0 134217744 0 524288 0 2097152 0 0 0 0 0 131072 0 0 67108864 1024 0 67108864 16 0 0 0 0 0 0 4 0 0 8192 262144 0 0 134217728 0 33554432 1207959560 0 2147483648 4194304 65536 268443648 0 8388608 268435456 0 131072 2097152 0 0 0 1050880 8388608 0 1073741824 0 0 2149584897 1 8388608 0 0 65536 576 0 1048576 4194304 0 0 0 66048 0 0 4194304 1073741824 4194304 0 32 0 0 524288 0 0 536870912 1073742848 0 0 2097152 0 0 0 0 16777216 0 276824080 65536 0 4 8 33554432 524288 16384 2 0 0 262144 64 8 2080 8323072 134217728 33554432 16384 0 0 0 524288 0 0 0 2 4194304 0 2 1040 0 0 1073741824 0 536870912 536870912 0 80 0 17301504 2147483652 0 0 16777216 69206016 67108864 0 0 1048576 2048 0 0 1024 0 0 16777216 0 8392704 268435458 2176 262144 32770 96 16 2147483648 0 0 128 67108864 2048 0 528384 2048 0 2 0 524288 524288 16 0 0 0 0 0 512 1024 268435456 0 0 4 8388608 0 0 524288 0 0 0 33554432 0 0 0 0 536870912 0 65536 16744640 1056896 0 0 0 8192 0 0 0 0 0 0 0 268435456 67141632 0 512 0 8388608 1024 0 0 1073741824 32768 0 0 0 268534784 0 0 0 0 268443652 0 262144 0 0 0 0 0 0 0 18 603979776 71434256 64 0 1024 0 512 0 4096 0 0 8192 131072 0 0 131072 256 16777472 0 4 2155872256 0 0 2097152 133248 0 0 33280 1073741824 0 64 1073741824 0 0 0 0 4 0 256 268435456 34 67108864 0 0 0 0 138412032 0 8388608 16 0 0 0 8388608 0 32768 65536 3221225600 268437568 64 0 16384 32768 0 64 0 2048 0 132608 512 0 8 0 4194304 0 0 32768 2097152 0 32 536870912 16 2148007936 8192 0 0 0 0 0 0 0 0 1048576 8192 0 4194304 128 1056768 268435456 0 0 0 67108864 0 603979776 0 0 1073741824 1056768 0 0 0 8192 0 2147483648 1 0 2147483648 0 4196352 16777856 65536 4194304 0 0 0 0 0 524288 0 0 524288 0 264 0 0 33554432 0 128 524288 163840 1048576 0 0 0 128 8192 16 131080 10485760 0 0 0 1 268435456 0 0 32768 16777216 1024 268435456 536870920 1073741824 2097152 0 4 0 4 536870912 0 1073742848 0 0 0 128 0 16392 0 1024 0 0 0 0 0 0 335544320 256 1048576 16384 0 131072 0 4194304 2176 0 0 134217728 536870912 32768 2049 0 0 0 0 1073741824 32768 0 4096 4096 0 536871040 4194304 512 512 0 0 0 0 1 16777216 0 0 1073741824 0 0 268435457 134217728 0 0 4096 8 16384 9 0 0 0 16 0 0 0 131073 2097152 131072 8192 50339840 33554448 8200 0 0 0 1064960 0 0 134283264 536870948 0 0 0 2048 0 537133056 0 0 0 0 4096 0 33554432 524544 0 536870912 0 0 0 0 4 0 32896 128 0 71304192 536870912 0 67108864 16 0 128 0 0 0 8192 0 0 1077938176 1073741824 256 0 4096 8650752 268435456 0 0 0 0 0 4194304 0 16385 4 0 65536 0 9437184 0 0 0 0 0 67125248 536870912 2 536870912 0 0 1 0 1074790408 128 0 0 0 0 0 262144 2 268435456 4194304 0 2147483648 0 65536 0 0 0 262144 2048 0 0 0 0 33588224 0 8192 0 1049088 0 64 276955136 1049024 67108864 512 0 0 0 2147483648 0 0 64 0 2147483649 0 16384 0 0 0 0 262144 262144 0 0 0 0 0 0 1073741824 0 8192 0 4 8388736 0 272629760 0 536936448 0 131072 0 2097152 67108864 0 402653248 0 0 557072 2147483680 0 131072 2181038080 524292 0 0 2048 0 67108864 8388608 0 0 0 1073741856 4 524288 0 1 524288 0 0 0 0 0 512 0 8390656 0 1207959552 8 0 0 8192 524288 33554432 2048 1082130436 0 0 0 8 0 1041 4194304 1024 1 8196 0 0 0 0 0 0 0 0 131072 2 524288 0 1207959552 524288 0 0 1024 134217744 270336 524288 0 260 0 0 0 0 0 0 0 0 260 2048 0 16777216 0 0 16777216 8 536870912 0 0 4194304 0 48 33554432 8389120 128 0 538968064 0 0 0 8192 16384 8 32768 0 0 2050 1 0 2147483648 512 16777216 268435584 268435456 0 4608 8192 16384 0 268435456 0 0 524288 0 2147483648 33554436 128 32768 67108872 2048 0 4194304 0 0 128 0 0 0 0 2147483648 0 65536 1074003968 0 2147483648 0 0 0 268435456 0 524288 4 0 0 0 0 8192 0 0 0 0 0 0 0 0 0 83886080 0 536870912 65536 524288 8388608 0 64 0 8192 8192 0 1024 131072 131072 0 8 0 0 512 65536 0 16786944 256 33058 0 134218240 0 4096 0 0 256 0 0 67108864 8388608 32 65664 524288 71303169 0 32768 0 0 0 0 8388608 0 0 0 0 0 33554432 268435712 536870976 0 131072 0 0 0 65536 4327936 256 524800 32 0 0 0 1 134217728 0 0 2147483776 65536 524288 0 0 0 0 65536 0 4 2 0 0 37376 2147483649 0 33554432 16 16777216 0 33554432 0 4354 0 0 0 0 0 262144 128 2359304 0 8388608 136314880 0 0 8 0 0 0 524288 0 2 0 528 0 0 0 1310720 1179648 1048584 16 0 524288 16777216 0 512 32 64 147456 1073741824 0 0 0 1024 0 67108864 0 0 4210688 0 0 0 8192 2147483648 2048 32768 0 0 0 32768 8196 0 8192 2 0 0 0 256 0 256 0 0 524288 524288 16388 0 67108864 128 0 32 536875264 4 1048576 16777216 0 0 0 4194304 0 0 0 0 134217728 0 256 0 16 0 0 0 0 4194304 2048 1024 301989888 4325376 0 128 0 0 536870912 0 17412 16384 0 0 0 268697600 0 0 0 25165824 0 0 0 0 4096 0 201457664 1 0 0 0 0 0 524320 0 2048 0 0 0 0 32800 524288 134217856 0 67141632 0 0 4194304 0 4194304 8 131072 512 0 0 1024 16777216 0 0 2686980 2147483648 16777216 0 0 65536 0 0 131072 0 33554432 0 0 0 268435468 0 0 0 0 1048576 0 1208221716 262144 0 65536 0 0 1073741856 2048 4096 0 0 268435456 67108864 1048577 0 0 524288 67108880 0 512 0 0 2048 0 32 0 16 0 16777216 268435456 0 8192 8704 4096 2097152 0 1048576 536870912 65536 0 0 0 32768 67109248 0 0 0 0 131072 136314880 4096 2 0 0 0 128 0 0 4194496 32 0 50331648 0 0 0 16777344 0 4194304 0 524288 0 0 0 0 0 131072 33570816 131072 0 4194304 150994944 0 0 0 8192 262144 0 2147483712 0 0 0 0 1073741824 2684355072 0 687865856 2147483648 128 131072 0 0 0 4194304 0 0 131072 0 1074020352 0 134218752 2097152 0 0 0 2 0 0 32768 1 0 0 2048 8388608 16777216 0 0 0 4096 0 0 0 2048 8 0 0 512 0 0 32768 1048576 8 2147483648 1073741824 0 0 16 64 64 0 1024 2112 0 0 0 536875008 0 32768 0 1073741824 16384 1048640 0 64 0 16388 1073872898 0 4128 0 0 16777216 8388608 0 134217728 0 0 0 134217728 1073741824 268435456 0 0 131072 0 2048 0 16777216 0 0 4195328 0 0 0 64 0 2147493888 0 558080 0 0 0 2048 280 2147483682 0 0 0 0 0 64 262144 0 512 0 0 2 0 65536 0 0 1048576 4194320 8 0 0 0 64 131136 69632 33554432 65536 2164260864 0 0 16777216 8388608 0 0 0 0 134217732 8192 0 524288 128 128 65536 128 136314880 0 0 0 4194304 1048576 67108864 0 0 0 0 2097152 4 0 32768 2097152 0 256 128 0 128 4096 0 8388608 0 0 0 0 0 0 0 134217728 131072 2147483648 16 0 1024 16 0 64 4210688 8388608 0 134217728 0 1024 65536 0 0 0 128 64 0 33554432 0 0 0 2147483648 17039369 12289 163840 0 256 0 67108864 520 16 0 264 0 128 1078460416 0 0 33554432 0 0 0 0 0 3145728 0 0 1 2097160 0 134217728 512 0 0 425984 0 0 134217728 0 8650752 0 1024 1179648 0 524288 32 256 0 0 0 0 0 2097152 524288 0 0 16384 4218880 2048 524288 524288 263168 0 16777248 134742016 0 65536 0 2048 4096 0 0 16416 0 512 0 0 134217728 2097152 0 0 147456 0 8388608 524288 0 0 0 0 0 262144 0 0 0 0 0 2147483648 268435456 0 0 16777216 0 0 2048 0 8192 67108864 17825792 0 256 0 64 0 0 0 0 4194304 2048 0 131200 4096 4096 2147483648 0 2147483648 132096 0 4210688 0 0 131072 0 2 0 0 0 0 0 2147483920 536875008 0 268435456 512 0 8192 134217728 131072 67108864 0 8 268435968 16777216 0 1 0 8388608 0 4096 16384 0 131073 16384 0 0 536870912 0 1074003968 0 4194304 0 0 2147483648 4194320 0 2048 1 0 0 8388608 0 0 2 0 4 0 0 0 512 512 0 536870912 0 2 20480 0 0 0 1073741824 0 1073741824 0 0 0 0 1024 0 0 0 0 268435456 0 1 268435488 0 0 4194304 0 67108864 0 0 32768 33554432 2162688 0 256 65552 0 0 2 3221225472 0 0 18874368 270336 16384 128 0 384 262144 16384 136314880 0 256 4194304 8519680 0 0 268435456 32768 0 8192 0 393216 0 0 0 0 0 0 1049088 2048 0 1048640 524288 0 134225920 0 0 0 0 67108864 524288 0 0 262176 0 0 16384 1 0 0 1073741824 131072 0 0 1024 0 4194308 524288 0 1032 0 0 0 0 80 32768 0 2147483656 0 16 0 64 0 0 0 0 0 524288 4096 0 0 2048 33554432 1073745920 1073743872 8388608 0 512 1 0 134250496 0 128 8388608 4194304 0 2048 0 1073741824 131072 4198400 128 64 0 0 0 0 0 2281701380 136 134217728 0 0 16 131072 67108864 0 0 0 0 0 0 536871168 0 0 0 0 16777216 1074004096 1052672 0 136314880 4 0 1073742848 0 0 524289 0 4096 0 0 0 536870912 4096
is_linear=0
shrinkage=0.05


Tree=4
num_leaves=64
num_cat=15
split_feature=9 9 9 9 4 9 9 9 4 4 4 4 9 4 4 1 1 3 3 2 1 2 1 15 14 4 9 7 1 4 1 1 3 9 3 1 13 1 2 2 2 4 3 9 13 4 2 4 1 1 9 3 13 13 4 4 1 1 4 3 13 1 1
split_gain=421289 25028.3 14994.1 4316.14 3187.71 2171.49 1693.46 1621.18 1202.28 1078.94 1067.43 857.599 655.173 647.233 605.825 417.42 563.46 400.873 340.083 334.399 324.552 298.472 305.549 288.071 278.048 268.209 267.907 267.623 246.501 240.552 232.177 310.926 231.419 195.96 185.784 178.653 177.036 176.031 240.294 173.76 201.991 171.504 171.123 167.483 164.415 163.831 163.823 163.817 163.407 182.024 163.298 158.782 150.247 146.786 197.26 145.199 144.935 143.421 150.489 139.895 139.397 132.373 191.289
threshold=0.31622806191444403 0.47871376574039465 0.20864427834749225 0.36425061523914343 0 0.26500600576400762 0.14379699528217318 0.66915422677993786 1 2 3 4 0.41728855669498449 5 6 48.853794097900398 48.903196334838874 28.500000000000004 28.500000000000004 2.3256151676177983 48.840650558471687 2.3714627027511601 48.877367019653327 -0.032258048653602593 0.062660258263349547 7 0.34815546870231634 -0.6035533845424651 48.895912170410163 8 48.855381011962898 48.89392280578614 18.500000000000004 0.28474904596805578 28.500000000000004 48.855094909667976 0.23132664710283282 48.87254714965821 2.4090626239776616 2.3092545270919804 2.3894776105880742 9 18.500000000000004 0.30471627414226538 0.6776927411556245 10 2.3003144264221196 11 48.899774551391609 48.816297531127937 0.34815546870231634 15.500000000000002 0.23132664710283282 0.64549729228019725 12 13 48.822257995605476 48.860788345336921 14 22.500000000000004 0.48999600112438207 48.870334625244148 48.849241256713874
decision_type=2 2 2 2 1 2 2 2 1 1 1 1 2 1 1 2 2 2 2 2 2 2 2 2 2 1 2 2 2 1 2 2 2 2 2 2 2 2 2 2 2 1 2 2 2 1 2 1 2 2 2 2 2 2 1 1 2 2 1 2 2 2 2
left_child=2 3 6 8 23 10 13 9 26 -3 34 45 29 18 33 42 19 55 24 59 43 22 -22 -5 -1 -12 39 -9 47 -6 46 60 -15 -7 57 -25 61 53 -39 -2 48 -28 -11 -16 -44 -8 -14 -24 49 -41 -10 -26 -36 -21 -55 -13 -48 58 -4 -17 -32 62 -27
right_child=1 7 5 4 12 14 11 27 50 15 25 17 30 32 20 16 -18 -19 -20 37 21 -23 28 35 51 36 41 -29 -30 -31 31 -33 -34 -35 52 -37 -38 38 -40 40 -42 -43 44 -45 -46 -47 56 -49 -50 -51 -52 -53 -54 54 -56 -57 -58 -59 -60 -61 -62 -63 -64
leaf_value=-0.0099833959445543609 0.0010222034414485105 0.0097969265375100097 0.00026801971880253408 0.0033346131682582187 0.0027161566618271182 -0.0018504071897640834 -0.0065098432126827538 0.020044172171112151 -0.00079888153044506698 0.0073592658546566964 -0.0037043843793869019 -0.0046779304661229261 0.005429270898997785 -0.0079471969708986602 -0.0020567353297583748 0.0062194249723851657 0.0097786213663220416 -0.0057556315913237623 -0.0086571359738893822 0.0091328596072550866 -0.00036653151951730468 -0.0022534835251420736 -0.00035193343164399151 0.004763184511680155 -0.00049621590526774677 -0.0037043843793869019 0.0015164315939135836 0.020942864182945345 -0.00056173875374719302 0.001018187348116187 0.0038162825611233716 0.0045241295674256976 -0.0094177851185388885 -0.0001518269603373479 -0.0023090291621768845 0.0037048829063959427 -0.0045417052137851719 0.0037427918446063997 0.0073592658546566964 0.0029667720537446458 0.00096314268374815548 0.0015164315939135836 0.0096319939401745807 -0.0006841863919608282 0.0095021243599057205 -0.0058141906979866324 0.0051557006296515471 -0.0037216049752384407 0.0025653824448771765 -0.00010171700513456061 0.00033816930683329974 -0.0064221424713917091 -0.0037836830916488542 0.0012189943642169244 0.0078856621236354126 -0.0061765094521827992 0.00376135253695771 -0.0027122545840824021 -0.0026502091887081027 0.0090259339120984088 0.001216070664804428 -0.0040394408999010921 -0.0014316570389270784
leaf_weight=10391 3744 32954 2127 3561 15525 7501 22925 48679 15576 2794 18778 12943 4206 9775 7804 1407 10486 27793 43996 7823 9357 6948 1014 14045 648 3065 4074 122338 2338 13799 7000 4717 135068 12191 6803 13275 12334 5610 1596 428 2694 4212 31232 1524 11202 19095 3088 3794 496 6602 8880 18323 4674 1245 2050 9965 8423 6177 2165 8945 3317 4585 3026
leaf_count=10391 3744 32954 2127 3561 15525 7501 22925 48679 15576 2794 18778 12943 4206 9775 7804 1407 10486 27793 43996 7823 9357 6948 1014 14045 648 3065 4074 122338 2338 13799 7000 4717 135068 12191 6803 13275 12334 5610 1596 428 2694 4212 31232 1524 11202 19095 3088 3794 496 6602 8880 18323 4674 1245 2050 9965 8423 6177 2165 8945 3317 4585 3026
internal_value=0 0.0351898 -0.0350815 0.0176498 0.023994 -0.0197578 -0.0408086 0.0435633 0.00529482 0.0390374 -0.0259595 -0.0351479 0.017273 -0.0432141 -0.0122248 0.0360178 0.032243 -0.0307379 -0.03934 0.0286163 -0.0163881 -0.0132553 -0.00959523 0.0370512 -0.0351781 -0.0306522 0.0137017 0.0466688 -0.0173804 0.0119288 0.0223749 0.0179327 -0.0451703 -0.00528373 -0.0170022 0.0388067 -0.0269765 0.024558 0.0184707 0.00948152 0.00610568 0.0208303 0.0392942 -0.0242817 0.0400834 -0.0404521 0.026624 -0.0238561 0.00190008 -5.6899e-05 -0.00235837 -0.0315771 -0.0214037 0.0285033 0.019651 -0.0258469 0.0235384 -0.0121931 -0.00517241 0.0357998 0.0130707 -0.0222743 -0.0174438
internal_weight=0 426023 427127 137662 90956 116205 310922 288361 46706 117344 63734 92721 60075 218201 52471 84390 39162 50701 73358 28676 32779 23451 16503 30881 29362 41788 22250 171017 7146 29324 30751 15034 144843 19692 21946 27320 23010 18324 7206 13964 10220 8286 45228 9328 42434 42020 15717 4808 7526 7030 24456 18971 11477 11118 3295 22908 11511 10469 4292 10352 10317 10676 6091
internal_count=853150 426023 427127 137662 90956 116205 310922 288361 46706 117344 63734 92721 60075 218201 52471 84390 39162 50701 73358 28676 32779 23451 16503 30881 29362 41788 22250 171017 7146 29324 30751 15034 144843 19692 21946 27320 23010 18324 7206 13964 10220 8286 45228 9328 42434 42020 15717 4808 7526 7030 24456 18971 11477 11118 3295 22908 11511 10469 4292 10352 10317 10676 6091
cat_boundaries=0 1 2 3 4 5 6 7 8 9 10 11 12 13 14 15
cat_threshold=12582943 16515103 8388639 16646208 31807 8323072 16711681 14366 4131872 8388623 29729 32774 7340992 8323072 3932160
is_linear=0
shrinkage=0.05


Tree=5
num_leaves=64
num_cat=13
split_feature=9 9 9 4 9 9 9 4 9 4 4 9 4 9 3 4 1 2 1 4 4 12 7 3 1 1 2 1 14 1 9 13 2 9 4 13 9 1 4 2 1 1 1 14 3 1 1 9 3 9 3 4 1 1 1 4 4 7 1 1 8 13 13
split_gain=404657 22842.2 17926.6 3310.71 2812.14 2588.66 1698.33 1481.57 1313.3 1132.32 1025.15 886.126 616.667 556.148 467.03 455.997 451.729 430.523 402.068 348.01 335.839 313.287 306.797 304.07 300.664 293.669 307.575 276.05 270.072 249.09 214.869 213.639 205.88 205.747 196.648 232.365 188.032 187.814 178.141 177.259 214.31 175.218 179.554 175.024 173.39 169.098 171.125 170.773 159.206 154.553 152.597 151.918 149.993 145.653 144.172 143.963 140.866 140.504 140.494 192.584 139.826 139.77 139.32
threshold=0.33558559417724615 0.22767145186662677 0.48181217908859258 0 0.13079115748405459 0.30471627414226538 0.66915422677993786 1 0.41728855669498449 2 3 0.38126567006111151 4 0.26500600576400762 28.500000000000004 5 48.841115951538093 2.3161174058914189 48.905292510986335 6 7 0.556623935699463 -0.6035533845424651 28.500000000000004 48.855381011962898 48.87451362609864 2.4090626239776616 48.89392280578614 0.11747280880808832 48.840650558471687 0.19082633405923846 0.64549729228019725 2.4357316493988042 0.27823315560817724 8 0.22767145186662677 0.36425061523914343 48.83618354797364 9 2.298578262329102 48.809093475341804 48.847805023193366 48.886161804199226 0.0652475841343403 28.500000000000004 48.874814987182624 48.890348434448249 0.34815546870231634 34.500000000000007 0.18257576227188113 18.500000000000004 10 48.847805023193366 48.898897171020515 48.881502151489265 11 12 0.60355338454246532 48.820686340332038 48.864091873168952 -0.37940952181816096 0.29925373196601873 0.4803846031427384
decision_type=2 2 2 1 2 2 2 1 2 1 1 2 1 2 2 1 2 2 2 1 1 2 2 2 2 2 2 2 2 2 2 2 2 2 1 2 2 2 1 2 2 2 2 2 2 2 2 2 2 2 2 1 2 2 2 1 1 2 2 2 2 2 2
left_child=1 4 3 11 12 10 9 14 19 -4 33 37 28 34 53 -9 -11 48 25 32 41 52 -8 58 39 31 56 54 -1 38 -16 -19 36 44 -12 -36 -5 57 -15 -10 -41 -7 -43 -14 -3 47 -47 -21 55 -25 -45 -39 -13 -6 62 -18 -27 -2 -17 -60 -29 -49 -26
right_child=2 5 6 8 7 20 22 15 24 16 13 21 43 29 30 23 17 18 -20 45 -22 -23 -24 49 27 26 -28 60 -30 -31 -32 -33 -34 -35 35 -37 -38 51 -40 40 -42 42 -44 50 -46 46 -48 61 -50 -51 -52 -53 -54 -55 -56 -57 -58 -59 59 -61 -62 -63 -64
leaf_value=-0.0085084427359132103 0.002061970629113724 -0.0014848571275416752 0.0094609257592642697 0.00094488972519198716 -0.0044440339428167804 0.00075074121494870811 0.019041963562556545 -0.0053956038680700591 0.0051770942250043139 0.009150394243165853 -0.0031180959365367886 0.005096453525441697 -0.010727081711086446 -0.00063845971315517063 -0.0054421478162137802 -0.0061310229244483623 0.0073967310553193118 0.0083269162433487372 0.0089289876585602786 -0.00079359168883133546 -0.00089663859803276182 0.0027393103617606666 0.019895720973798076 -0.0066919936637012296 0.004709255345012992 0.00022765064314100581 0.0073123008059114234 0.0028881480703623953 -0.0060084425123957926 -0.0016046031776703884 -0.0039159241712177165 0.0056230389026235804 0.002558897798436691 -0.00058018978984444587 -0.0023828018627166745 -0.0039713709599375731 0.0025753993127522997 0.0014827024556128305 -0.0021674055776158357 0.0049442118668705237 0.0038378650931576276 -5.5829839505253112e-05 0.0011109231176332113 -0.0071821900854436684 -0.0022025568830331328 -0.0019110156919942265 0.00054025838461052307 0.0036795536446599317 0.01000266615764797 -0.0049456588792863776 -0.0083586606035558515 0.0011159345734296361 0.0042503000277457738 -0.00025660296159493723 0.00054320785419642863 0.01052658856378496 0.0051985219353586441 0.0011159345734296361 -0.0046605411720303802 -0.0063377204322097817 0.0054409099305542195 0.00085073140573035944 0.0013573004054399209
leaf_weight=47475 2663 7769 32266 7934 19776 5816 48679 28076 4601 28250 12206 10088 52879 1799 17211 3142 5606 15379 5554 1775 15988 1393 122338 20768 5502 2019 1781 2624 12198 21745 8537 6688 1631 8357 6741 9996 14493 5334 6867 1970 10339 7281 2795 6022 9403 2996 3337 3112 6628 13962 77732 4172 14819 996 2561 7045 3287 973 9246 15037 2366 10315 2812
leaf_count=47475 2663 7769 32266 7934 19776 5816 48679 28076 4601 28250 12206 10088 52879 1799 17211 3142 5606 15379 5554 1775 15988 1393 122338 20768 5502 2019 1781 2624 12198 21745 8537 6688 1631 8357 6741 9996 14493 5334 6867 1970 10339 7281 2795 6022 9403 2996 3337 3112 6628 13962 77732 4172 14819 996 2561 7045 3287 973 9246 15037 2366 10315 2812
internal_value=0 -0.0326455 0.0363271 0.0199168 -0.0393168 -0.013616 0.0430982 -0.0338122 0.0139644 0.0383855 -0.0181786 0.0317322 -0.0431515 -0.0217826 -0.0265377 -0.0375555 0.0352481 0.0325717 0.029244 0.00847828 -0.00146801 0.037038 0.0462536 -0.0351331 0.0216003 0.0268951 0.0180401 0.0166562 -0.0388561 -0.0170645 -0.0310432 0.029739 0.0126101 -0.00978699 -0.0267474 -0.0231594 0.011368 0.0211383 -0.0242326 0.0262389 0.0231091 0.00367878 -0.000307662 -0.0450213 -0.0129222 0.00385472 -0.00300805 0.00671622 0.0385627 -0.0382465 -0.0436027 0.0174416 0.0383286 -0.0209657 0.0121885 0.0352739 0.0120053 0.0308031 -0.0312033 -0.029916 0.0263928 0.00864303 0.0153837
internal_weight=0 449820 403330 117810 333057 116763 285520 136751 78368 114503 84883 39442 196306 59354 46520 90231 82237 53987 34708 45593 31880 26300 171017 62155 32775 29154 7087 15865 59673 30411 25748 22067 24058 25529 28943 16737 22427 13142 8666 16910 12309 15892 10076 136633 17172 21535 6333 15202 19279 34730 83754 9506 24907 20772 10875 12651 5306 3636 27425 24283 4990 13427 8314
internal_count=853150 449820 403330 117810 333057 116763 285520 136751 78368 114503 84883 39442 196306 59354 46520 90231 82237 53987 34708 45593 31880 26300 171017 62155 32775 29154 7087 15865 59673 30411 25748 22067 24058 25529 28943 16737 22427 13142 8666 16910 12309 15892 10076 136633 17172 21535 6333 15202 19279 34730 83754 9506 24907 20772 10875 12651 5306 3636 27425 24283 4990 13427 8314
cat_boundaries=0 1 2 3 4 5 6 7 8 9 10 11 12 13
cat_threshold=12582943 8323136 8388639 16646144 4128768 2078 4131872 16711695 14366 98307 15 258432 648960
is_linear=0
shrinkage=0.05


Tree=6
num_leaves=64
num_cat=55
split_feature=9 9 9 4 9 9 0 0 9 0 4 0 0 0 0 0 0 0 0 0 0 0 0 0 4 0 0 0 0 0 0 0 0 0 0 0 0 0 0 0 0 0 0 0 0 0 0 0 0 13 0 0 0 0 0 0 0 13 0 0 0 0 0
split_gain=389925 22414.1 17765.1 3287.95 3025.43 2326.93 2018.27 1858.81 1691.08 1654.59 1475.21 1360.41 1282.86 1264.76 1261.7 1258.62 1222.27 1175.64 1125.47 1118 1113.44 1110.99 1300.35 1091.25 1061.58 1093.99 1021.67 989.742 942.559 937.209 898.727 859.712 867.607 839.183 831.68 829.912 796.345 792.233 790.932 773.511 755.827 754.647 725.615 720.957 716.812 689.89 682.426 651.904 640.498 635.176 993.232 794.018 659.453 649.15 631.578 622.758 610.616 603.911 922.846 849.426 784.831 761.329 632.173
threshold=0.33558559417724615 0.22767145186662677 0.47871376574039465 0 0.13003220409154895 0.28474904596805578 1 2 0.62583333253860485 3 4 5 6 7 8 9 10 11 12 13 14 15 16 17 18 19 20 21 22 23 24 25 26 27 28 29 30 31 32 33 34 35 36 37 38 39 40 41 42 0.27346041798591619 43 44 45 46 47 48 49 0.33558559417724615 50 51 52 53 54
decision_type=2 2 2 1 2 2 9 9 2 9 1 9 9 9 9 9 9 9 9 9 9 9 9 9 1 9 9 9 9 9 9 9 9 9 9 9 9 9 9 9 9 9 9 9 9 9 9 9 9 2 9 9 9 9 9 9 9 2 9 9 9 9 9
left_child=1 4 3 9 23 15 -4 -5 24 -2 20 -9 -12 -11 -10 -3 -13 -7 -17 -18 -6 -15 -23 -1 25 -8 -26 -14 -21 -19 -24 -30 -33 -25 -22 -28 -20 -32 -34 -16 -36 -38 -37 -31 -35 -29 -43 -47 -44 50 -48 -52 -51 -53 -45 -40 -42 58 -57 -59 -61 -60 -62
right_child=2 5 6 7 10 17 8 11 14 13 12 16 27 21 39 18 19 29 36 28 34 22 30 33 26 -27 35 45 31 43 37 32 38 44 40 42 41 -39 55 -41 56 46 48 54 -46 47 49 -49 -50 52 51 53 -54 -55 -56 57 -58 59 61 60 62 -63 -64
leaf_value=0.0023075857352222785 -0.0029358020436698108 -0.0030247693112015724 -0.0037993559570009107 0.0054951633013479387 0.0066959044022558483 -0.0027641125207900521 -0.0013895271231541884 -0.0057175458310138455 -0.0015508360656546303 -0.0029025204883566581 0.0044429276925894937 0.0058811898699283605 0.00076403706394150006 -0.0026269455310869495 0.0030434595175619032 0.003317511009857871 0.0061213694425711427 0.0026626680893721277 0.0026997023667714561 -0.0044311331838018473 0.0029819529238584441 -0.00090799728801282953 -0.0002830906599927241 0.00081580896999123578 -0.0049118636814740463 0.0083212134404172661 -0.0012702615994759721 0.00012220033259238149 0.004848370502583705 0.0035729625960918168 1.6539845161184231e-05 0.0046588542331915343 0.005234191717217002 -0.0015770909455847472 0.0018668090287092154 -0.00086711321595331911 0.0022851806089289827 0.0037701865601558696 -0.0052418134398164954 0.017812086878149724 0.0013885489785085915 -0.0037512873461365698 -0.00041812606658127587 0.0035225155171998202 -0.0084333054241966937 -0.00086189863134739086 0.0052731032321333892 -0.0056160197238799671 0.0078968066565735049 0.0015353871977945772 -0.0032983255734562872 0.0022392744877433395 -0.0034607995160753444 -0.0019281782835951057 -0.00055478136859610781 -0.0050215593926863037 -0.0047539322335963148 -0.0057195494291892275 -0.0034597459383841154 0.0054728500101361641 -0.0054525779886652279 0.0033162709457880608 0.00065958756851623723
leaf_weight=555 657 3609 867 3469 566 1813 575 990 974 559 619 2465 989 531 1395 798 2515 966 803 830 668 1014 1074 1037 591 25484 828 1080 2198 913 1399 2498 2460 1474 827 954 974 33391 695 193893 829 2381 1090 1065 190062 1373 697 88176 61710 680 2218 580 21220 27416 50630 731 44802 801 814 1538 691 20282 33367
leaf_count=555 657 3609 867 3469 566 1813 575 990 974 559 619 2465 989 531 1395 798 2515 966 803 830 668 1014 1074 1037 591 25484 828 1080 2198 913 1399 2498 2460 1474 827 954 974 33391 695 193893 829 2381 1090 1065 190062 1373 697 88176 61710 680 2218 580 21220 27416 50630 731 44802 801 814 1538 691 20282 33367
internal_value=0 -0.0320193 0.0356862 0.0190673 -0.0386278 -0.013169 0.0423121 0.0130471 0.042541 0.0309551 -0.0330293 0.0113405 -0.0367269 0.0323213 0.045157 -0.0198742 0.0121448 -0.00573871 -0.0180738 0.0109117 -0.0258647 0.0334416 0.03448 -0.0426841 0.036918 0.0454812 0.0334819 -0.0372135 0.0096772 -0.0043931 0.0360623 0.010345 0.0092828 -0.0428846 -0.0267057 0.0340832 -0.0189026 0.0374569 0.00810324 0.0454388 -0.0275049 -0.0196116 0.0347312 -0.00529287 -0.0431285 -0.037758 -0.0203833 -0.038239 0.0353909 -0.0191941 -0.0145822 -0.0159443 -0.0257123 -0.0136506 -0.00607388 0.00693971 -0.0283659 0.00750421 0.0140812 0.00356211 0.00471269 0.0159955 0.00312904
internal_weight=0 449820 403330 114969 333057 116763 288361 76344 287494 38625 139929 72875 92237 37968 196262 61376 71885 55387 57767 69420 47692 37409 36878 193128 91232 26059 65173 91618 66905 53574 35864 66075 63877 192573 47126 64582 56969 34790 61379 195288 46458 56166 63754 52608 191536 90629 55192 89549 62800 52811 30911 30214 21900 27996 51695 58919 45631 58224 21827 36397 35596 21096 34058
internal_count=853150 449820 403330 114969 333057 116763 288361 76344 287494 38625 139929 72875 92237 37968 196262 61376 71885 55387 57767 69420 47692 37409 36878 193128 91232 26059 65173 91618 66905 53574 35864 66075 63877 192573 47126 64582 56969 34790 61379 195288 46458 56166 63754 52608 191536 90629 55192 89549 62800 52811 30911 30214 21900 27996 51695 58919 45631 58224 21827 36397 35596 21096 34058
cat_boundaries=0 1 48 90 137 138 182 230 276 323 370 417 465 511 557 602 649 695 740 741 788 835 879 924 971 1019 1065 1112 1156 1202 1249 1295 1339 1377 1423 1470 1517 1565 1610 1657 1702 1748 1795 1841 1888 1935 1983 2030 2078 2124 2168 2216 2263 2311 2358 2402
cat_threshold=12582943 8192 0 0 0 0 0 0 8388608 2097408 0 0 0 1 268435456 0 0 16779264 0 128 33554432 0 2147483648 0 64 1073807360 536879104 536936448 0 558366720 1048832 0 0 8 1 0 8 16 0 0 0 0 2147483648 0 0 0 2052 256 4194304 2097152 0 192 67108864 8388608 16392 0 0 0 536870912 1024 402688000 0 4160 1073741824 2 0 0 32 0 0 0 0 0 8 0 0 8192 0 0 4 0 0 0 8192 73728 256 2147483712 0 0 3328 32 0 0 0 0 0 0 128 2147487744 8388608 0 0 0 2147483664 0 784 0 0 0 8 33554432 256 512 1073741824 0 18432 0 0 1050624 32 0 0 64 0 0 32768 8 50331648 256 0 0 0 0 0 0 4194304 268435456 8323136 0 1073745928 16512 4194304 0 0 524290 0 0 2 268435456 4194304 0 0 0 0 0 0 32 0 260 0 0 0 0 2098180 0 8192 16777216 0 8388608 4194304 8388608 1048864 67110912 0 1073741824 0 0 2147483648 0 0 4096 268435458 8192 0 2 32 65536 8 0 1 0 134217728 1073741824 8192 268435456 0 0 9216 0 0 1025 0 2147483648 0 0 67109504 0 71303168 1048576 0 0 0 0 0 0 0 16386 0 0 4194304 0 0 0 0 536870912 0 33554432 131072 0 32 25 0 0 0 8 0 0 2147483648 2097152 0 0 1073741824 0 0 0 0 256 318767104 0 2 0 2 2097152 134217728 0 8192 65536 0 4 0 128 0 0 0 0 4098 0 2097152 16781312 0 0 0 0 1179648 2 16384 0 0 0 0 0 4 16 131072 8388672 0 0 8192 8388608 0 0 0 32768 0 0 268435456 8 1090519040 2097152 0 4 0 4 134217728 128 1075840000 0 0 67108864 128 2 16400 0 1024 0 1024 0 4096 0 256 0 256 1048592 256 0 4194304 16384 0 2 0 9216 0 1073741824 0 0 0 0 0 131072 2147483648 0 134217728 1081344 0 0 0 0 256 32 0 0 0 520 262144 1048704 0 2097280 32768 266240 0 2 0 0 512 1 0 1024 16 128 16777216 1024 32768 16777216 40 256 1073743904 2105344 0 0 4 16777216 0 0 0 0 2049 0 0 0 524288 32 0 16777216 0 2 67108864 8 0 256 0 0 131072 0 805306368 0 268435456 0 0 0 524288 131072 83886080 0 0 0 2147483648 1 1024 134217728 0 0 268435456 0 0 2097152 262144 17039360 0 0 0 262144 0 0 0 65536 0 262144 516 8519680 0 16384 16896 0 0 131136 0 34603008 33554432 0 268435528 65536 0 4096 2147483648 16777216 0 2181038080 0 0 0 0 0 0 0 8 1 0 0 0 16 8 150994944 32769 0 0 2048 0 0 0 0 2 0 1 0 0 2181038080 0 0 32 0 67108864 0 335544320 2097152 4194304 0 4 0 0 2 1025 0 2415919104 33554432 16384 4096 0 0 0 2097152 2097152 16777216 512 32768 805306369 16908304 67108864 67108880 0 16 0 0 0 536879112 512 0 0 0 0 0 16 0 268435456 134217728 1 0 0 0 4194304 0 1 4 0 65536 134217728 1048576 0 0 0 0 0 8388608 0 34 16777216 0 8192 0 0 0 8388608 4194304 2176 524292 0 134217728 0 8 1 1048576 0 67108864 0 1073741824 256 0 65536 36864 2097152 128 12582912 0 17301504 1048584 268435456 0 0 0 0 524288 0 0 0 0 0 134217728 0 16 131072 0 16384 262145 0 0 0 8388608 0 0 0 0 17301504 0 0 0 0 4096 16384 0 0 671088640 0 268435456 1073741824 0 0 4521984 81920 67108864 16 679477248 0 0 1 268435456 0 138412048 0 0 4096 16898 1073741824 0 0 0 0 0 0 0 67108864 1049666 0 0 4194304 0 0 0 65536 268435456 64 0 0 4194304 8192 262144 67108864 0 0 0 33554432 134217736 262144 2415919104 0 8 0 0 33554432 268435456 8 131072 0 0 0 0 1050880 8388608 0 0 0 0 1 262145 0 0 32 0 8 262656 0 0 66048 671088640 0 392 134217728 0 0 0 33554432 0 262144 0 0 0 4096 0 0 0 0 0 0 0 1077936128 80 0 8 0 2147483680 0 524290 0 0 134217728 67108864 269484032 2147483648 0 0 0 262146 8388639 2048 0 8388608 8388608 0 0 65536 3221225472 2048 0 0 0 32768 0 64 0 0 0 132608 16896 0 1073741832 0 1077936128 0 0 67141632 0 0 4194304 536870912 20 0 8192 512 0 0 4194304 256 0 0 67108864 0 0 0 4194304 128 0 805306376 65536 16 2147484160 0 2048 256 0 64 0 16777472 0 0 16 0 0 0 0 805306368 1032 67108864 0 0 0 0 0 2147483648 131072 0 4096 0 131072 0 2097152 0 4194304 0 0 0 0 0 134217728 0 32768 268435456 1024 8388608 0 524288 1073741824 0 67108864 0 536870912 4 0 0 0 0 0 0 16777728 0 2147485696 0 528384 0 0 2048 8388608 65536 0 33792 0 0 4 0 524288 34 1024 512 0 9 0 0 33587200 0 536871424 0 8421376 0 0 0 0 0 524292 0 134480896 262144 2150105120 134742016 0 0 16384 0 4096 0 0 0 0 0 512 0 0 0 0 0 0 0 33554432 67174400 0 268443648 16 33562624 16810752 0 134217728 0 0 0 0 2155872256 8192 524288 0 0 32770 32 0 3221225472 2147483664 16777216 0 67108864 2048 0 528384 524800 0 524288 0 256 524288 16 0 33554432 0 32768 262144 512 0 0 8192 0 0 0 4194304 0 524288 0 0 0 33554432 0 268435456 0 0 536870912 0 65536 8192 0 0 0 0 0 0 0 0 64 16384 0 0 0 0 0 0 0 524288 0 16384 0 1073741824 0 0 2621440 1024 0 262144 0 16785408 33280 2097413 65536 0 4 16777224 0 524288 16384 0 0 0 0 8388672 8 2052 16 16 0 0 4197376 0 0 0 131072 0 256 301989888 262144 1073741832 0 0 16777216 0 0 524288 524288 4168 64 4194305 0 0 8 0 0 0 262144 0 131072 67108864 0 0 536870928 0 0 0 0 536870912 0 537526273 0 16 0 16384 65536 0 0 8388608 262144 0 0 0 268435456 0 0 0 25165824 0 0 6 0 257 0 0 0 33554432 0 33587200 168036352 524544 32768 0 0 134217728 0 1024 0 0 2147483648 0 64 2147483648 8192 2229248 0 0 1048576 0 0 0 268435456 2 0 67108868 8388608 0 0 0 67108865 2 32768 0 33554432 0 0 8388608 0 0 16384 0 0 33554440 268435456 0 0 131072 268435456 0 13 65536 0 256 1074266624 0 0 8388608 0 2 0 0 0 0 65552 1073741824 1073741824 0 0 131072 0 0 0 33554432 1 2 33554432 32768 2048 0 0 8388608 0 0 32768 512 4096 0 0 536870912 0 512 512 0 2048 0 0 8 16777216 0 0 0 536870912 2 268439556 0 335544320 0 4096 262152 0 8 327680 0 1073741824 0 0 0 536870912 0 32768 0 0 32832 0 0 0 0 1073741824 0 2147483648 0 0 2 0 0 131072 512 0 1 10 0 64 0 8 36865 0 268435456 35652384 0 0 0 134217728 0 0 0 16384 0 16384 32 65664 0 525312 0 0 0 67108864 0 0 4 17 0 0 34603008 1073742080 0 2 0 0 0 1073741824 64 2048 4096 0 0 1048576 1073745920 0 1073741824 8 0 0 0 0 1073741824 16777216 1048576 536870912 262144 0 0 524288 16777216 0 131072 0 16 1048576 524288 16777216 0 512 32 0 131072 4 0 0 32768 0 0 67108864 0 1024 0 0 0 16 8192 0 0 32768 32768 0 0 4096 8388608 268435584 8192 2 0 33554432 0 2 2 16672 2228224 0 524288 0 0 2 1073807360 9216 0 65536 0 128 0 1024 262146 4160 167772160 0 71303168 0 0 272630784 0 262144 524288 65536 0 67108864 0 0 0 1048576 0 0 0 16384 0 8388608 2147483648 0 4263936 1048576 0 0 0 128 8192 0 128 1 0 0 1 0 0 0 262144 262144 50331648 768 4194304 0 4 32784 9344 0 0 8193 536870948 0 0 0 0 0 0 0 0 0 0 0 2147483648 0 0 1081344 1048576 268435456 268435456 16928 67108864 4 0 0 0 48 0 16777472 0 16 0 1073741824 16777216 0 1024 0 0 0 0 8 1073741824 0 0 0 0 37748736 0 4228224 0 134348800 0 128 0 1073741824 0 0 0 0 128 0 2 0 8192 0 2048 8388608 1048576 0 0 0 512 0 0 64 132 0 4096 0 0 32 0 17039616 0 0 0 0 32768 2147483648 131072 67108864 0 0 268468224 128 16384 0 4194304 8396800 0 0 0 2147483648 2 4 0 2097152 32 16 0 144 0 0 8192 4 0 16384 0 32 0 0 131072 64 0 0 33554432 0 2147483648 0 512 0 2097152 0 1077952512 1 16777216 0 327808 256 1 0 1082130432 0 1107296384 0 0 0 1157660800 0 0 2 8192 0 0 0 0 0 0 0 0 0 2 2176 262144 256 32832 33554432 0 134348800 0 128 0 0 0 0 32 0 2048 0 0 65536 0 262144 524288 0 0 32768 0 272629760 4194304 0 4194304 0 132096 512 4194304 0 1024 0 0 0 524292 2147483648 0 536870944 0 512 268435520 0 0 67108864 0 128 528384 4194306 0 0 4612 1 0 0 0 8 0 33554432 0 2 0 0 536870912 0 524288 1 128 2359296 4194304 4325888 0 0 0 0 0 536870912 1 1024 0 0 0 0 0 2097152 0 262144 131200 0 0 0 0 0 66048 134742016 1140850688 0 0 32 0 0 2048 0 0 0 0 4194304 0 0 0 4194368 0 2147485696 0 2097152 128 0 8388608 268435456 536 2147483648 1073741824 0 0 524288 8192 0 1074003968 0 524288 524288 131328 2 0 128 0 256 536870912 0 0 0 0 0 33554432 2097152 2147483648 4 71303176 0 512 0 0 2155872256 128 8192 0 2149580800 8388608 4 278528 0 0 0 2147483648 0 0 0 67108864 524288 2149580800 8 0 0 0 0 0 0 2052 537395200 128 268435456 134217728 0 0 0 16 0 268435464 2097152 8 1073743872 16 131072 67108864 0 0 16384 0 0 0 536870912 0 0 0 0 4 1073741824 0 0 2099200 33554688 1 0 0 0 20752 512 0 1048578 0 128 0 4096 0 0 65536 512 131073 1048576 0 0 0 0 134217728 131072 0 0 128 16 8192 0 0 0 1216366592 0 0 65536 536870912 8 532488 0 2048 128 1024 0 0 0 32 0 16 0 524288 0 536870916 1024 0 0 0 0 131072 524288 1 18432 0 0 0 8 65536 0 1572864 0 0 0 4096 0 67108864 1 0 0 4 512 0 0 1073741840 0 1073741824 134250496 2097152 1073741824 0 1048576 0 17301504 0 0 134479880 0 0 64 0 0 0 0 0 0 4194306 4194304 0 4194304 0 2 268435456 0 134217728 1048576 0 0 0 4096 0 0 0 1074003968 134217728 16384 1073741824 69632 553648128 0 0 134348928 0 1032 16 0 0 0 16777216 0 16384 2 134217728 0 0 32 0 0 1075838976 512 1 0 4194432 0 0 0 33554432 0 1024 0 1073741824 0 512 1052672 0 0 0 8 0 0 1 8192 4 0 4096 1024 4096 0 0 64 0 0 512 0 0 64 0 0 0 0 0 512 69206016 0 16777216 67108896 1073741824 16793600 0 0 524288 268435456 0 67108992 16 0 0 0 0 8192 0 64 0 402653440 8224 0 0 33554432 0 0 0 0 131072 2148532225 0 0 256 256 0 0 32768 0 0 0 0 2560 268435457 0 2147483648 8388608 0 0 512 0 67108900 0 0 0 16384 100663296 0 8405004 0 0 16777216 8192 8192 0 0 0 524288 0 1024 0 0 0 0 262144 262144 524288 0 0 32800 2147483680 134217856 4096 67110912 0 1024 67108864 8388608 0 0 0 16 2 0 0 0 2048 67108864 65536 0 17301504 0 16777216 0 0 0 16 0 33554432 0 67108864 0 0 0 0 32 16781312 0 4 256 0 0 0 67112968 0 4096 0 0 0 0 134217728 6291456 537010176 0 131584 0 67108864 524288 0 0 128 8 8 16 35651584 2097152 134217728 0 0 8192 0 0 268435456 524288 0 1048576 0 0 536875008 0 8388624 0 0 4096 33570816 6291456 0 0 0 0 134234112 0 256 0 16 134217732 0 0 0 192 0 0 301989920 4194304 0 0 4194304 4194304 0 0 1048577 0 0 0 2097152 0 2097152 32768 0 8 0 0 0 4194304 4 0 0 2 0 1 2147483648 0 65536 0 0 80 84148228 0 0 0 0 268435456 0 0 17408 0 2099200 0 0 0 0 0 65536 524416 16777216 33554434 0 512 0 256 0 0 1 0 2 524288 402653184 1073741824 0 0 0 0 0 0 536903680 512 16777216 0 0 0 524288 131072 262144 2 0 0 0 64 16777216 524288 0 536870912 0 163848 268435456 0 32768 4096 262144 0 16384 0 0 0 0 0 2097152 0 16384 33554432 16 262144 512 2 0 33555456 6291456 0 0 2048 0 0 32 0 0 32768 0 0 0 16 0 0 8388608 0 536879104 0 0 0 1048576 0 134217728 2048 0 0 128 0 2 65536 0 1048576 0 294916 538968064 0 1024 2097152 2 0 2101376 32 0 67108864 268435456 0 0 0 0 8388608 0 0 0 0 0 131072 0 536870912 536870912 0 2052 0 0 128 0 0 1073741824 0 65568 0 0 524288 0 0 24 2097218 4194304 0 536870912 524288 524296 512 16777216 2147483712 1 2048 0 0 384 0 67108864 0 0 0 0 1024 144 0 0 32768 0 0 0 2064 0 0 2147483648 0 536871168 16777216 2048 4096 0 64 8388736 0 65568 0 8192 0 0 262144 1073741824 402915456 0 0 0 163840 0 0 0 16777728 64
is_linear=0
shrinkage=0.05


Tree=7
num_leaves=64
num_cat=56
split_feature=9 9 9 4 9 9 9 0 0 0 4 0 0 0 4 0 0 0 0 0 0 0 0 0 0 0 0 0 0 0 0 0 4 0 0 0 0 0 0 0 0 0 0 0 0 0 0 0 0 0 0 4 0 0 0 0 0 0 0 0 0 9 0
split_gain=376621 22379.2 17083.3 3387.5 2936.16 2338.07 2071.22 1916.07 1620.16 1589.85 1437.66 1369.48 1366.79 1322.82 1321.09 1306.11 1228.07 1181.78 1124.11 1069.21 1052.95 1027.36 1014.69 1013.08 1004.71 1149.43 1111.83 972.934 936.811 896.363 890.254 887.518 885.903 1138.08 920.767 870.364 842.935 925.051 871.651 833.218 768.47 857.779 762.07 760.294 760.183 741.623 730.411 695.734 689.125 666.689 663.809 631.7 1239.4 692.88 631.419 628.085 620.101 599.004 598.01 596.328 587.975 581.282 798.795
threshold=0.33558559417724615 0.2124435901641846 0.48181217908859258 0 0.28097587823867803 0.13003220409154895 0.73385417461395275 1 2 3 4 5 6 7 8 9 10 11 12 13 14 15 16 17 18 19 20 21 22 23 24 25 26 27 28 29 30 31 32 33 34 35 36 37 38 39 40 41 42 43 44 45 46 47 48 49 50 51 52 53 54 0.41223156452178961 55
decision_type=2 2 2 1 2 2 2 9 9 9 1 9 9 9 1 9 9 9 9 9 9 9 9 9 9 9 9 9 9 9 9 9 1 9 9 9 9 9 9 9 9 9 9 9 9 9 9 9 9 9 9 1 9 9 9 9 9 9 9 9 9 2 9
left_child=1 5 3 9 11 19 8 -5 -4 -2 12 -3 -10 -12 27 -9 -17 -16 -13 -1 -18 -8 -6 -20 -11 -26 -27 -7 -28 -15 -21 -31 34 -34 -25 -24 -22 -38 -39 -35 -33 -42 -19 -30 -29 -32 -40 -36 -43 -50 -23 52 -47 -54 -41 -46 -37 -51 -44 -56 -58 62 -48
right_child=2 4 6 7 22 14 21 15 10 24 13 18 -14 29 17 16 20 42 23 30 36 50 35 32 25 26 28 44 43 31 45 40 33 39 47 56 37 38 46 54 41 48 58 -45 55 51 61 -49 49 57 -52 -53 53 -55 59 -57 60 -59 -60 -61 -62 -63 -64
